-2648
-2448
-340
-5188
1856
-3002
-1658
-2183
-624
-3481
-3455
-934
-546
-724
-1900
21
-2445
-2120
-2653
-576
-564
-990
-3161
-600
-1751
779
-469
-2358
-1944
-4491
-2287
-2901
-1478
-2651
1820
616
-2038
-2999
-1357
-4509
-2715
-4576
-3049
581
-3286
-3055
-2068
-1120
-4323
-1637
-420
-3666
-1276
-172
-4590
-2727
-2406
-3375
-122
692
2983
-557
-2555
-3181
-2064
-992
-2202
186
-735
-1642
-3047
13
-2855
-2975
-815
113
709
307
-685
-484
-1535
-834
-1267
-3415
939
-1923
397
-1090
-2890
-4248
-1434
-1835
-4193
-4099
4163
140
75
-2458
-3685
220
-4377
1229
-1859
-604
176
-3416
1630
-2949
-1610
20
739
-1516
-1167
-255
-1859
-1411
-311
-2591
-492
-651
-1039
-833
664
611
742
-4357
-2084
984
-3592
-1226
43
-1954
-1063
-2918
-1066
-1765
-2493
-4958
-2462
1446
-844
-908
435
-1333
-1076
-3553
-1556
218
-4695
297
900
-2821
-2589
-213
-4120
-640
1348
-1157
-2923
113
-2504
-1279
-668
-1844
-35
120
-1374
760
-2998
-1744
-302
-3735
-4196
-4028
-1748
1839
-2083
-1038
-1647
-971
-4124
-2496
-3501
-1259
408
-3239
-3293
1644
-2306
1242
356
-3135
-3628
-4720
656
4089
1158
488
855
563
-3466
583
-1634
13
-2079
-2199
-513
869
1352
-3974
-2484
928
448
-1632
-2711
-4469
-1566
767
-335
-1775
-1532
-6202
-3059
-1235
-4695
-3542
-3113
551
-215
-1540
871
528
-2511
-2653
-729
47
-4454
-2514
1460
-4457
-2729
-6122
-1405
-2952
-3236
-593
-3492
-1550
-1251
-3238
-4594
-496
-3211
-1965
-2801
-173
-3398
-1837
-1525
-1651
385
-456
-3044
1521
-979
-1399
-944
-2335
-1611
172
-3243
-1084
-2082
-1535
275
-3993
3675
-608
-1030
-849
-1164
508
-1806
-13
-1431
-1758
-2087
-4932
4966
-1506
-299
-8350
-1792
-5515
-2584
-1265
-415
-1841
-2169
-960
1442
-1928
-1868
-3175
1867
548
-3176
-1207
-482
-191
-5081
-2278
-1111
-1825
-1541
-1687
-3775
-1437
-1378
-353
-3495
-4194
793
-762
3617
-1817
850
-2212
785
-960
722
-5298
-3285
-4828
-3742
-2713
-55
-836
4808
-2593
-2065
-1558
-2487
1928
-1123
-1215
-1133
-2113
-860
-748
2810
-2340
-300
2016
-416
-1915
-1223
-1938
-3859
-285
-3588
1388
-3201
3106
-1019
-842
-1732
-2927
-2957
-4340
873
-1412
-681
1153
-412
-2270
-3299
-64
-1727
1992
-908
-2146
-265
-2895
-180
-6317
-1303
-3974
-729
91
-2221
-100
-2300
-1377
1215
-3029
-3278
3053
-1667
-2698
-1680
-2240
-498
-2512
406
-1511
-3339
-1574
758
-1260
-179
-1757
-963
-400
-2573
-4691
-444
1376
3772
1235
50
-3412
-4015
-1332
622
-717
-690
5
1675
-2402
-1160
-1655
203
-2667
-246
1125
-1030
-2984
-2715
-1998
-3719
126
-3734
947
-2505
788
-1149
2792
-1594
222
-3233
-1682
-1401
-1138
2568
1737
-2855
-1726
-2175
-1382
-2893
-3663
-1108
-2555
-1500
-1048
849
-81
-2243
812
-735
348
-1148
-313
-1613
-5813
-263
1563
492
-4009
-2079
-4228
103
-1638
-710
-1141
-946
-3473
-390
-403
-882
-6455
-384
-2627
-1563
1041
-1852
-4992
-5802
4285
-260
-226
289
-2121
-1781
-1681
-2678
-187
-2028
-6803
-2111
-3593
-2146
-2309
-2937
-1808
-4753
-992
537
-2648
-1691
-2979
-1186
-638
-748
-416
162
1012
-2171
-473
-5091
-1620
-1635
-2872
-2627
713
-801
744
-3032
-1553
-396
-4057
-744
-2307
262
766
-2786
-2721
-3473
-1444
995
-566
-754
-2722
479
-277
-1296
-687
-2142
567
-4273
-262
-3683
-2057
-1916
-3017
-1071
-3555
-1363
411
-3434
-1012
-2335
-1625
-375
-1197
-1922
-5744
-3608
1014
-3043
-1311
-3985
-2033
-1210
-2631
-276
-3346
-295
-689
-3415
113
-1858
3057
-2503
-2011
-652
-2412
-1310
-624
-2239
-2740
260
1427
-2179
-1832
-794
-1822
-1268
-545
-3885
-1816
-2644
-2915
-1726
1702
-558
-5598
-806
1935
-4387
210
-1287
-929
149
-2467
959
-3299
700
-3129
-3299
-2204
-1734
-4491
-964
-2353
-1065
664
-4278
-977
-685
-532
151
-1051
-5141
-2065
-1313
-3574
-3498
-970
-1360
3002
-4408
-355
-786
-4371
2593
-2533
2378
-2136
-1345
1732
-309
-1283
-3480
-1195
-3974
-2909
1077
-2110
-4867
-4411
-1976
-2221
-3229
274
-1407
-436
-3863
-1563
-575
1061
-130
-2121
-437
1668
147
-2871
-3174
-2258
-761
-4779
1522
-4560
-1016
-4044
-1697
-3687
-3408
3223
-3911
-2370
-3362
-1692
-335
-2495
-1317
-3800
1272
-214
-1410
-3029
566
-395
-1811
-1927
-4097
-2184
1171
-1947
-5531
-2879
-1447
-544
-2671
-3310
-1203
-1090
-1277
-1647
245
-6106
-3365
-1750
-425
2492
61
-3415
-2339
739
-2379
-1950
-2900
-518
-3805
-1272
796
-1711
-521
401
-2076
469
-5072
-2433
-1830
254
-3115
-1471
-1209
-2195
-1154
3742
-3878
-4405
-770
326
-2541
1052
1518
-3255
-1241
-2909
-5168
-1463
-724
-2111
1097
-2454
-1034
-3270
-1368
-1046
466
1162
363
912
1525
1145
438
-997
-3631
-3216
982
-3129
-6035
1176
-180
-505
-447
-2387
-4476
-2562
-1993
-6069
727
-3597
-3290
-129
-410
-727
348
-156
-713
5172
1729
-3382
-1681
381
-6420
274
953
-2796
-385
-293
-53
-2560
-5941
-1445
-2135
584
-2647
-3206
-4333
-2381
-2529
5650
-3011
-913
-1600
251
-1643
-1332
-778
4
-1872
-1223
-2770
572
-730
-3065
1359
-3225
-2853
-1632
-174
-857
-2574
-617
2203
-339
-2475
-145
-1681
-2552
-1127
-1034
-2244
47
206
-1774
-1240
-123
-4033
-2758
-1065
-527
433
-4095
-2351
1388
-2628
-1361
-1936
-297
36
-1252
-3027
-2109
-436
1930
1840
-1681
-2831
-1599
777
-874
-3837
-645
-1827
-5493
370
-2010
-1963
-3800
899
-468
-435
-2303
-2406
544
-1550
-3831
-469
-2492
-1959
-42
298
-357
1376
-746
-4020
1632
-1760
1832
-729
-30
-1330
-1321
-2202
-4040
181
-1887
-1790
-276
-2077
-27
382
-2137
-1856
-1013
-3720
438
-283
-1665
-2169
-1341
-1095
-2104
784
-1862
-4658
-2145
-1888
-377
-2801
-2115
-480
230
1178
1816
-445
-1806
-257
-761
411
-1168
-4613
1287
-4371
-2537
-736
-1998
-2390
289
-430
1346
-2250
-522
-5251
-1754
-4775
-2955
-2189
-2976
59
-2208
-3843
-562
-1657
-1715
-795
-1047
-4484
-2092
483
2427
620
-588
-1791
-2681
-2613
-1974
1230
-194
-1076
-525
-1267
-1428
-5444
-2244
-220
-2573
193
-1620
-432
68
-3991
-2239
-568
-623
-633
-2502
-1556
-1160
-1496
-636
-4113
-3569
-2394
-3058
-163
-127
-1639
-657
-1564
-3099
-2650
-862
209
-2733
-684
935
-2305
-4247
-5959
-4611
-3003
-879
-5097
530
-1217
2027
2398
-3378
-3235
-1725
1008
-1747
-549
-1905
650
-1900
-1526
-2762
-2795
3025
-2255
-932
-1025
-508
-442
-1626
-1874
-1045
-3201
-5112
-1203
-2143
-3941
-3624
-2287
239
-4056
-1519
-209
-1133
451
-149
-1730
-360
1511
-1762
1421
-3786
401
-909
455
1648
-2522
-1907
-445
950
-4293
-782
-5736
-2194
-1028
1313
-2448
664
-2926
-1959
463
-3852
-3439
-696
168
-2841
112
-3313
-1692
-2268
-2281
-602
-1186
-1197
-185
-3058
-2014
-135
-183
-1266
-5527
368
859
-3226
-874
-3154
-1715
119
-3428
-2806
-1265
-3739
144
-2446
-1712
2175
-244
-1727
-593
1462
-3276
140
-1629
-4285
-3303
-1566
-2359
-753
-3898
298
1625
510
-1555
57
-5316
-3348
686
-695
-2073
-1261
-4536
-2574
866
418
758
-1716
-3454
-1833
-1827
-3464
191
1632
-756
941
437
-2942
-114
-241
-1282
-2353
-550
-313
-636
-1830
296
-1696
649
-2303
-2021
-1702
-1702
-2245
-2468
-2800
-969
-2344
-3584
-1665
-2739
258
-2776
77
-1598
-3133
-3918
-2786
-1209
585
-901
-2811
-1674
-1771
-3755
-2628
-75
4382
428
-25
-1656
-79
-1733
-1795
-278
-650
-1942
-519
-2941
1233
-2323
-1883
-2337
-547
-141
-3749
-6582
-769
-2677
-3944
2684
1072
-1392
-1258
-2780
-2853
-579
-1173
-2487
-2816
-4044
-2248
847
-5391
-3982
-3957
2154
-3065
-2438
-2059
-524
1363
-1092
-1767
-1132
-3887
1064
-3160
-2548
2798
