0 3 1 0 1 1 -2 0 2
0 0 0 0 3 0 -1 0 0
-3 -5 -4 0 -4 -3 1 1 -1
0 1 1 0 6 2 0 1 2
-1 -2 -2 -2 -15 -3 -1 -3 -2
-3 -5 0 -5 -16 -4 -3 -4 -3
-1 -2 -1 1 -4 -3 1 0 -1
-2 -2 -2 -2 -4 -1 0 2 2
-1 0 0 0 -1 0 -1 0 0
1 0 0 0 -8 -1 0 -2 -1
2 0 1 0 -17 -3 -1 -4 -3
-2 -1 -1 -2 -9 -1 -1 -1 -2
2 1 1 1 -9 -1 0 -1 -1
-4 -4 0 -5 -5 3 -4 -1 2
0 1 1 1 12 3 1 3 3
-4 0 0 0 15 5 0 5 4
-4 -5 -2 -5 -11 0 -1 1 2
-2 -1 -1 -2 -7 -1 -1 -1 -2
0 1 1 0 6 2 0 1 2
1 0 0 0 -5 -2 1 -1 -2
0 -2 -2 -2 -17 -3 -2 -4 -3
-1 -1 -3 1 -4 -2 2 1 1
0 1 1 1 7 2 0 2 3
-4 -2 -2 -3 -11 -1 -2 -1 -2
1 -2 -1 1 -16 -3 -1 -3 -3
0 -1 1 -1 -11 0 -1 -1 0
-1 1 0 0 11 3 -1 2 3
-2 0 1 0 17 5 -1 3 4
-2 1 1 1 17 5 -1 4 4
0 1 1 1 4 1 0 1 1
-2 -1 -1 -1 -2 1 -1 0 0
-2 0 1 0 14 4 0 3 3
1 0 1 -1 -12 -2 0 -3 -1
-1 1 1 1 9 3 0 2 3
-2 -1 1 0 12 3 -1 2 2
-2 -1 -1 -2 -8 -1 -2 -1 -2
-1 -1 -1 -1 -6 -1 -1 -1 -1
-1 -4 0 -4 -31 -5 -3 -6 -3
-3 0 1 0 16 4 0 4 4
-3 -1 1 -9 -17 -1 -8 -3 0
-1 -1 -1 0 -7 -2 0 -1 -1
-2 -1 -1 -1 -4 -1 -1 -1 -2
0 0 0 0 -1 -1 0 0 -1
-2 -1 -1 -1 -6 -1 -1 -1 -2
-3 -3 -2 -2 -11 -1 -2 -1 -1
0 0 1 1 8 3 0 2 2
1 2 1 1 7 3 1 2 2
-2 -1 -1 -2 -7 -1 -1 -1 -2
-33 -25 -3 -27 11 28 1 26 14
-2 -3 -4 0 29 2 -7 -6 -5
12 29 10 5 43 10 -27 -58 -16
2 1 3 3 -44 2 10 6 6
-2 8 -4 -4 9 8 -13 -8 -5
-23 -9 -24 -13 -9 -14 -19 -7 -9
-14 9 6 -32 -13 16 0 6 14
1 10 1 -1 36 17 -10 -4 -7
0 -1 0 2 24 2 -2 0 -1
1 -1 0 1 1 5 -2 1 1
-4 -6 -2 3 0 8 0 1 5
-3 -1 -1 -1 14 1 -9 -5 -6
-7 -3 3 -1 -4 6 5 5 9
-3 -6 -4 -13 -35 12 -16 8 3
-7 -5 -1 -2 -20 2 6 8 5
-7 -3 -7 -3 15 -3 -2 2 -4
24 35 -12 34 6 -45 -9 -62 -31
-2 0 1 1 32 1 -5 0 -2
-3 -3 1 2 -37 1 10 10 6
-9 -8 -8 -5 24 -3 -11 -6 -7
-7 3 -4 0 23 15 -6 1 -1
-26 1 0 -73 19 27 -39 -9 -8
-3 -3 0 0 -29 -2 9 6 4
-3 1 0 0 23 1 -3 2 -1
-2 1 7 0 -3 8 6 -6 3
-3 1 9 5 -22 11 16 14 14
-3 -3 -1 5 -1 3 9 11 4
-1 0 1 4 -12 2 9 10 5
1 0 3 2 -4 5 12 11 6
-4 -1 0 0 -16 3 7 6 3
-3 4 -2 -9 3 15 0 5 -4
-4 -1 -3 0 11 -4 1 3 -1
3 -5 -6 14 -9 -9 0 -1 -1
-2 0 2 0 -35 1 9 7 6
-3 -2 0 4 -8 -1 13 14 12
-1 1 0 0 22 0 -5 -3 -6
2 4 4 4 14 7 -6 -3 -1
-3 -3 6 15 -70 4 14 14 19
-11 -4 -8 -3 16 -4 -7 1 -8
-11 -14 -3 43 0 -35 15 22 -5
-7 -4 -2 -4 15 0 -12 -7 -5
-5 -2 -3 -4 23 -1 -12 -7 -8
-5 -5 -3 -3 7 1 -12 -8 -6
-1 0 1 -2 17 2 -9 -4 -3
-3 2 2 0 26 2 -3 3 0
-2 -1 1 4 -24 1 12 12 10
-7 -5 0 0 -27 5 15 11 10
-1 1 0 0 19 1 -5 -4 -7
2 4 0 3 4 -3 -8 -7 -10
0 0 0 0 1 0 0 0 -1
-3 -8 -5 0 2 -3 4 5 3
-1 2 0 1 24 3 -1 3 2
-1 -3 -1 -2 -14 -3 -1 -2 -2
-1 -5 -3 -4 -30 -6 -3 -5 -4
2 -2 -5 4 -2 -8 2 3 -4
0 -3 -2 -2 -39 -5 0 -2 -3
-2 -1 -1 -1 -5 -2 -1 -2 -2
0 0 0 0 1 0 0 -1 0
1 2 1 0 10 1 0 0 0
0 -1 0 -1 0 -1 -1 0 -1
1 2 1 1 13 2 1 1 1
-1 4 -2 2 14 2 -4 1 -4
-1 1 -1 1 20 2 -2 2 1
1 2 2 3 11 3 3 3 3
-4 -2 0 -5 5 5 -2 5 8
0 0 0 0 -2 0 -1 -1 -1
0 2 1 1 26 4 -2 1 2
2 1 1 0 -8 -1 1 0 0
0 -1 -1 -2 -21 -3 -2 -3 -4
2 -2 -6 4 8 -10 3 3 -4
-1 1 0 1 21 4 -1 2 3
0 0 0 1 4 1 1 1 1
1 0 0 1 1 -1 2 2 1
-1 -1 -1 0 -1 0 -2 -2 -1
-1 0 -1 0 3 1 -3 -1 0
-1 1 0 1 22 4 -2 2 2
0 1 0 2 22 3 0 3 3
1 1 0 1 18 2 -1 1 1
-1 -1 -2 0 -2 -2 -2 -1 -3
0 0 1 1 5 1 1 1 1
0 1 2 -2 0 2 -1 -1 1
0 2 0 3 33 5 0 4 4
1 3 2 3 23 5 1 3 4
0 0 0 0 0 0 0 0 0
-1 -1 -2 -2 -8 -1 -1 -1 -2
1 1 3 0 -14 2 0 0 1
0 -1 -1 -2 -16 -2 -1 -1 -1
-4 3 5 -13 -5 5 -10 -6 1
0 -1 -1 -1 -9 -1 0 -1 -2
-2 -1 -1 -1 -6 -2 -1 -1 -2
-1 -2 -1 -1 -8 -2 0 -1 -1
-1 -2 -1 -1 -6 -1 -2 -2 -2
1 1 1 2 7 1 2 1 1
1 3 2 3 25 4 0 3 3
1 3 1 3 34 4 -1 3 2
0 0 0 0 5 0 0 0 0
1 1 0 0 7 0 0 1 -1
-1 0 0 0 5 0 0 1 0
0 -1 0 1 5 1 0 1 0
0 1 1 1 7 1 1 1 1
0 1 1 1 9 2 1 1 1
0 1 1 0 4 1 0 1 0
0 0 0 0 -6 0 0 0 0
1 0 0 1 0 0 0 0 0
0 0 0 0 5 0 0 0 0
0 1 1 1 19 2 1 2 2
0 2 2 2 44 5 2 5 5
-1 -1 -1 -1 -4 -1 -1 -1 -1
0 2 1 2 26 3 1 3 3
0 -1 -1 -1 -3 -1 0 -1 -1
0 1 1 1 8 1 1 1 1
0 -1 -1 -1 -28 -3 -1 -3 -3
1 0 0 0 -4 0 -1 -1 -1
0 0 0 0 -1 -1 0 -1 -1
0 1 1 1 10 1 1 1 1
-1 0 0 0 2 0 0 0 0
1 1 1 1 11 2 1 1 1
0 0 0 0 2 -1 -1 0 -1
0 1 1 1 7 1 1 1 1
0 -1 0 -1 -7 -1 -1 -1 -1
0 1 1 1 21 2 1 3 2
0 1 1 1 9 1 1 1 1
0 0 0 0 0 0 0 0 0
0 0 0 1 0 0 1 0 0
0 0 0 0 -6 0 0 0 0
1 1 1 1 13 1 1 1 1
0 0 0 0 0 0 0 0 0
0 -1 -1 -1 -17 -2 -1 -1 -2
0 1 1 0 15 3 1 2 2
0 1 0 1 5 1 1 1 1
0 -1 -1 -1 -27 -2 -1 -2 -2
0 0 0 0 1 -1 0 0 -1
-1 0 0 0 0 0 0 0 -1
0 0 0 -1 -14 0 0 0 0
0 -1 -1 -1 -17 -2 -1 -2 -2
1 2 -1 0 8 -1 0 1 -1
0 -1 -1 0 -1 -1 -1 0 -1
0 0 -1 -1 -1 -1 0 -1 -1
-1 -1 0 0 3 0 0 0 0
-1 -1 -1 -1 -2 -1 -1 -1 -1
-1 -1 -1 -1 -8 -1 -1 -1 -2
0 0 0 0 1 1 1 0 1
1 1 1 1 15 2 1 2 2
-1 -1 -1 -1 -4 -1 -1 -1 -1
-3 -13 -8 -12 -85 -8 0 3 9
1 1 1 2 -10 2 4 4 6
7 12 5 7 28 10 9 14 7
0 0 0 -1 1 -2 -2 -2 -1
3 3 3 2 -1 1 2 1 2
-9 -25 -13 -25 -103 -23 -5 -14 2
4 -2 4 -3 -23 3 -1 1 6
3 3 2 -3 -11 -2 3 0 1
-2 -1 -1 -1 -20 0 2 2 2
4 4 3 2 3 1 1 0 1
8 6 6 3 -2 1 0 -2 1
-2 -2 -2 1 -16 2 5 5 6
4 3 3 1 8 0 -1 -2 0
-11 -23 -12 -21 -128 -22 -7 -15 -1
2 2 3 0 10 -1 -1 -2 -1
2 2 4 1 7 1 3 2 3
4 11 2 11 22 5 8 15 5
-3 -3 -2 0 -20 1 3 3 4
2 1 1 -1 5 -1 -1 -2 -1
0 0 -1 1 -23 1 4 4 5
1 0 0 0 -15 -1 2 0 4
6 1 8 -3 -24 10 2 4 10
2 2 2 0 16 -1 -1 -2 -1
-1 -1 0 0 -13 1 2 3 4
6 4 5 -1 -5 3 0 2 3
-1 -3 -3 -3 -18 -4 -4 -4 -3
0 1 1 -1 3 -2 -1 -2 -2
1 2 2 0 14 0 0 -1 1
0 0 1 -2 -3 -2 -1 -2 -1
3 1 2 0 5 0 -2 -3 -1
-2 -3 0 -5 -34 -4 -1 -4 1
2 1 2 0 2 0 1 1 1
2 1 1 2 -17 -2 0 -3 -2
2 2 2 -1 7 -2 -2 -3 -2
1 0 3 0 4 2 -1 0 2
-1 -2 -1 1 -12 2 5 5 6
-1 -1 -1 2 -2 2 5 5 6
4 1 2 1 -13 0 -1 0 2
3 3 4 1 7 1 4 3 3
-8 -13 -10 -2 -49 -14 4 3 1
-1 -1 -2 1 -13 3 5 5 6
-1 -1 -2 2 -17 3 6 7 8
-2 -1 -1 2 -14 3 5 6 6
-2 -2 -2 2 -14 3 6 7 8
-3 -2 -2 0 -22 0 3 3 4
1 0 1 -3 -1 -3 -3 -4 -3
3 3 3 -2 7 -2 -3 -5 -3
-3 -3 -2 1 -17 2 4 5 6
-3 -3 -2 -3 -4 0 -2 -1 1
0 -1 -1 0 -7 -1 -1 -1 -1
-2 0 1 -1 -1 1 -1 -1 -1
-1 -1 -1 -1 -7 -1 -1 -1 -1
-1 -1 -1 -1 -11 -2 -1 -2 -2
-1 0 -1 0 -2 0 -2 0 -1
-1 0 0 -2 -1 0 -1 0 1
-1 -1 -1 -1 -13 -1 -1 -1 -1
0 0 0 0 -1 0 0 0 0
-1 -2 -1 -1 -13 -2 -1 -2 -2
-1 -2 -2 -2 -17 -3 -2 -3 -3
1 2 2 2 21 3 2 3 3
-1 -1 -1 -1 -2 -1 -1 -1 -1
-1 -2 0 -1 -6 -2 1 -1 0
0 0 0 0 -2 0 0 0 0
-1 1 2 2 24 4 1 4 3
1 1 0 0 4 -2 0 0 -2
1 2 2 2 26 4 2 4 4
-1 -1 -1 -1 -5 -1 -1 -1 -1
0 1 1 0 12 2 0 2 2
-1 -2 -2 -1 -13 -2 0 -2 -2
-2 0 1 -2 -3 1 -2 0 2
-1 -1 0 0 -5 -1 0 -1 0
0 1 2 2 25 4 1 3 3
-1 -1 -1 -2 -12 -1 -2 -2 -1
0 -1 -1 -1 -7 -1 -1 -1 -1
-1 -1 -1 -1 -10 -1 -1 -1 -1
-1 -1 -1 -1 -9 -1 -1 -1 -1
-1 -1 -1 -1 -6 -1 -1 -1 -1
0 -1 -1 0 -1 0 0 0 0
0 -1 0 -1 -6 0 0 -1 0
-1 1 1 0 11 2 0 2 1
-1 -2 -2 -2 -5 -3 -1 -2 -2
-1 -1 -1 -1 -8 -1 -1 -1 -1
-3 -1 -1 -1 15 2 -2 2 1
1 2 1 2 21 3 2 3 3
0 0 0 0 6 1 0 1 1
-1 -1 0 -1 5 0 0 1 1
-1 1 0 1 18 3 0 3 2
-1 -2 -2 1 -1 -1 2 2 1
1 2 1 1 20 3 1 2 3
1 2 1 2 21 3 2 3 3
0 0 0 0 4 1 0 1 1
1 2 1 2 20 3 1 3 3
1 2 2 2 29 5 1 4 4
-1 -1 0 -1 -5 0 0 0 0
0 -1 0 -1 -3 -1 0 0 0
1 2 2 2 23 3 2 3 3
1 1 -1 -1 -14 -3 -4 -2 -3
-2 -1 -2 -1 -5 0 -1 -1 0
-1 -3 -2 1 2 0 3 3 1
0 1 1 1 1 1 0 1 1
-1 -2 -2 -2 -22 -2 -1 -1 -2
-1 -6 -1 -5 -42 -3 0 -6 0
0 -2 -2 -1 -23 -6 -1 -2 -2
-2 -5 -4 -5 -39 -6 -4 -6 -6
-1 -1 -2 -1 -9 -2 -1 -1 -2
0 1 0 0 9 2 1 2 2
-1 1 1 1 17 5 0 4 4
-1 -1 -1 -1 -2 -1 -1 -1 -1
1 2 1 2 12 4 1 3 3
0 0 1 -1 13 -2 1 2 -1
1 2 1 1 6 2 0 1 1
3 0 1 0 -22 -3 1 -3 -2
2 -1 2 1 2 4 1 3 2
0 0 0 0 0 0 1 0 0
1 2 1 2 5 2 0 1 1
-2 -3 -2 -1 -6 -2 0 -1 -1
-1 -1 -2 -2 -18 -2 -2 -2 -2
1 0 -3 1 4 -3 -1 0 -3
1 2 1 2 4 2 0 1 1
2 1 1 1 3 0 2 0 1
-2 -3 -2 -1 -5 -1 -1 -1 0
0 -1 0 0 -15 -1 -1 -2 -1
0 0 0 0 -9 0 -1 0 -1
1 1 1 1 -4 1 0 0 0
1 1 1 1 -7 0 1 0 0
1 2 2 2 11 3 0 2 2
-2 -1 -3 -3 -21 -5 -2 -2 -3
1 0 0 -1 -17 -2 0 -2 -2
-1 0 2 -1 -3 4 0 1 3
1 2 1 1 1 2 0 1 0
-2 -5 -3 -5 -49 -8 -3 -7 -7
0 0 0 0 0 -1 0 -1 -1
-1 -1 -1 -1 -4 -1 0 -1 -1
-5 -9 -5 -7 -70 -9 -5 -9 -7
1 -1 -1 -2 -23 -3 0 -3 -3
-1 -1 2 -6 -15 -1 -1 -2 0
0 -1 -1 0 0 -1 1 0 0
-2 -2 -2 -1 -6 -2 -1 -2 -2
-1 -2 -1 -1 1 -1 0 0 0
-2 -2 -2 -1 -5 -2 -1 -2 -2
1 0 1 1 -2 -1 2 0 0
0 0 0 0 -4 0 0 -1 0
2 3 2 2 12 3 0 2 1
-1 -1 -1 -1 -3 -1 -1 -1 -1
-1 -1 0 -1 0 0 -1 0 1
0 0 -1 0 -8 -1 0 -1 -1
-1 -1 0 0 0 0 -1 -1 -1
0 0 0 0 3 0 0 0 0
-1 -2 -2 -2 -19 -3 -2 -3 -3
-1 -1 -1 -1 -2 -1 0 0 -1
0 0 0 0 -4 0 0 0 1
-1 -1 -1 -1 -12 -1 -1 -1 -1
0 -1 -1 0 -7 -1 0 0 -1
-1 -2 -2 -2 -20 -3 -2 -3 -3
-1 -2 -2 -2 -21 -4 -3 -4 -4
0 1 1 0 -1 1 1 1 1
0 0 0 0 0 -1 0 -1 -1
-1 -1 0 0 1 0 -1 0 0
0 0 0 0 5 0 0 0 0
1 2 4 3 36 7 3 6 6
-1 -1 1 -1 5 0 0 1 0
1 2 2 2 11 3 2 3 3
0 -1 0 0 1 -1 0 0 -1
0 0 0 0 -4 0 1 1 1
-2 -3 -3 -3 -34 -5 -3 -5 -4
0 0 0 0 -1 0 0 -1 1
-1 -1 0 0 2 0 0 0 0
0 2 2 2 17 3 2 3 4
0 -1 -1 -1 -11 -1 -1 -1 -1
-1 -1 -1 -1 -8 -1 -1 -1 -1
-1 -1 -1 0 0 -1 0 -1 -1
-1 -1 0 0 4 0 0 0 0
-1 -1 0 -1 3 0 -1 0 0
0 0 0 0 2 0 0 0 0
0 0 0 0 -1 0 0 -1 -1
0 1 2 1 17 3 1 3 3
-1 -2 -2 -2 -8 -3 -2 -2 -3
-1 -1 -1 0 0 -1 -1 -1 -1
0 2 3 2 39 6 3 6 7
0 1 1 1 5 2 1 2 2
0 0 0 0 -7 0 0 0 -1
0 0 1 0 1 1 1 2 2
-1 0 1 1 12 3 0 2 3
-1 0 0 -1 0 0 0 1 0
0 1 1 1 3 1 1 1 1
0 0 0 1 1 1 1 2 1
0 0 -1 0 -6 0 0 0 -1
0 1 1 1 2 1 1 1 1
0 2 2 2 16 4 2 3 4
-1 -1 -1 -1 -1 0 0 0 0
-1 -1 -1 0 4 -1 0 0 -1
0 1 1 1 4 2 1 1 2
24 13 1 13 -18 -35 -6 -28 -32
1 3 4 2 -2 4 2 2 3
5 -2 -1 3 11 7 -1 9 -1
0 2 -1 1 9 -1 0 -1 -3
9 4 4 3 0 0 2 1 -4
8 7 -6 2 -36 -45 -8 -39 -57
14 6 -12 8 -14 -29 5 -7 -23
10 1 2 2 -12 -1 1 0 -4
-2 -1 -2 -2 -7 -2 -2 -3 -4
2 4 3 2 6 3 0 0 0
4 6 0 3 3 -4 -3 -6 -9
3 2 2 2 -4 1 -1 0 0
4 4 -2 3 4 -4 -1 -5 -10
19 14 -3 10 -18 -45 1 -45 -60
0 4 2 2 12 2 1 2 -1
2 1 0 -1 -1 0 0 3 1
4 6 15 -16 4 21 -2 26 19
3 3 1 2 -7 -1 -1 -1 1
2 4 1 3 11 0 0 -1 -4
6 5 3 4 0 1 2 0 2
11 5 6 5 1 1 0 0 -4
21 4 -14 20 -20 -29 11 -10 -25
-1 2 2 1 10 2 0 0 -2
7 3 1 4 0 -1 3 1 0
8 6 2 6 5 -2 2 1 -2
10 5 -2 6 0 -8 -2 -8 -12
-2 0 1 -2 -1 0 -2 0 -2
-2 1 1 0 8 2 0 2 0
-1 2 2 2 7 0 1 2 1
2 3 0 3 10 0 0 0 -3
9 4 -5 5 3 -14 -2 -9 -19
2 0 1 -1 -5 -1 -1 0 1
5 4 3 1 -5 1 2 -3 -2
0 2 0 2 12 0 0 0 -3
-1 0 2 0 0 1 1 3 2
1 2 2 1 -3 1 -1 0 0
4 3 1 1 -4 1 1 0 0
11 7 4 8 -11 -5 2 -5 -5
0 -1 1 -4 -6 2 -2 3 3
14 8 -1 -5 -17 -11 -10 -6 -9
2 -1 -1 0 -14 -2 -1 -3 -1
2 4 3 2 -4 2 -1 0 1
0 1 1 -1 -8 0 -2 -1 2
0 1 1 -1 -8 0 -3 -1 0
8 2 -2 3 -6 -4 1 -2 -3
-2 2 0 1 6 -2 -2 -2 -4
0 3 0 2 13 -1 -1 -2 -7
2 3 1 0 -6 0 -1 0 0
1 -1 -1 -1 2 0 0 1 4
-2 0 -1 0 12 1 0 2 1
1 2 0 1 12 1 -3 -2 -4
-1 0 0 0 -3 -1 -1 -1 -1
1 1 1 1 -1 1 -1 -1 -1
2 0 -6 1 2 -5 1 1 -5
2 1 1 2 7 1 -1 0 0
0 -1 -1 -1 -13 -2 -2 -2 -3
0 0 0 1 10 1 1 1 1
0 1 2 1 9 2 1 1 1
-1 1 2 0 8 3 1 3 3
1 1 0 2 18 1 2 3 2
1 1 1 0 -5 0 0 0 0
3 3 -1 1 1 -4 0 -2 -7
-1 0 0 -1 -4 -1 -1 0 -1
-1 -3 -3 -3 -13 -4 -3 -4 -4
-1 0 -8 0 3 -9 -8 -5 -17
0 0 0 1 8 0 1 1 0
-1 0 -1 -1 -4 -1 -1 -1 -1
0 1 1 1 19 2 1 3 2
1 1 1 0 3 1 0 1 0
2 1 3 3 14 3 0 1 4
-1 0 0 -1 -8 -1 -2 -1 -1
0 -1 -1 0 -2 -2 0 -1 -2
-1 1 1 -1 10 2 -2 1 1
0 0 -1 0 -5 -1 0 -1 -2
-1 -1 -1 -1 -7 -1 -2 -2 -2
-1 -1 -1 -1 -7 -1 -2 -2 -2
-1 -1 -2 -1 -6 -2 -1 -2 -2
-1 0 0 0 -4 0 -1 0 0
0 0 0 -1 5 -1 -1 -1 -2
-1 -2 -2 -1 -10 -3 -2 -2 -3
-1 1 -2 0 0 -3 0 2 -2
-1 -1 -1 -2 -10 -2 -2 -2 -2
1 -1 -2 -1 -1 -2 -1 -2 -4
1 1 0 2 12 1 2 2 1
1 1 1 2 14 1 2 2 1
1 0 -2 0 1 -3 0 0 -3
-1 -2 -2 -2 -9 -2 -2 -2 -2
0 1 -11 -2 10 -11 0 2 -11
0 1 0 1 13 2 1 2 1
0 1 0 2 16 2 2 3 2
1 2 1 2 26 3 2 4 3
1 2 1 2 21 3 2 3 2
0 0 -1 0 5 -1 0 0 -1
0 0 0 -1 -7 -1 -1 -1 -2
-1 0 -1 -2 -11 -2 -2 -2 -2
1 1 0 2 15 2 2 3 1
0 0 -3 0 12 -1 -2 -1 0
1 1 1 2 21 3 2 2 3
0 1 0 1 14 3 0 1 0
-1 -1 0 0 -4 0 0 0 0
1 0 0 1 3 1 1 1 0
1 1 0 2 -4 -1 2 0 0
0 1 0 0 12 0 0 0 0
0 0 0 0 -1 0 0 1 0
1 1 1 2 21 3 2 3 3
1 0 0 1 3 0 0 0 0
1 0 0 1 8 1 1 0 0
2 2 2 3 28 3 3 4 4
0 0 0 0 5 0 0 0 0
3 5 1 3 11 1 0 3 -1
-1 -1 -1 -1 -6 -1 -1 -1 -1
0 0 0 0 11 1 0 0 1
3 1 -5 2 9 0 -1 2 -4
1 2 2 2 23 3 2 3 3
-1 -1 -1 0 -5 -1 -1 -1 -1
1 1 2 1 19 2 1 2 2
1 1 1 1 12 2 2 3 2
-1 2 1 -1 12 0 -1 2 2
-1 0 -1 -1 -4 0 -1 -1 -1
1 1 1 1 17 1 1 2 2
1 1 1 0 3 1 0 0 0
0 0 0 0 1 0 0 0 0
-1 -1 -1 -1 -8 -1 -1 -1 -1
-1 -1 -1 -1 -6 -1 -1 -1 -1
0 -1 -1 0 1 0 0 0 0
-1 -1 -1 -1 -5 -1 -1 -1 -1
0 0 0 0 7 0 0 1 0
0 0 0 0 3 0 0 0 0
1 1 -1 1 7 -1 1 1 0
-1 -1 -1 0 -8 -1 -1 -1 -1
1 1 1 1 16 0 0 1 -1
1 2 2 2 23 3 2 3 3
2 2 2 2 21 3 3 3 3
1 1 0 2 7 0 -1 1 -1
0 0 0 0 5 0 0 0 0
0 -1 -3 1 10 -2 2 4 0
1 2 2 2 23 3 2 3 4
1 2 2 2 26 3 2 4 4
2 3 2 2 28 3 3 3 4
2 3 3 3 31 4 3 4 5
1 1 1 1 19 2 1 2 2
0 0 0 0 2 0 0 0 -1
0 0 0 0 -3 0 0 0 0
2 2 2 2 28 3 3 4 4
-5 -3 -3 -3 4 1 -3 0 1
-1 0 0 0 1 1 -1 0 1
-1 2 1 -2 2 1 -2 -1 -1
-2 -2 -1 -1 -8 -1 -2 -1 -1
0 1 2 0 5 2 1 3 3
-2 0 -1 -1 10 3 -1 2 1
-3 -2 -2 -3 -2 -2 -3 -2 -2
-2 0 0 -1 5 2 0 4 2
1 2 2 1 4 2 0 1 1
-1 0 0 0 6 1 1 1 2
-3 -2 -2 -3 -8 -1 -2 -2 -1
1 2 2 1 11 3 1 3 3
-3 -2 -3 -3 -16 -2 -2 -3 -3
-1 -6 -1 -2 -11 -2 0 -3 3
-2 -2 -2 -2 -17 -2 -3 -2 -2
-2 -2 -2 -2 -8 -2 -2 -1 -2
3 2 0 0 -6 -1 -2 -2 -2
-1 0 -1 -1 -3 0 -1 -1 0
-2 -2 -2 -2 -11 -2 -2 -2 -2
-2 -1 0 -1 2 0 -1 0 1
-1 1 2 0 16 4 2 5 5
-5 0 3 -4 7 3 -3 2 3
-2 -2 -1 -1 -13 -2 -2 -2 -2
-1 -1 -1 -1 -2 -1 -1 -1 -1
-4 -2 -3 -4 -11 -3 -4 -4 -4
-1 -1 -1 -1 -1 0 -1 -1 0
-1 -2 -2 -2 -15 -3 -1 -2 -2
-1 -1 -1 -1 -12 -2 -2 -2 -2
0 -1 -1 -1 -7 -1 -1 -1 -2
-2 -1 -2 -1 -12 -2 -1 -2 -1
-3 -3 -1 -3 -16 -1 -1 -1 0
-1 -1 -1 -1 -5 -1 -1 -1 -1
-1 -1 -1 -1 -1 -1 -1 0 1
-1 -1 -1 -1 -11 -1 -1 -2 -1
-4 -4 -5 -4 -18 -5 -6 -6 -7
1 1 1 1 3 2 0 1 1
1 2 3 2 19 4 2 4 4
-4 -4 -4 -5 -11 -5 -5 -6 -5
-2 0 0 -1 3 1 -1 2 1
-2 -2 -3 0 2 2 -1 1 0
0 2 1 1 9 3 1 2 3
0 1 1 1 3 2 0 1 2
0 2 2 1 13 4 1 3 4
0 1 1 1 7 2 0 2 2
0 1 1 1 6 1 0 1 1
0 0 0 0 -5 -1 -1 -1 -1
-1 -1 -1 -2 -12 -1 -1 -2 -1
0 1 1 1 6 2 0 2 2
10 14 3 12 5 5 -3 1 3
1 0 -1 -1 8 -2 -1 -1 -1
-2 -10 -2 -12 -108 -13 4 11 11
-2 -1 0 1 -8 3 2 4 5
2 -2 -1 0 -11 -4 1 0 0
0 -13 0 -11 -105 -1 -2 0 10
2 -1 -4 5 -16 -3 2 0 4
3 -1 0 3 -3 -5 4 1 0
0 -1 -1 -1 2 -1 -1 -1 -2
4 2 0 2 9 0 1 0 0
4 2 0 0 -4 1 -1 0 3
1 0 0 -1 8 -3 -1 -1 -3
3 2 0 3 -6 2 1 2 4
-1 -19 -6 -14 -116 -10 -9 -10 4
2 2 0 4 0 3 3 4 4
-1 -3 0 0 -1 -1 2 0 -1
1 -17 1 -15 -128 2 4 10 17
1 0 0 0 11 -1 0 0 -1
0 1 1 2 -7 3 1 3 4
5 3 4 1 31 0 3 1 1
8 3 2 2 10 -3 1 -2 -3
6 3 -4 6 -18 -10 3 3 1
1 1 0 3 -10 3 2 3 4
-1 -1 -1 0 10 -1 1 0 0
3 1 1 1 -2 -1 2 2 3
-5 -3 0 -3 -15 2 0 2 6
2 3 1 4 3 3 2 2 2
1 1 0 3 6 4 3 4 4
0 0 0 3 9 4 3 4 4
1 1 0 2 -4 2 2 3 3
0 -2 -1 0 -23 -3 0 0 3
0 -1 0 1 1 0 1 0 0
1 -2 1 -5 -22 0 -1 -1 2
-1 0 -1 2 -12 4 4 5 5
-1 -1 0 1 15 2 5 2 1
1 0 -1 -1 3 -2 0 -1 -2
1 0 0 -1 3 -2 0 -1 -2
-2 -3 2 -5 -5 1 2 1 6
4 0 2 3 5 -2 3 -2 -1
4 -5 0 -8 -67 6 -3 -5 8
1 -1 -1 -1 1 -3 -1 -2 -3
1 0 -1 -1 10 -3 0 -1 -2
3 0 0 -1 11 -3 0 -2 -2
1 -1 -2 -2 4 -4 -1 -2 -4
0 -2 0 -1 9 -1 1 0 0
1 1 2 4 7 4 3 4 5
2 3 1 5 -6 5 4 5 5
1 0 -1 -1 7 -2 0 0 -2
2 1 0 -1 2 0 -1 -1 1
-1 -1 -1 -1 3 -1 -1 -1 -1
0 1 0 0 2 2 0 1 2
1 1 1 1 3 2 1 2 1
0 1 1 1 16 3 1 3 2
1 1 1 1 0 1 1 1 1
-1 -1 -1 1 -11 -1 0 -1 0
-1 1 0 1 21 3 1 3 1
0 1 1 1 13 1 1 1 1
-1 0 0 0 4 1 0 1 0
-1 -1 -1 0 1 1 0 0 1
1 2 2 1 23 2 2 3 3
2 2 3 3 18 3 2 3 3
-1 -1 0 -1 6 1 0 0 2
1 2 1 2 12 2 1 2 2
-3 -2 -2 -2 -3 -2 -3 -1 -2
3 -1 -2 0 1 3 -1 1 3
0 0 0 0 13 1 0 1 1
1 2 1 2 6 2 2 2 2
-1 -1 0 -1 6 0 -1 1 1
0 1 1 1 25 3 2 4 3
-2 0 0 0 7 1 0 2 1
1 1 2 1 9 2 2 2 2
-1 0 0 0 8 0 -1 0 0
-3 -3 -3 -2 -20 -2 -2 -2 -2
3 3 2 3 12 3 3 3 3
0 1 1 1 10 1 1 2 1
0 0 0 0 2 0 0 0 0
-1 -1 -1 0 -3 0 0 0 0
1 2 1 2 9 2 2 2 2
-1 0 0 0 9 1 1 2 1
-1 -1 -1 -1 -1 -1 -1 0 -1
0 -1 0 0 -4 1 0 0 0
1 2 2 1 8 2 2 2 2
-5 -5 -6 -4 -29 -5 -5 -5 -6
0 1 1 1 16 2 1 2 2
1 2 2 2 22 3 2 3 3
-3 -4 -3 -3 -24 -3 -3 -3 -3
-2 0 -1 -1 10 0 -1 0 -1
1 2 4 0 1 4 2 1 3
0 1 1 1 19 2 1 2 2
0 1 1 1 18 2 1 2 2
0 1 1 1 18 2 1 2 2
1 1 1 2 23 2 1 3 3
0 1 1 1 20 1 1 2 1
1 1 1 1 1 1 1 1 1
2 3 3 3 14 3 3 3 3
1 1 1 2 21 2 2 2 3
1 1 0 1 6 1 1 2 2
0 1 1 1 15 2 0 1 2
0 -1 0 1 3 1 0 -1 0
1 1 1 1 6 2 1 2 2
0 1 1 1 4 1 0 0 1
-1 0 -1 -1 -7 0 0 -1 2
0 0 1 0 4 1 1 2 1
0 -2 -1 -1 -18 -1 -1 -3 -2
0 0 1 0 11 1 0 1 1
0 0 1 1 9 1 1 1 1
0 2 2 2 30 5 1 5 5
-1 -1 -1 -1 3 -1 -1 -1 -1
-1 0 1 0 6 2 0 2 2
1 0 0 -2 1 0 -1 2 0
0 0 0 0 -5 1 0 0 1
-1 -2 -2 -2 -22 -4 -2 -3 -3
2 1 -1 0 -1 -1 -1 -2 -3
-1 0 0 0 6 -1 -1 -1 -1
0 1 1 1 3 1 1 2 1
0 1 1 1 19 1 1 1 1
0 0 0 0 0 0 0 0 0
0 0 1 0 5 1 -1 0 0
0 0 0 0 -2 1 0 1 1
0 0 0 0 3 -1 0 0 0
1 3 3 2 40 6 3 6 5
0 1 1 1 11 2 1 2 2
0 0 0 0 -10 0 0 0 0
1 1 1 1 -4 0 1 1 1
1 0 1 0 -6 0 1 1 1
0 0 0 1 3 1 1 1 1
0 0 0 0 -9 0 0 0 1
-1 -1 -1 -1 -16 -2 -1 -2 -2
0 1 1 1 11 3 0 2 2
0 1 0 1 -1 1 1 2 2
2 3 2 3 17 2 3 3 3
0 0 0 0 6 0 0 0 -1
0 0 0 0 5 0 0 0 0
0 2 1 1 10 3 2 4 3
-2 -3 -3 -3 -31 -4 -2 -4 -3
1 2 -1 1 13 0 1 2 1
-1 -1 -1 -1 5 -1 -1 -1 -1
0 0 0 0 9 0 0 0 0
-1 0 0 0 15 0 0 0 0
0 0 0 -1 10 0 -1 -1 -1
-1 -1 -1 -1 -3 -2 -1 -2 -2
0 1 1 1 2 1 1 2 2
0 1 0 1 2 2 1 2 2
-1 -1 -1 -1 5 -1 -1 -1 -1
-6 -1 1 -3 -31 5 -3 16 -1
1 -2 -5 2 30 -4 4 0 -3
7 7 -8 8 14 0 2 -2 2
0 4 9 -2 -18 9 -1 2 8
2 1 -3 -2 -3 -2 2 -2 0
-5 -22 -6 -11 -128 -26 -1 -26 -13
3 3 2 5 -41 9 0 3 4
2 -1 -5 1 14 -5 2 0 -2
0 -2 -5 2 10 -5 3 -1 -4
3 2 1 2 13 2 3 1 2
3 0 3 3 4 6 2 0 4
0 -5 -8 2 16 -6 5 0 -4
5 5 6 2 -1 7 2 1 5
-3 -13 -2 -12 -117 -4 2 -17 -6
2 5 8 0 -7 9 0 3 6
-3 -5 3 -1 8 4 5 3 5
18 -12 1 5 -123 -8 8 -19 15
0 -4 -6 0 19 -3 3 0 -3
0 4 9 -2 -13 10 -1 2 7
-5 -9 -9 -2 12 -7 0 -3 -4
2 -4 -5 3 0 -5 6 -4 -6
3 15 -8 6 41 12 1 9 -1
0 3 7 -2 -31 7 -1 0 5
-2 -5 -3 -2 8 -1 2 0 0
0 0 0 0 14 3 -4 1 5
-4 1 8 -7 -23 7 -7 -2 6
0 3 5 -1 -18 5 -1 0 0
-1 4 8 -2 -14 8 -1 2 5
0 3 7 -3 -9 8 0 3 4
2 5 7 0 -4 8 0 2 4
-2 1 1 -5 -18 3 0 -1 0
-2 -2 2 0 4 3 2 3 3
0 -9 3 1 -64 -2 2 -9 2
-1 3 9 -3 -32 9 -2 1 7
-3 -1 6 -4 4 7 3 3 7
0 -4 -7 1 8 -5 3 -1 -4
0 -4 -6 3 20 -4 5 0 -2
-3 -5 11 -9 -39 8 -1 -4 12
0 -5 -2 4 10 -2 6 2 0
9 -31 13 18 -128 -31 22 -22 -11
-1 -5 -10 1 13 -7 3 -1 -5
-1 -6 -11 2 19 -9 4 -1 -6
-2 -8 -13 1 10 -10 2 -3 -7
-1 -7 -11 1 17 -8 4 -1 -5
-3 -7 -4 -3 0 -2 1 -1 0
0 3 8 -2 -22 8 -2 1 5
1 5 10 -2 -33 11 -2 0 5
0 -5 -8 2 15 -6 4 0 -3
1 23 -5 24 33 -31 -43 -61 -30
8 9 9 5 -9 3 6 5 3
-15 -42 -9 11 37 7 15 58 7
-11 -6 -3 -9 54 3 -14 -7 -1
5 -4 3 12 -3 -1 9 7 -2
-9 3 7 -35 -73 -14 -31 -18 -27
2 8 -21 20 67 -36 -11 14 -24
5 -3 -1 19 -51 2 22 17 5
2 8 10 0 -4 7 4 7 9
1 -2 -5 7 14 -3 0 -3 -6
-6 -3 -9 5 60 -5 -10 -5 -13
1 3 2 0 -27 3 4 6 2
1 -2 -8 4 78 -3 -10 -9 -12
-7 -35 13 -27 -128 -28 -30 -73 -34
-4 -4 -2 -6 53 -2 -14 -11 -6
-10 -8 -10 -1 3 2 5 7 4
-27 -44 10 -68 3 24 -19 36 -1
3 5 2 1 -19 7 2 4 3
-10 -5 -2 -11 57 1 -18 -12 -6
4 11 5 4 -24 9 5 10 9
7 5 3 18 -27 2 12 6 0
6 10 -28 45 -22 -62 5 22 -22
-10 -6 -3 -11 55 1 -15 -11 -3
-2 2 -4 0 -20 4 1 5 3
-8 -2 -9 -1 14 -1 -10 11 3
-1 3 4 0 46 5 -14 -8 -1
-3 0 2 -4 29 2 -9 -10 -2
-5 -3 -1 -5 61 0 -9 -8 -3
-7 -3 0 -4 55 1 -8 -1 2
-7 -5 -4 -5 50 -2 -14 -9 -5
-5 -4 10 2 -26 3 -6 -8 -3
-6 -2 -5 1 5 2 3 4 2
-12 -10 -3 -18 -10 3 -11 -13 -8
-13 -7 -3 -12 59 1 -18 -9 -2
-17 -2 -10 -14 43 8 -19 1 -2
0 2 2 -2 -26 4 3 4 4
-1 0 -1 1 -31 0 5 5 2
-14 4 -9 -13 83 18 -25 4 1
-6 -5 -5 2 -2 6 13 11 9
-14 32 -16 -101 40 39 -54 -10 8
5 2 -1 4 -28 2 7 6 1
2 5 1 -2 -46 2 2 2 2
6 7 4 4 -32 1 6 5 2
1 3 1 1 -35 2 4 5 2
3 5 2 5 9 9 6 9 5
-13 -3 1 -11 53 6 -16 -8 1
-16 -7 -2 -14 73 1 -24 -16 -4
1 4 3 -1 -21 6 3 6 6
8 13 5 4 24 13 -4 12 11
5 3 -1 1 23 -5 -3 -3 -8
8 9 3 -15 -50 -25 -18 -38 -42
-1 2 1 -1 -27 2 2 6 6
6 4 1 1 -7 -5 -3 -8 -11
8 9 -11 5 -12 -29 -6 -17 -34
3 8 1 3 9 0 1 4 -3
9 6 7 0 -2 1 -5 -7 -5
8 6 3 4 19 -1 1 -1 -4
4 4 2 2 11 1 -1 0 -2
4 5 1 2 4 -2 -1 -1 -4
5 5 3 0 31 -3 -4 -3 -6
6 6 3 4 -11 2 3 3 3
10 12 -9 9 3 -37 -4 -16 -45
0 5 5 0 -17 4 4 9 8
-3 -4 2 -3 6 1 0 5 6
3 8 -11 -13 -6 -48 -19 -35 -55
3 2 -1 -1 15 -3 -3 -3 -5
0 3 2 -1 -28 2 2 7 8
-3 0 0 -6 23 -5 -9 -7 -8
5 5 1 2 28 0 -5 -5 -9
11 14 12 0 -2 5 -1 -3 -4
-2 2 1 -2 -33 1 2 5 5
1 -1 -1 -3 12 -3 -4 -2 -3
8 8 5 2 10 -2 -1 -6 -6
3 2 1 4 -16 0 5 2 3
0 2 1 -1 -26 1 2 6 6
-3 0 1 -2 -30 1 2 7 7
-2 0 0 -2 -20 1 1 8 6
0 3 1 0 -20 2 1 5 4
2 2 -3 0 2 -5 1 0 -9
-1 -2 1 -1 0 2 2 4 5
2 5 -2 0 10 -9 -2 -1 -9
-3 0 1 -4 -42 1 1 5 6
-3 0 -1 -2 1 0 3 9 8
6 5 2 0 19 -3 -3 -3 -6
4 3 2 1 25 -2 -4 -4 -6
2 2 -3 1 -8 -8 3 0 -1
-4 0 3 -2 15 3 -3 3 4
7 15 -26 -4 10 -35 -11 -8 -38
1 2 0 -3 24 -4 -8 -6 -8
6 6 3 0 35 -3 -3 -2 -6
0 1 -1 -6 21 -6 -11 -8 -12
4 5 1 -3 28 -4 -6 -5 -9
1 -1 -1 -4 12 -5 -5 -4 -5
-2 2 1 -1 -30 1 3 6 7
-1 4 3 -2 -42 2 4 8 9
5 5 2 -1 23 -3 -4 -4 -6
0 1 3 1 -10 2 0 -1 2
0 -1 0 -1 -4 -1 -1 -1 -1
0 -3 -1 0 -18 -1 0 1 1
1 0 1 1 -4 1 1 1 1
0 0 0 0 -3 0 0 1 0
2 1 2 0 -8 0 0 0 -2
2 -1 0 2 -7 -1 2 1 0
-2 -1 -1 0 16 1 0 4 2
-1 0 -1 -1 -2 -1 0 -1 -1
1 0 1 0 -6 0 0 -1 0
2 0 2 0 -34 -1 1 -2 0
-1 -1 -1 -1 -6 -2 -1 -1 -2
0 0 0 -1 -27 -1 0 -1 0
2 0 0 1 3 0 -1 -2 -3
0 1 0 2 15 2 1 2 2
-2 1 0 2 50 5 1 6 4
-1 -2 -1 -3 -6 0 -1 3 4
-1 -1 -1 -1 -1 -1 -1 -1 -1
1 1 0 1 -3 1 1 1 1
2 1 1 1 6 0 1 0 0
0 0 -1 0 -1 0 -1 -1 -1
1 -2 -1 3 -9 -2 2 2 0
0 1 0 1 10 1 1 2 2
-1 0 -1 0 9 0 -1 0 0
3 0 3 2 -21 1 3 0 2
2 1 1 1 -5 1 2 1 2
1 2 0 2 30 3 1 3 2
0 1 1 2 35 4 1 3 3
0 1 1 2 38 4 1 4 3
1 1 1 1 0 1 1 1 1
0 1 0 1 19 2 0 1 0
-1 1 0 1 37 4 1 4 3
2 1 1 -1 -12 -1 1 0 1
1 1 0 1 7 1 1 2 2
-1 -1 -1 0 4 1 0 1 0
-1 -1 -1 -1 -2 -1 -1 -1 -1
-1 -1 -1 -1 -5 -1 -1 -1 -1
2 0 2 0 -29 0 3 0 1
-1 1 0 2 52 4 0 4 3
-1 3 2 -6 2 4 -4 0 3
-1 -1 -1 -1 -1 -1 0 -1 -2
-1 -1 -1 -1 -1 -1 -1 -1 -2
0 -1 -1 0 1 -1 0 -1 -1
-1 -1 -1 -1 0 -1 -1 -1 -2
-1 0 -1 0 7 1 0 1 0
1 1 0 1 8 1 1 1 1
1 0 0 1 0 1 1 1 1
-1 -1 -1 -1 1 -1 -1 -1 -1
3 3 1 1 -4 -1 -3 -2 -1
1 1 0 1 -3 0 1 1 0
-8 -10 -8 1 4 0 2 4 2
-1 1 1 1 17 3 -1 2 2
0 -2 -1 -1 -9 -1 -1 -1 -1
-9 -6 -2 -12 -3 2 -7 -1 4
0 -1 -1 2 -9 -2 3 2 1
0 -3 -1 -2 -20 -5 -2 -5 -4
0 -1 -1 0 -5 -1 0 -1 -2
-1 0 -1 -1 -3 -1 -1 0 0
-2 1 0 -1 2 3 -2 2 2
0 0 -1 1 2 -1 1 0 0
-1 0 0 0 8 3 -1 2 2
-7 -5 0 -6 -4 1 -3 0 3
-1 1 -1 1 12 2 -2 1 0
-1 -3 -2 -2 -24 -6 -1 -6 -6
-12 -6 -4 -9 14 3 -10 5 1
0 -1 -1 0 -5 0 0 -1 -1
-1 1 1 1 18 4 -1 2 2
1 0 1 0 -7 0 1 1 1
2 1 1 0 -8 -2 0 -1 0
1 -2 -3 3 -1 -4 2 1 -1
0 1 0 1 14 3 -2 1 1
0 -1 0 -1 -9 -2 0 -2 -1
1 1 1 2 10 3 3 5 5
-2 -1 1 -1 -1 1 -2 0 2
-1 -1 -1 -2 -3 -1 -3 -3 -2
-1 -1 -1 -1 4 0 -2 -2 -1
-1 0 -1 0 1 -1 -1 -1 -1
0 1 0 1 13 2 0 1 1
-1 -2 -3 -2 -10 -4 -2 -3 -2
-1 -2 -1 -2 -19 -4 -2 -4 -4
-5 -1 0 -6 -7 1 -5 0 0
-1 1 0 1 19 2 -1 2 2
-1 -2 -1 -3 -16 -3 -3 -3 -2
0 0 0 1 -2 -1 1 0 -1
0 -1 -1 0 -2 -1 1 0 0
-3 -3 1 -5 -22 0 -4 -2 1
-2 -5 -3 -4 -29 -7 -3 -6 -6
-10 1 -1 -20 -3 -2 -14 0 1
0 -1 -1 0 -5 -1 2 0 0
0 0 0 0 -4 -1 1 0 0
0 -1 0 0 -5 0 1 0 0
-1 -1 -1 0 -4 -1 0 -1 -1
0 -1 0 0 -6 -1 1 -1 -1
0 1 1 0 11 2 -1 0 1
1 3 1 1 22 4 -1 2 2
0 0 -1 0 1 -1 1 0 0
-1 1 0 1 11 -1 -4 -3 -1
-1 -1 -1 -1 -11 -1 -1 -2 -2
-3 -5 -2 -1 1 0 -1 2 0
0 1 1 1 15 2 0 2 2
0 -1 -1 -1 -15 -3 -1 -2 -2
-3 -2 -4 -4 6 -3 -4 -1 -4
0 0 -2 1 6 -2 1 3 0
-1 -2 -1 -2 -28 -4 -2 -2 -3
-1 -1 -1 -1 -7 -1 -1 -1 -1
-1 -1 -1 -1 -13 -2 -1 -2 -2
0 0 -1 -2 -10 -2 -2 -2 -3
-1 -1 -1 -1 -7 -1 -2 -1 -2
1 1 1 1 6 1 1 0 1
-4 -1 -2 -2 -6 -1 -3 -1 -3
0 0 -1 0 4 1 0 0 0
-2 1 1 0 11 2 0 2 2
-2 -2 -2 -3 8 0 -1 3 1
-1 0 0 -1 -5 0 -1 0 0
0 1 0 1 13 2 0 1 1
-1 0 -1 -1 -13 -2 -1 -1 -1
0 -2 -2 -3 -28 -4 -2 -4 -4
-1 0 -1 0 6 -4 -1 1 -1
0 1 0 1 8 2 0 1 2
-2 -1 -1 -1 2 1 -1 0 0
-2 -1 -2 -1 -11 -2 -1 0 -1
0 0 0 0 6 1 -1 0 0
0 0 -1 0 -8 0 -1 -2 -1
-1 0 0 0 8 1 -1 0 1
-1 0 0 1 11 2 -1 1 2
1 1 0 1 8 1 0 1 1
-1 -1 -1 -1 -7 -2 -1 -2 -2
-1 0 0 0 5 1 0 1 1
-1 -1 -1 -2 -10 -2 -2 -2 -2
0 1 0 2 15 3 1 2 3
-2 1 1 1 27 5 0 4 4
-1 -1 -1 -1 -2 0 -1 -1 -1
-1 -1 -1 -1 -9 -1 -1 -1 -1
-2 1 1 0 1 3 0 2 2
-3 -1 -2 -3 -15 -1 -3 -2 -1
-3 1 -2 -8 0 -1 -7 -1 -1
-1 -1 -1 -1 -9 -1 -1 -1 -2
-2 -2 -2 -1 -13 -1 -2 -2 -2
-2 -2 -2 -2 -12 -2 -2 -2 -2
-2 -1 -2 -2 -9 -1 -2 -2 -2
-1 0 0 0 6 1 0 1 1
1 2 2 2 22 3 1 3 3
1 2 2 2 23 3 1 3 3
-1 -1 -1 -1 -4 -1 -1 -1 -1
-1 0 4 -1 11 9 4 7 10
-3 -3 -4 -3 -17 -5 -3 -4 -5
4 4 4 3 25 4 -4 -2 0
2 1 3 0 6 3 0 2 3
1 3 0 2 19 1 0 2 0
2 13 1 6 39 14 1 15 12
0 3 3 0 22 7 0 5 5
0 1 -1 3 15 0 2 5 1
-2 -1 -2 -1 -5 -2 -1 -2 -3
-1 -1 -1 -1 -4 -1 -1 0 -2
-1 -1 -2 -2 3 -1 -1 0 -1
-1 -2 -3 -1 -4 -3 -2 -2 -3
0 1 1 -1 8 1 0 1 2
4 8 4 8 18 13 6 10 10
2 1 2 0 5 3 0 1 4
0 -1 -2 -1 0 -3 0 -2 -1
13 12 1 10 26 -7 -2 -7 -5
-1 0 -1 0 4 -1 -1 -1 -1
2 2 3 0 7 3 0 1 4
1 3 2 2 16 2 2 2 1
1 4 0 2 18 0 1 4 -1
-1 4 3 -2 15 2 -2 6 3
2 2 3 0 7 3 0 2 4
0 1 0 0 10 0 0 0 -1
0 1 2 0 5 3 1 3 2
1 3 3 1 22 5 0 5 5
2 1 2 0 1 2 0 1 3
3 2 2 1 6 2 1 1 4
1 1 1 1 4 1 1 1 3
1 1 2 0 3 2 0 1 3
1 2 4 3 24 6 2 6 6
-1 -1 -1 -1 1 -2 -1 -1 0
3 3 0 2 12 -2 1 1 -2
4 4 4 2 14 4 2 3 6
0 1 1 0 -3 -2 0 -1 -1
-1 -1 -2 -1 -3 -2 -1 -1 -2
-1 -2 -3 -1 -5 -2 -1 -1 -2
3 5 3 4 11 2 2 3 2
1 1 -1 0 4 -2 0 0 -1
5 -1 -3 5 15 2 7 4 3
0 -1 -2 0 -3 -2 -1 -1 -2
-2 -2 -3 -1 -7 -3 -2 -2 -3
-1 -2 -2 -1 -2 -2 -1 -1 -2
-1 -1 -2 -1 -2 -2 -1 -1 -2
0 2 1 1 18 1 1 1 0
3 3 4 2 10 4 2 3 5
5 4 5 2 13 5 2 3 6
-1 -1 -2 0 -1 -2 -1 -2 -2
-2 -1 -3 -3 -7 -3 -3 -2 -3
-2 0 2 0 14 4 1 3 5
0 1 1 -1 0 3 0 2 3
0 0 -1 0 -5 0 -1 -1 -1
1 0 1 0 -2 0 0 0 0
-2 -2 -1 -3 -4 1 -5 -1 2
-2 -2 -1 -4 -8 -2 -3 -2 -1
0 -2 -2 -3 -18 -4 -3 -3 -4
-1 0 1 0 9 3 1 3 4
0 0 1 0 5 1 1 1 1
-1 1 2 0 8 4 2 4 4
0 0 2 0 11 3 1 2 3
-1 -1 -1 -1 -11 -1 -1 -1 -1
-2 -1 0 -3 -4 1 -1 0 3
0 0 0 0 -7 -1 -1 -1 -1
0 -1 -2 -2 -8 -4 -2 -3 -3
3 3 4 3 15 10 3 5 7
-1 0 1 0 3 1 0 1 2
0 0 -1 0 -5 -1 -1 -1 -1
0 1 3 1 14 4 1 3 5
0 -1 0 -1 -1 0 -1 0 1
-4 -1 -2 -5 -1 -3 -5 -1 -2
0 0 0 0 -5 -1 -1 -1 -1
0 0 0 0 0 -1 -1 -1 0
-1 1 2 -1 10 4 1 3 4
-1 -1 -1 -1 -8 -1 -1 -1 -1
0 0 0 0 -3 -1 0 -1 -1
0 0 0 0 0 0 0 0 0
0 0 -1 0 1 -1 0 -1 -1
0 0 0 -1 -4 -1 -1 -1 -1
-2 -2 -1 -2 0 -1 -2 -2 -1
0 -1 -2 -1 -6 -2 -2 -2 -2
1 1 2 2 5 3 2 4 4
0 0 -1 0 -5 -1 0 -1 -1
1 0 0 0 -1 -1 0 -1 0
0 1 2 0 8 3 1 1 3
0 1 2 0 9 2 0 1 3
-1 -2 0 -1 -7 1 -1 0 0
0 -1 -2 -1 -8 -3 -2 -3 -3
-1 -1 4 2 5 7 1 3 6
0 1 2 0 7 3 0 1 3
0 1 3 1 16 5 1 3 5
0 2 3 1 20 5 1 4 6
0 1 3 1 15 4 1 3 5
0 -1 0 -1 -1 -1 -1 -1 0
0 0 -1 0 -4 -1 -1 -1 -1
-1 -1 -1 -1 -8 -2 -1 -1 -2
0 1 2 1 12 3 0 2 4
3 4 0 3 -1 -3 -1 -3 1
0 0 1 0 0 0 0 0 0
-2 -2 -2 -2 -7 -3 1 1 -2
-1 -2 -1 0 3 0 2 1 1
-4 -5 -4 -4 -21 -6 -3 -5 -5
-2 -12 -9 -7 -53 -17 -2 -12 -10
-2 -1 -3 1 -8 -3 0 -1 -1
-3 -4 -4 -2 -15 -4 -1 -2 -3
1 0 1 0 -2 0 1 0 1
-1 -2 -1 -1 -6 -2 -3 -3 -3
-1 -2 -2 -3 -12 -5 -4 -5 -5
0 -1 0 0 -2 0 0 0 0
-1 -3 -2 -2 -8 -3 -1 -3 -3
-4 -13 -2 -5 -45 -7 -5 -13 -4
-2 -3 -3 -1 -6 -2 1 -1 -1
-2 -1 -1 0 -7 2 1 2 2
-4 -11 -3 -5 -15 -2 3 0 5
0 -1 0 -1 -8 0 0 -1 0
-1 -2 -1 0 -2 0 1 0 0
1 1 1 0 -6 0 0 -1 0
-2 -3 -3 -3 -17 -5 -3 -5 -5
2 2 0 1 -10 -5 0 -2 -1
-1 -2 -2 0 0 0 1 0 0
-2 -2 0 -1 -11 0 -1 0 0
-2 -3 -3 -3 -11 -4 -2 -3 -3
-1 -1 -1 -1 -4 -1 0 0 0
-1 -2 -2 1 -3 -1 0 0 0
-1 -2 -2 1 0 1 2 2 2
-1 -1 -1 1 -1 1 2 2 2
-1 -2 -2 -1 -4 -2 0 -1 -1
-2 -4 -3 -2 -14 -3 -1 -3 -2
-1 -1 -1 0 -5 0 1 0 1
-1 -3 1 -4 -11 -2 -3 -4 -2
-1 -1 -1 1 1 0 2 1 2
0 0 2 2 5 5 3 5 6
0 0 0 0 -4 0 0 0 1
1 1 1 1 2 1 1 1 1
-5 -6 -3 -5 -15 -2 -3 -2 -1
-2 -1 -2 0 -2 1 0 0 1
5 3 2 0 -10 2 5 -2 0
1 0 1 0 -3 0 1 1 0
0 0 1 0 -3 0 1 0 0
2 1 2 1 3 1 2 1 0
1 0 1 0 -2 1 2 1 1
-1 -2 -1 -1 -11 0 0 0 -1
-1 0 -1 1 4 1 2 2 2
0 -1 -1 1 2 0 1 1 0
0 -1 0 0 -4 0 1 0 0
0 1 0 0 5 1 0 1 0
-1 -1 -1 -1 -10 -1 -1 -1 -1
-1 -2 -1 1 4 0 0 0 0
0 1 0 1 17 1 1 2 2
0 0 0 0 -2 0 0 0 0
1 1 0 1 5 2 0 0 2
-1 0 -1 0 -3 -1 0 1 0
0 0 0 0 -6 0 0 -1 0
-1 -1 -1 -1 -10 -1 -1 -1 -1
0 0 0 0 4 0 0 1 1
0 1 1 0 10 1 0 1 1
-1 -1 -1 -1 -8 -1 -1 -1 -1
1 1 1 1 20 2 1 2 3
1 1 1 0 1 0 2 1 1
1 1 1 1 21 2 1 2 2
0 0 -1 -1 -8 -2 -1 -2 -1
2 1 -1 1 8 -1 -1 -1 -1
-1 -1 -1 -1 -3 -1 -1 -1 -1
1 1 1 1 23 2 1 2 2
0 0 -1 0 -8 -1 -1 -1 -1
1 1 1 0 -2 0 0 0 0
0 0 0 0 1 0 0 1 0
1 1 1 1 22 2 1 2 3
0 0 -1 0 0 -1 0 -1 -1
0 1 0 1 8 0 1 1 1
0 0 0 0 10 1 0 1 1
1 0 1 1 9 1 0 1 1
1 0 1 1 12 1 1 1 1
0 0 0 1 9 1 1 1 1
1 1 1 1 23 2 1 2 2
0 0 0 0 -4 -1 0 0 0
0 0 0 0 -7 -1 0 -1 -1
0 0 0 -1 -3 1 -1 0 0
1 1 1 1 24 2 1 2 3
-1 0 -1 -1 -6 -1 -1 -1 -1
-1 -1 -1 -1 -4 -1 -1 -1 -1
-1 -1 -1 -1 -12 -1 -1 -1 -2
-1 0 -1 -1 -7 -1 0 0 0
0 0 0 -1 -8 -1 0 -1 -1
0 -1 -1 0 8 0 0 0 0
-1 -1 -1 -1 -12 -2 -1 -1 -1
-1 -1 -2 -1 -12 -2 -1 -1 -2
-1 -1 -1 -1 -13 -1 -1 -1 -2
-1 -1 -2 -1 -14 -2 -2 -2 -2
-1 -1 -1 -1 -3 -1 -1 -1 -1
1 1 1 1 17 1 1 1 2
2 2 2 2 35 3 2 3 3
-1 -1 -1 -1 -7 -1 -1 -1 -2
-1 -1 -2 0 -1 -1 -2 -1 0
0 1 1 1 1 2 1 2 3
0 1 0 1 3 2 0 1 0
-1 -1 -1 0 8 0 0 0 -1
-1 -2 -2 -2 -17 -3 -2 -3 -3
-2 -4 -1 -4 -15 -3 -2 -4 -2
-2 -1 0 -1 -12 -1 -2 0 1
-4 -5 -5 -6 -44 -7 -6 -8 -7
0 0 1 1 0 2 1 2 2
-1 0 -1 0 0 0 0 0 0
-1 1 0 0 11 2 0 2 2
0 0 0 0 -4 1 1 1 1
-1 -1 -2 -1 -2 -1 -1 -1 -1
-3 -6 -3 -3 -12 -3 -5 -6 -5
-2 -2 -2 0 3 -1 0 -1 -2
-1 -3 -3 -2 -23 -4 -2 -3 -3
1 0 1 0 11 3 2 2 1
0 0 1 0 -3 1 1 1 1
-1 -1 -2 0 8 -1 0 0 -1
1 1 2 2 3 3 2 3 3
-2 -3 -2 -2 -23 -4 -3 -4 -3
-1 0 0 -1 -5 0 -2 -1 0
-1 -1 -1 0 6 -1 0 -1 -1
1 0 0 0 -6 0 1 0 1
0 3 4 1 26 6 3 7 7
-2 -2 -2 -1 -3 -2 -1 -1 -1
-1 -2 -2 0 1 -1 -1 -1 -1
-1 -1 -1 0 5 0 0 0 -1
-1 -1 -1 0 1 -1 0 -1 -1
-1 -2 -2 -1 1 -1 -1 -1 -1
-2 -3 -2 -3 -13 -3 -3 -3 -2
-1 -2 -2 -2 -18 -2 -2 -2 -2
0 0 0 0 1 1 0 1 1
-1 -1 -1 0 7 -1 0 0 -1
0 0 1 1 10 2 2 2 3
0 1 1 1 0 1 1 2 2
-1 0 0 0 -8 0 0 0 0
-1 1 1 2 7 4 2 5 4
-3 -4 -5 -4 -35 -5 -4 -5 -5
1 1 1 0 -2 1 2 2 1
0 0 1 0 -6 1 0 1 1
0 1 2 1 0 2 2 2 3
0 0 1 1 -2 2 1 1 2
0 1 1 1 -1 2 1 1 2
0 -1 0 0 -13 0 0 0 0
-1 -1 -2 0 5 -1 0 0 -1
-2 -2 -2 -1 7 -1 -1 -1 -1
0 0 1 1 -2 2 1 2 2
-5 -4 -6 -5 -10 -2 -6 -3 3
3 3 2 4 42 5 3 5 5
1 4 1 -3 3 2 -2 1 0
-1 -1 -1 -1 -4 -1 -1 -1 -1
-1 0 0 0 6 2 -1 1 -1
-2 -1 -1 -2 10 1 1 2 6
-4 -2 1 -3 -10 1 -3 -2 2
-2 1 -1 -1 10 1 -2 1 0
5 6 6 6 60 8 6 8 8
-1 -1 -2 0 1 0 -1 -1 -1
1 1 1 2 28 4 2 3 2
3 4 3 4 45 6 3 6 7
2 2 2 2 19 3 1 2 1
-5 -2 4 -2 4 5 2 0 7
1 1 1 1 13 1 1 1 1
0 2 2 1 32 3 1 3 2
6 1 -5 -1 -7 -2 -5 -1 0
2 3 3 3 36 5 3 5 5
0 0 0 0 6 0 0 0 0
-1 1 1 1 20 3 1 3 3
-3 -1 -1 -1 8 1 -1 2 0
-6 0 0 -5 1 1 -6 -2 0
0 1 1 1 11 1 0 1 1
-1 0 1 0 16 2 1 2 2
-2 0 0 0 9 2 -2 0 0
-1 -2 -1 -1 -5 -1 -1 -1 -1
0 0 0 1 12 0 0 1 1
0 0 0 1 5 0 0 1 0
1 1 0 2 19 1 1 1 1
0 0 0 0 4 1 0 0 0
-1 0 1 -1 14 1 0 2 1
0 1 1 1 14 2 1 2 1
0 -1 -1 1 0 0 1 1 0
1 1 1 1 12 1 1 1 1
-1 0 0 1 28 3 2 3 2
3 4 4 4 40 5 3 6 6
0 2 2 2 22 3 1 4 4
-2 -2 -1 0 6 1 -1 0 -1
-3 -1 -2 -2 6 0 -2 0 0
-3 -5 -3 3 -7 -1 6 4 2
1 3 2 3 30 5 2 4 5
4 6 5 6 57 8 5 8 9
2 3 3 4 34 5 2 5 6
3 4 3 4 47 6 3 7 7
-1 0 0 0 13 2 0 2 2
1 1 1 1 15 1 2 2 2
1 2 2 1 18 2 1 2 2
3 5 4 5 48 7 4 7 7
0 0 0 0 5 0 0 1 0
0 0 1 0 12 1 0 1 1
0 0 0 1 3 1 1 1 1
0 0 1 1 1 1 0 1 1
0 1 0 0 -1 0 0 0 0
0 0 0 -1 -5 0 0 0 0
0 0 0 0 -4 0 0 0 0
0 -1 -1 0 -9 -1 -1 -2 -2
0 1 1 1 10 1 1 1 2
0 1 1 1 12 2 1 2 2
0 2 2 2 31 6 2 5 5
-1 -1 -1 -1 2 -1 -1 -1 -1
0 0 1 0 6 2 0 2 2
0 -1 0 -1 1 0 0 0 0
0 0 0 0 0 1 0 1 0
-2 -3 -3 -3 -31 -4 -2 -4 -4
0 0 0 -1 -4 1 -1 -1 0
-1 -1 -1 -1 0 -1 -1 -1 -1
0 0 0 0 2 1 0 1 1
0 0 0 0 12 1 1 1 1
0 0 0 0 2 0 0 0 0
0 0 0 0 6 1 0 0 -1
0 0 0 0 -3 1 0 0 1
-1 -1 -1 -1 -9 -1 -1 -2 -2
0 2 2 2 22 3 2 3 3
0 1 1 1 4 1 1 1 1
0 0 0 0 -5 0 0 0 0
0 0 0 0 -5 0 0 0 0
0 0 0 0 -10 0 0 0 0
0 1 0 0 2 1 0 1 1
0 0 0 -1 -5 -1 0 0 0
-1 -1 -1 -1 -17 -2 -1 -2 -2
0 1 1 1 8 3 1 2 2
0 0 0 0 -4 0 0 0 1
-1 -1 -2 -2 -23 -3 -1 -2 -2
0 0 -1 0 1 -1 0 -1 -1
0 0 0 0 6 0 0 0 0
-1 -1 -1 -1 -16 -1 0 0 0
-1 -2 -2 -1 -17 -2 -1 -3 -3
0 0 1 0 3 0 0 0 0
0 0 0 0 8 0 0 0 0
0 0 0 0 6 0 0 0 0
0 0 1 1 14 1 1 1 1
0 0 0 0 8 0 0 0 0
-1 -1 -1 -1 -7 -2 -1 -2 -2
0 0 0 0 -2 1 0 0 1
0 1 1 1 6 2 1 2 2
0 -1 -1 0 1 -1 -1 -1 -1
0 -1 -1 0 -5 0 0 1 0
0 1 1 1 15 3 1 3 3
0 1 0 1 5 2 0 1 1
-1 0 0 0 0 0 0 0 0
0 1 0 1 3 1 0 1 1
0 0 -1 -2 -4 -1 -1 1 0
0 0 1 0 -4 0 0 0 1
-1 -1 -1 -1 -7 -1 -1 -1 -2
1 1 1 1 13 2 1 2 3
0 1 1 1 19 2 1 2 2
0 3 3 3 42 7 3 7 7
0 0 0 0 -3 0 0 0 0
-1 0 0 0 8 2 0 1 1
-1 -2 -1 -1 -2 -1 0 -2 -1
-1 0 0 0 1 0 0 0 0
-3 -4 -4 -4 -39 -6 -4 -5 -5
-1 0 -1 -1 -5 0 -1 -1 -1
0 0 -1 0 -5 -1 0 0 -1
-1 0 -1 0 2 0 0 0 0
0 0 0 0 5 1 1 1 2
0 0 0 1 6 2 0 1 1
0 0 0 0 5 1 -1 0 1
0 0 0 0 2 0 0 0 0
-1 -1 -1 -1 -17 -2 -1 -2 -2
0 1 2 1 27 4 1 4 4
-1 0 0 0 -1 0 0 0 0
0 -1 0 0 0 0 0 0 0
0 0 0 0 -1 0 0 0 0
-1 -1 -1 -1 -7 -1 -1 -1 -1
0 0 0 0 4 0 0 0 0
-1 -1 -1 -1 -1 -1 -1 -1 -1
-1 -2 -2 -2 -20 -3 -2 -3 -3
-1 1 1 1 7 3 1 3 3
-1 0 0 0 -1 0 0 0 0
-1 -2 -2 -2 -31 -4 -2 -4 -3
0 0 0 0 1 0 0 0 0
0 0 0 0 1 0 0 0 0
-1 -1 -1 -2 -18 -1 -1 -1 -1
-2 -3 -3 -2 -21 -4 -2 -3 -3
-1 0 0 -1 -1 -1 0 1 -1
0 0 0 0 -2 0 0 0 0
0 1 1 1 3 1 1 1 1
0 1 1 1 13 2 1 2 2
0 0 0 0 3 1 0 1 1
-1 -2 -2 -1 -18 -2 -2 -2 -2
-1 -1 0 -1 -1 0 0 0 0
-1 0 0 0 5 0 0 0 0
0 0 0 0 -2 0 0 0 0
11 12 8 9 19 3 8 2 1
3 -1 0 0 -14 -3 3 0 0
-1 -5 1 -2 -3 6 6 9 11
1 0 0 -2 7 -1 -3 -1 -3
0 0 1 2 7 4 4 5 5
8 8 1 7 8 9 5 15 12
3 3 0 6 24 7 5 8 3
7 5 2 7 4 1 10 9 6
2 1 1 0 -4 0 2 1 1
1 0 0 0 -7 -1 2 0 0
2 1 2 1 12 2 2 2 2
5 1 1 1 -10 -2 3 -1 0
1 1 1 0 9 1 0 1 1
7 11 3 3 9 13 5 17 15
4 0 0 0 -3 -3 -1 -4 -2
5 2 -1 2 5 -4 0 -4 -4
0 -7 -2 0 9 9 4 3 5
5 3 3 2 -2 0 4 1 1
2 0 0 -1 0 -1 -3 -3 -2
6 4 5 3 -13 0 4 1 1
6 7 5 3 11 2 6 6 6
12 3 -3 14 -2 -7 13 8 -1
4 2 1 0 4 -1 -2 -1 -1
4 3 2 2 2 0 3 1 0
4 2 2 3 -1 2 6 7 2
-3 0 0 -2 15 3 -2 5 4
6 3 2 1 -5 -2 0 -4 -3
5 3 1 1 0 -3 -1 -4 -3
4 2 1 2 6 -1 0 -3 -2
2 0 1 0 1 -1 -1 -1 -1
3 2 4 4 17 6 5 6 7
3 2 -1 0 2 -2 -1 -3 -3
2 3 0 -1 11 1 3 4 2
5 2 2 1 6 0 -1 -1 -1
4 4 3 3 4 2 0 0 -1
4 2 2 2 -3 -1 4 1 1
3 1 0 0 -13 -3 3 0 0
0 7 4 3 30 11 0 9 4
10 6 3 2 -4 -4 2 -5 -4
7 5 4 -7 3 13 -5 1 12
6 3 3 2 -2 -1 4 0 0
6 1 2 2 -14 -2 4 0 0
6 3 2 1 -8 -3 5 0 -1
7 2 3 2 -9 -2 5 -1 0
5 4 3 2 6 0 3 1 1
4 4 4 1 10 2 -1 0 0
6 4 4 2 8 1 -1 -1 0
5 1 2 1 -8 -2 4 0 1
3 1 -7 3 -23 -8 1 -5 -6
5 4 6 2 -15 5 1 1 4
-5 -5 1 -12 -108 -10 4 -10 -9
0 -5 -6 2 20 -5 4 0 -2
4 -1 1 1 -22 -3 1 -1 -2
-9 -15 -10 -16 -128 -28 2 -16 -17
-6 -2 -5 -5 -39 -13 2 -5 -10
2 0 3 1 -8 2 2 -1 3
2 2 4 0 -18 2 -1 -1 1
5 2 1 3 5 0 1 -1 -2
8 1 -1 5 -8 -2 4 -1 -3
2 3 7 1 -17 6 0 1 5
4 -2 -4 4 13 -5 2 -2 -4
-5 -22 -1 -15 -128 -27 0 -23 -13
-1 -5 -6 1 19 -6 3 -1 -4
-2 -2 2 -1 10 2 4 3 8
-1 -6 1 -7 -14 -3 8 2 7
1 2 5 0 -16 5 0 1 5
0 -5 -7 3 21 -6 4 0 -3
3 3 5 2 -40 5 1 0 3
7 3 7 2 -17 3 -1 -1 1
-7 1 0 -8 -94 -16 1 -10 -13
-1 -5 -7 1 23 -6 2 -1 -5
-1 0 3 0 -16 4 1 1 6
5 2 1 3 -4 1 4 -2 0
0 -4 -6 2 -5 -5 4 0 -2
0 -3 -4 1 24 -5 2 -1 -3
-2 -5 -5 0 18 -5 1 -1 -2
-2 -5 -4 0 11 -4 1 0 0
0 -4 -6 2 12 -6 2 -2 -4
0 -5 -2 0 -43 -9 3 -4 -4
-1 -1 0 0 3 1 2 1 3
6 3 5 3 6 6 2 2 3
-2 -7 -9 1 23 -8 3 -2 -5
-4 -5 0 -3 8 1 4 3 8
0 2 5 0 -19 4 0 0 3
2 2 5 1 -14 5 0 2 4
-1 -3 -3 -1 1 -1 5 3 3
-2 -1 1 1 11 3 3 2 6
10 11 4 10 -8 17 9 8 6
1 2 5 0 -36 5 -1 1 4
2 4 8 0 -19 7 0 0 5
2 4 8 1 -30 7 0 1 4
1 3 7 0 -29 6 -1 0 4
0 0 4 0 -25 4 2 1 6
-2 -6 -8 0 13 -7 2 -1 -3
-2 -8 -10 2 21 -10 3 -3 -7
1 3 7 0 -23 6 0 1 5
-2 -1 0 -1 2 0 -1 0 1
0 0 -1 0 1 -1 -1 -1 -1
0 -1 0 0 1 0 -1 -1 -1
0 0 0 0 3 0 0 0 0
0 -1 0 0 -8 -1 0 -1 -1
0 1 1 0 10 1 0 0 0
0 0 0 0 7 -1 0 1 0
0 0 1 1 1 2 1 2 3
0 0 0 0 2 0 0 0 -1
-1 -1 -1 -1 -11 -2 -1 -2 -2
-1 -2 -2 -2 -22 -4 -2 -4 -4
0 0 0 0 5 1 0 0 0
-1 -1 -1 -2 -15 -2 -2 -2 -2
0 -1 -1 0 -1 0 0 1 -1
0 1 0 1 12 1 0 1 1
0 2 3 3 31 7 2 6 6
0 0 1 -1 -1 1 0 0 1
0 1 1 0 8 1 0 1 1
0 0 0 0 3 0 0 0 0
0 0 0 0 3 0 1 0 0
-1 -1 -1 -1 -13 -1 -1 -1 -1
0 0 0 0 5 0 0 1 0
0 0 0 0 7 1 0 1 1
-1 1 1 1 15 3 1 2 3
0 -1 -1 -1 -12 -2 -1 -2 -2
0 0 0 0 -4 0 0 0 0
-1 0 0 0 9 1 0 1 1
-1 1 1 1 18 2 0 2 2
-1 1 1 1 19 3 0 2 2
0 0 0 0 2 0 0 0 0
0 0 0 1 -2 1 0 1 1
0 1 2 1 21 4 1 4 4
-1 -2 -2 -2 -11 -3 -1 -2 -2
0 0 0 0 10 1 0 1 1
-2 1 1 1 22 4 1 3 3
0 1 1 1 8 1 1 1 1
0 0 0 0 1 0 0 0 0
0 0 1 0 -5 0 1 0 1
-1 1 2 2 26 5 1 5 5
0 0 1 -1 0 1 -1 0 1
0 0 0 0 7 0 1 1 0
0 1 1 1 12 1 1 1 1
0 0 -1 0 4 0 0 0 0
0 0 0 1 7 1 0 1 0
0 1 1 1 15 3 1 2 3
0 0 1 0 9 1 0 1 1
-1 0 0 0 5 0 0 0 1
0 1 1 1 10 1 1 1 1
0 1 -1 2 6 1 1 1 1
1 0 -1 0 -1 -1 0 0 -1
2 2 3 1 4 0 2 1 1
-1 -1 0 -1 -5 -1 -1 -1 -1
0 0 0 0 1 0 1 1 0
1 3 1 2 -2 -3 1 0 -3
2 2 1 1 6 1 2 2 1
-1 0 0 1 3 0 1 1 -1
1 0 0 0 0 0 0 0 0
0 -1 -1 -1 -4 -1 -1 -1 -1
1 0 0 -1 -1 -1 -1 -1 -1
1 0 0 1 2 0 2 1 0
-1 -1 0 -1 -4 -1 0 0 0
2 3 0 0 -6 -2 1 -1 0
-1 -1 -1 -1 -7 -1 -1 -1 -1
1 2 2 1 16 3 1 3 3
2 2 1 -1 -1 -1 0 0 1
1 1 1 2 7 1 2 2 2
-1 -1 -1 -1 -6 -1 -1 -1 -1
2 1 1 1 3 0 1 1 1
0 0 0 0 1 -1 1 0 -1
1 1 0 2 4 0 3 2 1
-1 -1 -1 -1 -6 -1 -1 -1 -1
1 1 2 2 11 2 2 2 2
1 1 0 0 -3 0 0 0 0
0 0 0 0 0 0 0 0 0
-2 -1 -1 -1 -6 -1 -1 -1 -1
-1 -1 -1 -1 -4 0 -1 -1 -1
-1 0 0 -1 -2 0 -1 0 0
-1 -1 -1 -1 -5 -1 -1 -1 -1
0 0 1 0 4 1 0 1 0
0 1 1 0 7 2 0 1 1
0 -1 0 -1 -1 -1 0 -1 0
-1 -1 -1 -1 -6 -1 -1 -1 -1
-1 0 1 -1 5 2 -1 2 3
1 0 0 1 2 0 2 1 1
1 0 0 1 1 0 1 1 0
1 2 2 0 4 3 0 2 4
0 1 1 1 9 1 0 1 1
-1 1 1 -1 0 -1 0 0 -1
2 1 1 2 7 1 2 2 1
1 0 0 1 1 0 1 1 0
2 1 0 1 3 0 2 1 0
2 1 0 2 5 0 2 1 1
2 2 2 2 12 2 2 3 3
-1 0 0 -1 -2 1 -1 0 0
-1 0 0 -1 -4 0 -1 0 0
1 1 0 1 4 0 2 1 0
-1 -1 -2 -1 3 -1 -2 0 1
2 3 3 3 27 4 2 4 4
0 1 1 -1 0 3 -2 -1 -1
-1 -1 -1 -1 -8 -1 -1 -1 -1
2 2 2 2 12 2 2 2 2
0 0 -1 -2 -2 -1 -1 1 0
-2 0 -1 -2 4 -1 -2 -1 -1
2 2 1 2 13 2 2 3 2
2 3 4 3 27 5 3 4 5
1 1 1 2 16 2 1 2 2
-1 0 0 1 12 2 1 2 2
1 1 1 1 10 2 1 2 2
-1 -1 -1 -1 -4 -1 -1 -1 -1
0 2 0 -1 8 0 1 2 2
-1 -1 -1 -1 -6 -1 -1 -1 -1
-1 -1 -2 -2 -6 -3 -2 -2 -3
5 2 -3 2 7 1 -2 0 -4
-1 -1 -1 -1 -1 0 -1 -1 0
-1 -1 -1 -1 -10 -1 -2 -1 -1
1 1 1 1 7 2 0 1 2
2 3 2 3 17 4 4 4 3
-2 3 2 -2 10 2 -2 1 1
-1 -1 -1 -1 -6 -1 -1 -1 -1
-1 -1 -1 -1 -9 -2 -1 -2 -2
-1 0 0 -1 -2 0 -1 -1 -1
-1 -1 -1 -1 -3 -1 -1 -1 -1
0 0 -1 0 -1 -1 1 0 0
-1 -1 0 0 -3 -1 -1 -1 -1
0 0 0 0 1 0 0 0 -1
-1 -1 -1 -1 -6 -1 -1 -1 -1
0 1 1 0 5 1 1 2 1
0 0 -1 -1 -1 -1 -1 0 -1
1 1 -1 2 6 0 2 2 0
0 0 -1 -1 -5 -1 -1 -1 -1
-3 -3 -3 -3 -20 -5 -4 -5 -5
0 0 0 1 3 1 0 1 1
1 2 2 2 18 3 2 3 3
-1 -1 -2 -1 -4 -2 -2 -1 -3
0 0 0 0 1 -1 0 0 -1
1 -2 -2 2 5 -1 1 4 0
1 1 1 0 9 2 0 1 2
1 1 1 2 15 3 1 2 3
2 3 3 3 26 4 3 4 4
1 2 2 2 17 3 1 3 3
-1 0 -1 -1 -1 0 -1 0 0
0 0 1 0 0 0 0 0 0
0 0 0 -1 -4 -1 0 -1 0
1 1 1 1 9 2 1 2 2
-1 -1 -2 -1 8 0 -1 -1 -1
0 0 0 0 5 1 0 0 1
0 1 1 0 2 1 -1 -1 0
-1 -1 -1 -1 -5 -1 -1 -1 -1
0 0 0 0 4 0 0 1 0
-1 -1 0 1 -4 1 -1 0 0
-1 -1 -1 -2 -1 -1 -2 -1 -1
0 1 0 0 10 1 0 2 1
1 1 1 1 5 1 1 1 1
0 0 0 0 2 0 0 0 0
0 0 0 0 3 -1 -1 -1 -1
1 2 2 2 19 3 2 3 3
0 0 0 0 2 0 0 0 0
-1 1 0 1 8 0 0 0 0
-1 0 -1 -1 -5 -1 0 0 -1
-1 0 0 0 0 1 0 1 1
2 2 0 1 -1 0 0 0 -1
0 1 1 1 9 1 1 1 2
-1 -1 0 -1 -5 -1 -1 -1 -1
0 0 1 0 7 1 0 1 1
0 0 0 0 11 1 1 1 1
-1 0 1 -2 3 0 -1 0 0
-1 -1 -1 0 -6 -1 -1 -1 -1
0 1 1 0 6 1 0 1 1
-1 -1 -1 -1 -13 -2 -2 -2 -2
0 0 0 0 -3 -1 0 -1 -1
-1 0 -1 0 -5 -1 0 0 -1
-1 -1 -1 -1 -10 -1 -1 -1 -1
0 0 -1 -1 -7 -1 -1 -1 -1
0 0 -1 0 -3 -1 0 -1 -1
0 0 1 -1 1 1 0 1 1
0 0 0 0 -2 0 0 0 0
0 0 -1 0 8 -1 0 0 -1
0 -1 -1 -1 -8 -1 -1 -1 -1
-2 -2 -2 -2 -17 -2 -2 -2 -2
1 1 1 1 14 2 1 2 2
1 1 2 1 16 2 1 2 2
-1 -1 -2 -1 -7 -2 -2 -2 -2
0 1 1 1 8 2 0 2 1
0 0 -1 1 4 -1 1 1 -1
1 2 2 1 21 3 1 2 3
1 1 2 1 15 2 1 2 3
0 1 1 1 15 2 1 2 2
1 2 2 1 20 3 1 3 3
1 1 2 1 13 2 1 2 2
0 0 0 -1 -7 -1 0 -1 -1
0 0 -1 -1 -6 -1 -1 -1 -1
1 1 2 1 18 2 1 2 3
4 0 0 1 2 0 0 -2 3
1 1 0 2 8 1 2 2 1
1 1 0 -3 -3 0 -2 0 -1
2 3 2 3 40 2 2 3 2
-1 -1 0 -1 -4 1 -1 0 1
3 3 0 4 16 8 1 4 3
0 -1 1 1 1 1 1 -1 1
-1 0 0 1 0 4 1 4 3
2 2 1 3 18 2 2 3 2
-1 0 0 0 5 1 0 0 0
-1 -2 -2 0 7 0 -1 -1 -1
4 5 4 5 29 5 5 5 5
2 2 2 2 32 3 2 2 3
1 -2 2 -1 6 0 4 2 3
5 4 5 5 56 5 5 5 5
1 1 2 1 12 2 3 3 4
4 0 -4 -3 16 -1 -4 1 -1
3 4 4 3 28 4 3 4 4
3 3 3 4 49 4 3 3 3
4 5 4 5 34 5 5 6 5
-2 -1 -1 -2 -11 1 0 2 1
2 -1 3 1 -13 1 0 -1 1
4 4 4 4 54 5 4 4 5
2 3 3 3 30 4 4 4 4
0 -1 -1 2 8 0 1 0 -1
2 3 2 2 32 2 2 3 2
2 2 2 2 29 3 2 2 3
2 3 3 3 40 4 2 4 3
0 0 0 2 22 1 2 2 2
3 2 3 3 34 3 3 3 3
0 -1 1 -1 6 2 1 1 2
0 1 1 0 9 2 1 2 2
-1 0 -1 -1 7 -1 -1 0 -2
4 4 4 4 55 5 4 5 5
0 1 1 2 20 0 2 2 2
4 5 5 5 36 5 5 6 5
2 2 2 2 12 2 2 2 2
-2 0 -3 0 13 -3 -1 0 -2
0 0 1 0 -1 2 1 3 3
0 -1 -5 -1 -4 -1 2 2 -3
3 4 3 4 25 4 4 4 4
6 7 6 7 48 7 6 7 7
4 4 3 5 28 5 4 5 4
5 5 5 6 37 6 5 6 6
2 3 3 3 26 4 3 4 4
3 2 3 3 40 3 3 3 3
4 4 4 5 54 5 4 4 4
5 5 5 5 38 5 5 6 5
0 3 1 1 18 1 -2 0 -3
-1 -1 -1 -1 -6 -1 -1 -1 -2
0 -2 -1 -1 -12 -3 1 1 1
0 0 0 1 11 2 0 2 3
0 1 0 0 8 1 0 1 1
3 2 1 2 -1 0 0 0 1
-1 0 -1 0 3 -2 0 1 -1
1 1 1 2 9 1 2 2 1
-1 -1 -1 -1 -7 -1 -1 -1 -1
0 1 1 0 11 1 0 1 1
1 1 0 1 18 2 0 1 1
-1 -1 -2 -1 -9 -2 -2 -2 -2
-1 1 0 1 21 3 0 2 3
0 1 -1 0 13 1 -1 0 -2
0 1 1 1 21 3 1 3 3
-1 0 0 0 0 0 0 0 1
4 0 0 0 -17 -1 -1 -1 3
-1 -1 -1 -1 -5 -1 -1 -1 -1
-1 0 1 0 17 3 0 2 3
1 1 0 1 3 -1 1 0 -1
2 2 1 1 10 2 1 1 0
0 1 -2 1 13 -4 1 3 -3
-1 1 1 1 16 3 0 2 3
0 0 1 0 2 0 0 0 0
2 1 1 1 7 1 2 2 1
0 1 1 1 13 2 0 1 2
0 1 1 1 18 3 0 2 2
0 0 1 1 15 3 1 2 3
-1 0 0 1 13 2 1 2 2
0 1 1 1 18 2 0 2 2
0 1 0 1 10 1 0 2 1
0 0 0 0 2 0 0 0 1
1 1 1 0 7 1 -1 0 1
0 0 1 1 17 3 1 3 3
0 0 0 0 -9 0 1 0 1
-1 -1 -1 -1 -5 -1 -1 -1 -1
-1 -1 -1 -1 -4 -1 -1 -1 -1
1 0 1 0 -6 0 1 1 1
1 1 1 1 6 1 1 1 1
2 -1 0 0 -14 1 -1 -5 0
0 -1 -1 0 -4 -1 -1 -1 -1
-2 -2 -2 -2 -10 -2 -2 -2 -2
0 0 -1 0 -5 -1 0 -1 -1
-1 -1 -1 -2 -8 -1 -1 -2 -2
0 0 0 0 5 0 0 0 0
0 0 1 1 12 2 1 2 2
0 1 1 2 26 4 1 3 3
-1 -1 -1 -1 -6 -1 -2 -2 -2
-2 -1 -1 -2 -2 -1 -1 0 1
0 0 -1 -1 -8 -1 -1 -1 -1
-1 0 -1 0 1 0 -1 -1 -1
0 0 0 -1 0 0 -1 -1 -1
0 0 0 0 -2 0 0 0 0
-2 -2 -2 -2 -10 -2 -1 -2 -3
-1 0 -1 -1 -2 -2 -1 -1 -1
0 1 2 1 15 3 2 3 3
0 0 0 0 -6 0 0 -1 -1
0 0 0 0 -5 -1 -1 -1 -1
-1 -2 -2 -2 -26 -4 -3 -4 -4
0 0 1 0 0 1 0 1 1
-1 -1 -1 -1 -7 -1 -1 -2 -1
-2 -2 -2 -2 -4 -2 -2 -1 -2
0 0 0 0 7 0 0 0 0
0 2 3 2 34 6 2 6 5
-1 0 0 -1 2 0 0 1 0
0 0 0 0 2 1 0 1 1
0 0 0 -1 0 -1 -1 -1 -1
-1 -1 0 0 -5 0 0 0 0
0 0 0 0 -5 0 0 0 1
0 1 0 0 1 0 0 0 0
0 0 0 0 3 0 0 0 0
-1 0 0 0 9 2 0 2 2
-2 -3 -3 -3 -34 -4 -3 -5 -5
0 -1 -1 -1 -11 -1 -1 -1 -1
-1 0 0 -1 2 0 -1 0 0
-1 0 0 0 4 0 -1 0 0
-1 0 0 0 7 1 -1 0 0
0 0 0 -1 -1 0 -1 -1 0
0 0 0 0 -6 0 0 0 0
0 1 1 1 19 3 1 3 3
0 -1 -1 -1 -4 -2 -1 -2 -2
0 0 0 -1 2 0 0 0 0
-1 0 0 0 12 1 -1 1 1
0 0 0 0 1 1 0 1 1
0 0 0 0 3 1 0 1 1
-2 -3 -2 -3 -27 -4 -3 -4 -3
0 2 3 2 34 5 2 5 5
-1 0 -1 -1 -2 -1 -1 1 -1
0 0 0 0 4 1 0 1 1
0 1 0 0 3 1 0 1 1
0 0 0 0 -1 0 0 0 0
0 1 0 0 3 1 0 1 1
-1 0 1 1 8 2 1 2 2
0 0 0 0 4 0 -1 0 0
0 0 0 -1 3 0 -1 0 0
0 0 0 0 2 1 0 1 1
0 0 0 0 8 1 1 1 1
0 0 0 0 -8 -1 -1 -1 -1
-1 -1 -1 0 1 -1 -1 -2 -1
0 0 0 0 4 0 0 0 0
0 3 2 2 27 4 2 4 4
-2 0 -2 0 0 -1 -1 -1 -2
-1 -1 0 -1 -6 -1 -1 -2 -1
-1 2 2 2 33 6 3 6 5
0 0 0 0 -5 0 0 0 -1
0 2 1 1 18 3 1 2 2
-1 -1 -1 0 -1 0 -1 -1 -1
1 1 1 1 3 1 1 2 1
-1 -1 -1 0 9 0 0 0 0
-2 -2 -1 -1 3 -1 -1 0 0
-1 0 0 0 8 0 0 0 0
-2 -1 -1 -1 -9 0 -1 0 0
-2 -1 -1 -1 -1 -1 -2 0 -1
1 0 0 0 -2 0 0 0 0
0 -1 0 0 6 0 0 0 0
-1 -1 -1 -1 -15 -1 -1 -1 -1
1 4 2 4 34 7 4 7 6
-1 1 1 0 6 2 0 2 1
-1 -1 0 -1 4 0 0 -1 0
-1 0 0 0 -11 -1 -1 -1 -1
-2 -2 -2 -2 -23 -3 -3 -4 -4
0 -1 0 -1 -7 -1 0 -1 -1
-1 0 0 0 12 1 0 1 1
0 0 0 0 11 1 0 1 0
0 0 0 0 6 0 0 0 0
-1 0 0 0 8 0 0 0 0
-1 0 0 0 5 2 1 2 2
-1 -1 0 -1 -2 0 -1 0 0
0 0 0 0 4 0 0 0 0
-1 -1 0 -1 3 -1 -1 0 -1
-3 -4 -4 -4 -44 -6 -4 -6 -6
1 1 0 1 -2 0 0 0 0
1 2 2 2 12 3 2 3 2
-1 -3 -3 -2 -38 -5 -3 -6 -4
-2 0 0 0 15 3 0 3 2
1 1 -2 1 2 -1 1 2 -2
1 1 1 1 4 1 1 1 1
0 0 0 1 -6 0 0 0 -1
1 1 1 1 2 1 1 2 1
1 1 1 1 0 1 1 1 1
0 1 0 1 -1 1 0 1 0
-1 -1 -1 -1 -2 -1 -1 -1 -1
-1 -2 -1 -1 4 -1 -1 -1 -1
1 1 1 1 2 1 1 1 1
7 5 0 3 -4 0 1 1 1
0 -1 -1 -1 -6 -2 -2 -2 -2
-2 0 0 -2 -5 -2 -3 -4 -5
1 0 2 1 -4 1 1 1 2
1 1 1 0 -3 -1 0 -2 -1
-6 -6 -7 -9 -35 -9 -7 -11 -7
0 1 0 1 -3 0 0 -1 -1
4 4 5 2 6 4 3 2 4
-1 -1 -1 -1 -4 -1 -2 -1 -2
1 1 1 1 2 0 -1 -1 -1
1 0 0 -1 -3 -1 -2 -3 -2
0 -1 -1 -1 -2 -1 -1 -2 -2
0 0 0 -1 -11 0 0 -2 -1
1 -9 0 -1 -41 -9 -4 -11 -4
1 0 1 0 -8 1 2 1 2
0 -1 1 0 -4 1 2 2 3
-3 -1 -1 -5 -9 -4 -6 -5 -5
-1 -2 -2 -2 -9 -2 -1 -2 -2
1 1 1 1 -5 1 1 1 1
-2 -2 -2 -3 -4 -2 -3 -2 -2
2 2 2 1 2 0 0 -1 -1
2 3 2 0 -1 2 1 -1 0
1 1 2 1 -2 2 1 2 3
-2 -2 -1 -2 -5 -2 -1 -1 -1
-2 0 -2 -2 -4 -2 -3 -3 -3
1 0 0 0 -3 0 0 -1 0
2 2 2 2 1 3 3 4 4
1 0 1 1 -5 2 2 2 2
2 1 1 1 0 2 3 3 4
0 1 1 0 -7 1 0 1 1
1 -1 3 2 -4 2 2 2 3
0 0 0 0 0 1 2 2 2
-1 -1 -1 -2 -7 -2 -3 -3 -3
0 1 2 1 -6 2 2 2 3
-2 -2 -2 -1 -3 -2 0 0 0
0 -1 -1 -1 -5 -1 -1 -1 -1
2 1 0 0 0 0 0 0 0
0 0 -1 -2 1 -3 -2 -3 -3
0 2 2 1 7 3 3 3 4
-5 -4 -4 -7 -24 -5 -7 -4 -4
1 0 0 0 4 -1 1 0 0
0 -1 -1 -2 -5 -2 -1 -2 -2
1 1 0 0 5 0 0 0 0
0 0 -1 -1 -2 -2 0 -2 -2
0 -2 -2 -2 -5 -2 -1 -1 -1
0 0 0 0 -2 1 1 1 2
0 1 2 1 -5 2 1 2 3
-1 -1 -1 -1 -9 -2 -2 -2 -2
3 6 1 4 13 3 1 4 1
0 0 -1 0 4 -1 -1 -1 -2
-6 -8 -5 -8 -62 -8 0 0 0
-1 0 0 1 0 1 1 2 3
-3 -2 -2 -3 -9 -1 -2 0 0
-5 -8 0 -8 -60 -2 2 -1 5
-1 -2 -1 0 -23 -2 2 -2 0
0 -1 0 -2 -12 -1 -1 -2 -1
0 0 0 0 0 -1 -1 -1 -2
-1 0 0 -1 4 2 -1 1 2
-2 0 0 0 21 4 0 4 4
0 0 0 -1 -1 -2 -1 -2 -2
-1 1 0 1 20 4 1 4 5
-3 -6 -1 -7 -25 -5 -2 0 2
0 2 1 2 11 3 2 3 3
3 2 2 1 -11 -1 2 -1 -1
-3 -8 -2 -7 -50 -3 -1 0 4
1 0 0 -1 3 -1 0 -1 -1
0 1 1 1 8 3 1 3 3
1 -1 0 -1 0 -2 -1 -2 -1
0 1 1 -2 3 1 -2 -1 0
-2 -1 -2 0 -10 -3 1 0 -1
0 1 1 1 1 2 1 2 3
1 1 2 0 2 -1 1 -1 0
0 -1 -1 0 -1 -1 0 0 1
-2 -1 0 0 -4 1 1 1 3
1 1 1 2 7 2 1 2 1
1 1 1 2 4 1 1 2 2
1 1 1 2 -5 1 2 1 1
0 1 0 1 11 2 1 3 3
-1 0 -2 -1 -5 -2 0 0 0
1 1 1 1 -8 -1 1 -1 -1
-2 -2 0 -3 -2 3 -3 1 3
0 0 0 1 -2 1 1 2 2
2 -1 1 -1 -31 -4 0 -3 -3
0 0 0 -1 2 -1 -1 -1 -2
0 -1 0 -1 -1 -1 -1 -2 -1
0 -2 0 -2 -24 -3 0 -2 1
3 1 2 1 -5 -1 1 -1 -1
0 -1 1 -3 -6 1 -2 0 2
0 0 0 -1 2 -2 -1 -1 -2
1 0 0 -1 3 -2 -1 -2 -2
1 0 0 0 5 -1 0 -1 -1
0 -1 -1 -2 -2 -2 -2 -2 -3
0 0 1 -1 -2 -1 0 -1 -1
0 -1 0 0 -9 0 0 0 1
0 1 0 2 8 3 2 4 4
0 0 -1 -1 -1 -2 -1 -2 -2
-2 -2 -2 -2 1 -1 -1 0 0
0 0 0 0 1 1 0 1 0
-1 0 0 -1 -3 0 0 1 0
-1 -1 -1 -1 -5 -1 -1 -1 -1
-2 -3 -3 -3 -13 -3 -3 -3 -3
-1 0 0 0 10 3 0 4 4
-1 -1 0 -1 -7 1 -1 0 2
-3 -3 -3 -3 -12 -3 -4 -4 -4
-1 0 0 0 0 0 0 0 0
-2 -2 -2 -2 -10 -2 -2 -2 -2
-1 -1 -1 -1 1 -1 -1 -1 -1
1 2 1 2 11 2 1 3 2
-1 -1 -1 -1 0 -1 -1 -1 -1
-2 -3 1 -2 -11 -1 -1 -2 0
-1 -1 -1 0 -2 -1 -1 -1 -1
-1 -1 0 0 6 1 -1 1 1
-1 -1 0 -2 -3 0 -2 -2 -2
1 1 1 1 12 3 2 3 3
0 -1 -1 0 -2 -1 0 0 -1
1 2 2 2 12 3 2 3 3
-3 -3 -3 -3 -11 -3 -3 -4 -4
-1 -1 -1 -1 1 -1 -1 -1 0
-1 -1 -1 -1 -4 -1 -1 -1 -1
0 1 1 1 9 2 1 2 2
0 2 2 0 6 2 1 2 3
-1 -1 -1 -1 -8 -1 -1 -1 -1
-1 -1 -2 -1 -4 -1 -1 -1 -1
-2 -2 -2 -1 -9 -1 -1 -1 -1
-1 -2 -1 -1 -7 -1 -1 -1 -1
-1 -1 -1 0 -2 -1 -1 -1 0
-2 -1 -1 -1 2 -1 -1 -1 -1
-1 -1 -1 0 3 0 0 0 0
-1 -1 -1 -1 0 -1 -1 -1 -1
-1 -1 -1 -1 -8 -1 -1 -1 -1
-2 -1 0 -1 3 2 1 3 4
1 2 1 2 12 3 2 3 3
-1 0 -1 0 -1 0 -1 0 -1
0 1 1 0 4 2 2 4 4
-2 -1 -1 -1 3 0 -2 0 0
-1 -1 -1 1 -4 1 1 1 1
1 1 1 1 10 2 1 2 2
1 2 2 2 13 3 2 3 3
0 1 1 1 6 2 0 1 1
1 2 1 2 12 3 1 3 3
0 0 0 1 10 2 0 2 2
-1 -1 -1 -1 -9 -1 -1 -1 -1
-1 -1 -1 -1 -6 -1 -1 -1 -1
1 2 1 1 11 3 1 3 3
-3 -2 -2 -1 -2 -1 0 0 0
1 1 0 0 5 0 0 0 0
-1 -1 -1 1 4 0 0 0 -1
1 0 0 1 -1 0 1 0 0
0 2 2 1 13 4 1 4 4
-4 -4 -4 -4 -15 -5 -2 -4 -4
-2 -2 -1 -3 -9 -4 -2 -3 -2
-2 2 3 1 25 7 3 7 8
0 0 0 0 0 0 0 -1 -1
1 1 1 1 11 2 1 1 2
0 -1 -1 -1 -9 -2 -1 -2 -2
-1 -1 0 -1 0 0 0 0 0
0 0 0 0 -3 -1 0 0 -1
-2 -4 -4 -3 -12 -5 -5 -4 -4
1 1 1 2 12 2 2 2 1
-3 -1 -1 -1 -3 1 -2 1 1
-1 2 1 0 1 4 -1 4 4
-1 -1 -1 -1 -2 0 -1 0 0
1 0 0 1 3 0 1 1 0
-3 -2 -2 -2 -6 -2 -2 -2 -1
-1 2 3 2 20 7 2 5 6
-3 -1 -1 -1 -3 0 0 1 1
1 1 0 1 4 1 1 1 1
-3 -2 -2 -2 -9 -1 -2 -1 -1
-2 -3 -3 -3 -19 -4 -3 -5 -4
0 -2 -2 -1 -14 -2 -1 -2 -2
1 2 1 2 15 3 2 3 3
1 1 1 2 14 2 1 2 2
1 1 0 1 9 1 1 1 1
1 1 0 1 4 0 1 1 0
-1 1 0 1 -1 1 0 1 1
-1 -1 0 -1 4 1 0 1 1
0 0 0 1 0 0 0 0 0
0 0 0 1 3 0 1 0 0
-3 -3 -4 -3 -17 -4 -3 -4 -5
-1 -1 -1 -1 -2 -1 -1 0 -1
-1 0 0 0 7 2 0 1 2
-3 -5 -4 -4 -31 -7 -3 -6 -5
-3 0 0 -1 15 4 0 3 4
-1 2 1 -1 2 0 -1 2 1
-1 -1 -1 -1 1 0 0 0 0
-1 -1 -1 -1 0 -1 -1 -1 -1
-1 -1 0 0 4 1 0 1 1
-2 -1 -1 -1 0 0 -1 0 0
-3 -2 -2 -2 -9 -1 -1 -1 -1
0 -1 -1 0 -2 -1 0 -1 -1
-1 -1 -2 0 -4 -1 0 0 -1
-1 -1 -1 -1 -1 0 -1 0 0
1 0 -2 1 6 -1 -1 -1 -2
0 1 1 1 14 3 1 2 3
0 0 0 0 -2 1 1 2 2
-1 -1 -1 -1 -9 -1 -1 -1 -1
0 -1 -1 -1 -7 -1 -1 -1 -1
1 -1 1 2 5 1 1 2 2
0 0 0 0 -5 0 0 1 0
0 -1 -2 -2 -17 -3 -3 -3 -4
0 1 1 1 9 2 1 2 3
0 0 0 0 0 0 0 0 0
0 0 0 0 3 1 0 1 1
1 1 1 1 9 2 1 1 2
-1 -1 -1 -1 -11 -1 -1 -1 -1
1 1 -1 2 13 1 1 0 1
-1 -1 -1 -1 -8 -1 -1 -1 -2
0 -1 -2 -2 -8 -3 -1 -2 -2
0 1 0 0 2 3 -1 1 2
0 0 1 1 3 1 1 1 2
-1 -1 -1 -1 -11 -1 -1 -1 -1
2 3 3 3 23 4 3 4 5
0 0 0 0 1 -1 -1 -1 -1
1 0 -2 0 4 -3 0 1 -1
-1 -1 -1 -1 -10 -1 -1 -1 -1
1 0 0 0 0 0 0 0 1
0 1 2 1 10 3 2 3 4
0 -1 0 0 -7 0 -1 -1 0
-1 -1 -1 0 -5 -1 -1 -1 -1
-1 -1 -1 -1 -7 -1 -1 -1 -1
-1 -1 -1 -1 -7 -1 -1 -1 -1
-1 -1 -1 -1 -8 -1 -1 -1 -1
0 0 -1 -1 13 0 -1 0 0
0 -1 -2 -1 -8 -2 -1 -1 -2
0 1 0 0 0 1 1 1 1
-1 -1 -1 -1 -12 -1 -1 -1 -1
1 1 0 1 4 1 2 1 2
1 1 1 1 11 2 1 1 2
1 1 1 1 7 1 0 1 2
1 1 2 2 6 3 3 4 4
1 -1 -1 -1 -10 -2 -1 -2 -2
-2 0 2 -1 -1 2 -1 0 2
1 1 2 1 14 2 2 2 2
1 1 2 2 14 3 2 2 3
2 3 3 2 24 4 2 3 4
1 2 3 2 20 3 2 2 4
0 0 0 0 -2 0 0 0 0
0 -1 -1 -1 -11 -1 -1 -1 -1
-1 -1 -2 -2 -16 -2 -2 -2 -2
1 1 1 1 10 2 1 1 3
-1 0 1 1 11 1 0 1 1
0 0 0 0 15 0 0 0 0
-1 -1 0 0 -1 1 -1 -1 -1
1 1 1 1 12 2 1 2 2
0 -1 -1 -1 -32 -3 -1 -3 -2
-1 -1 -3 -1 5 -2 -2 -1 -3
-1 0 0 0 7 2 0 4 1
0 -2 -1 -1 -53 -3 -2 -5 -4
-1 0 0 -1 4 0 -1 0 -1
-1 -1 -1 -1 -18 -2 -1 -2 -2
-1 0 0 -1 4 0 -1 0 -1
-1 -1 -1 -1 1 -1 -1 -1 -2
1 0 1 0 -13 0 1 0 1
-1 -1 -1 -1 -3 -2 -2 -1 -3
1 1 1 1 -7 1 1 1 1
-2 -2 -2 -2 -15 -2 -1 -1 -1
1 -1 -1 1 -13 -2 0 -2 -2
-1 -1 -1 -1 3 0 0 0 0
0 1 0 1 6 1 1 1 2
-1 0 0 -1 14 0 -1 0 0
-1 -2 -2 -2 -49 -5 -2 -5 -4
-1 0 1 0 -1 0 -1 -1 -1
0 0 0 1 -1 1 1 1 1
-2 -2 -2 -1 0 -1 -1 0 -1
-1 2 2 1 36 4 1 4 4
-1 0 0 0 6 1 0 1 1
1 0 1 1 -16 0 1 0 1
1 1 1 1 1 1 1 1 1
0 1 0 1 3 1 1 1 1
0 0 0 0 -3 1 0 1 1
1 0 1 0 -19 -1 0 -1 0
-1 -1 -1 -1 -14 -1 0 -1 0
-1 -1 -1 -1 -12 -2 -1 -2 -2
0 0 0 1 4 1 1 2 2
-1 2 1 1 45 5 2 6 6
-1 -1 -1 0 5 0 0 0 0
-1 -2 -2 -1 -7 -2 -1 -2 -2
-1 3 3 3 51 8 3 9 7
-2 -2 -3 -2 -39 -3 -2 -4 -3
0 0 -1 -1 1 -1 0 -1 -1
-1 -1 -2 -1 -3 -2 -1 -2 -2
-1 -1 -1 -1 3 -1 -1 -1 -1
-1 -1 -2 -1 -1 -2 -2 -2 -3
-1 -1 -1 -1 7 -1 -1 -1 -2
-1 -1 -1 -1 1 -1 -1 -1 -1
0 1 1 1 10 2 1 2 2
0 1 1 1 3 2 1 2 2
-1 -1 -1 -1 4 -1 -1 -1 -1
0 1 1 1 6 2 -1 0 0
-1 -1 -1 -1 -4 -1 -1 -1 -1
-2 -3 -3 1 14 1 0 1 0
1 1 1 1 5 1 0 1 1
0 0 0 0 2 1 0 1 1
-1 0 -1 -2 -3 1 0 1 0
0 0 -1 0 2 -2 1 1 0
2 1 2 2 15 3 3 4 4
-1 0 -1 -1 -4 -1 -1 -1 -1
0 0 0 0 3 0 0 0 0
-1 -1 -1 -1 -10 -1 -1 -1 -1
-1 -1 -2 -1 -15 -2 -1 -2 -2
0 0 0 0 2 0 0 0 0
-1 -1 -2 -1 -9 0 0 -1 1
2 2 1 2 22 3 1 3 3
-1 0 0 0 13 2 1 2 3
-3 0 -1 -2 16 1 -2 1 2
-1 -1 -1 -1 -3 -1 -1 -1 -1
1 1 1 1 10 1 1 1 1
0 0 0 0 4 0 0 0 0
1 1 1 0 -4 2 0 1 1
1 0 -2 1 6 -1 2 2 -1
1 2 1 2 18 2 1 2 2
-2 -1 -1 -1 -2 0 -1 0 0
0 -1 0 0 -2 -1 0 -1 -1
1 1 1 0 6 1 0 1 1
2 2 2 2 21 3 1 3 3
1 2 2 2 25 4 1 3 4
1 2 2 2 22 3 1 3 4
1 1 1 1 11 1 1 1 1
0 1 1 1 6 2 0 2 1
0 1 1 0 11 2 0 1 2
0 0 0 -1 -1 -1 -1 -1 -1
1 1 1 2 18 2 1 2 3
-1 0 0 1 11 1 1 1 2
-1 -1 -1 -1 -5 -1 -1 -1 -1
-1 -1 -1 -1 -11 -1 -1 -1 -2
-1 0 0 0 -2 -1 0 0 0
0 1 2 1 15 3 1 2 3
-1 1 0 -3 14 2 -2 0 1
-1 -1 -2 -1 -11 -2 -1 -1 -2
-1 -1 -2 -1 -7 -2 -2 -1 -2
0 -1 -1 0 -8 -1 -1 -1 -1
-1 -1 -2 -2 -14 -2 -2 -2 -2
-2 -1 -1 -1 -7 -1 -1 -1 -1
1 1 1 2 15 2 1 2 2
1 1 1 1 16 2 1 2 2
-1 -1 -1 -1 -7 -1 -1 -1 -2
-4 -4 -3 -3 -6 -1 -3 -3 1
-2 -2 -2 -2 -9 -2 -2 -2 -1
-2 1 1 -1 0 2 -2 -2 -1
-1 -1 -1 -1 -3 0 -1 0 -1
0 0 0 0 4 0 0 1 0
-4 -3 -2 -2 -6 0 -3 -3 -1
-3 -2 -1 -3 -6 -2 -2 -2 -1
-1 1 1 0 2 1 0 2 2
0 -1 -1 -1 -7 0 -1 -1 0
0 0 -1 0 -2 -1 0 0 -1
0 -2 -2 -2 -10 -3 -1 -3 -3
0 1 2 1 17 4 1 3 4
-1 -1 -1 -1 -4 -1 0 -1 -1
0 -3 -2 0 -7 -3 1 -1 0
-1 -1 -1 -1 -7 -1 -1 -1 -1
-2 0 0 0 7 3 -1 2 2
5 5 1 4 7 1 1 1 -3
-1 1 1 1 11 3 0 2 3
-1 -1 -1 -1 -6 -1 -1 -1 -1
-1 0 0 -1 1 1 -1 0 1
0 0 0 1 7 1 2 2 2
-4 -2 1 -6 -8 0 -4 -2 1
-1 -1 -1 -1 -7 -1 -1 -1 -1
0 1 1 1 12 3 0 2 3
-2 -3 -3 -3 -19 -4 -3 -4 -4
-1 -1 -1 -1 -2 0 -1 -1 -1
-1 -2 -2 -1 -13 -2 -1 -1 -2
-2 -2 -2 -2 -12 -2 -1 -2 -2
-2 -1 -1 -1 -9 -1 -2 -2 -2
-1 -1 -1 -1 -5 -1 -1 0 -1
-1 -2 0 -2 -12 -1 -1 -1 0
-2 -1 -1 -1 -1 1 -1 0 0
1 0 -2 0 5 -2 0 0 -1
-1 -1 -1 -1 -8 -2 -1 -1 -1
-3 -2 -3 -2 1 -1 -3 0 -2
-1 1 1 1 11 3 1 2 3
0 1 2 1 17 3 1 3 4
-2 -3 -3 -2 -5 -3 -2 -2 -3
-1 1 0 0 11 3 0 2 3
1 -3 -2 4 7 1 4 5 3
0 2 2 1 18 4 1 3 4
-1 0 1 0 8 3 0 2 3
-1 1 1 0 6 2 -1 1 2
-1 1 2 1 13 4 0 3 4
0 2 3 1 19 4 1 4 5
0 0 0 0 -2 0 0 0 -1
0 0 0 0 -5 -1 0 0 0
0 2 2 1 16 4 0 3 4
3 6 0 4 17 -1 -8 1 -6
2 2 3 1 7 2 1 1 1
0 -5 -4 5 6 -6 2 1 -3
-1 1 -1 1 14 3 -1 2 3
-1 -5 -6 -4 -28 -10 -5 -7 -9
8 4 -5 10 6 -22 5 -8 -22
3 1 -6 2 4 -13 1 3 -9
1 -4 -3 -5 -33 -11 -2 -6 -8
0 1 1 0 4 1 0 1 0
-2 -2 -3 -1 -7 -2 -2 -2 -3
0 0 -3 -2 -8 -5 -4 -4 -8
0 0 0 0 -2 -1 -1 -2 -2
-2 -2 -4 1 -4 -2 -2 -2 -3
8 7 -6 4 13 -7 -1 0 -15
-2 1 0 2 19 5 -1 4 4
1 1 1 -2 -18 -2 -2 -2 -1
13 3 2 10 -12 -6 2 -1 1
0 0 -1 0 -4 -2 0 -1 -1
0 2 0 2 17 4 -2 2 4
4 2 2 0 -5 -2 1 -1 -2
3 -1 -1 -2 -19 -6 -3 -7 -7
3 1 -5 3 2 -13 0 3 -8
-1 2 1 2 18 5 0 3 5
1 0 -1 0 -11 -2 0 -2 -2
0 -3 -5 -2 -14 -9 -2 -4 -8
2 -1 -2 1 -6 -4 -3 -6 -6
0 2 1 0 9 4 -2 1 3
-2 1 1 0 13 5 -2 2 4
-1 1 1 2 13 4 0 3 4
0 1 -2 1 14 2 -1 2 2
0 2 -4 -1 4 -7 -3 -2 -8
0 0 1 -2 -7 -1 -1 -1 0
2 0 0 0 -13 -1 -1 -5 -3
0 2 0 2 20 5 0 5 5
-2 -3 -2 -5 -26 -6 -5 -6 -6
0 0 0 0 2 0 0 -1 -1
1 0 -1 -1 -4 -2 -1 -2 -2
1 -5 -4 -4 -50 -14 -6 -14 -15
1 0 2 -3 -16 -1 -1 -3 0
11 7 -1 5 -1 -8 6 -7 -9
2 1 0 1 -3 -1 0 -1 -2
-1 0 0 0 4 0 -1 0 -1
3 1 2 1 -1 0 1 -1 0
0 -1 -1 0 -4 -2 -1 -1 -2
2 0 0 1 -10 -3 1 -2 -3
1 2 1 2 17 4 -1 3 3
1 4 2 3 26 6 -1 4 4
0 0 0 1 4 -1 0 -1 -1
