0 1 1 0 1 1 -1 0 1
0 0 0 0 1 0 0 0 0
-2 -3 -2 0 -2 -1 0 0 -1
0 0 1 0 3 1 0 0 1
0 -1 -1 -1 -8 -2 0 -1 -1
-2 -2 0 -2 -8 -2 -2 -2 -1
0 -1 -1 0 -2 -2 0 0 0
-1 -1 -1 -1 -2 0 0 1 1
0 0 0 0 0 0 0 0 0
0 0 0 0 -4 0 0 -1 -1
1 0 0 0 -8 -2 0 -2 -1
-1 -1 -1 -1 -5 -1 -1 -1 -1
1 0 0 0 -5 0 0 -1 0
-2 -2 0 -3 -3 1 -2 0 1
0 1 0 1 6 2 0 1 2
-2 0 0 0 8 2 0 2 2
-2 -3 -1 -3 -5 0 0 0 1
-1 -1 0 -1 -4 -1 -1 -1 -1
0 0 0 0 3 1 0 0 1
0 0 0 0 -2 -1 0 -1 -1
0 -1 -1 -1 -8 -2 -1 -2 -2
0 -1 -1 0 -2 -1 1 1 0
0 0 0 0 4 1 0 1 1
-2 -1 -1 -1 -5 -1 -1 -1 -1
1 -1 0 0 -8 -2 0 -2 -1
0 0 0 0 -5 0 0 -1 0
-1 0 0 0 5 1 0 1 1
-1 0 1 0 8 2 0 2 2
-1 0 0 0 8 2 0 2 2
0 1 0 1 2 1 0 0 1
-1 0 -1 -1 -1 0 -1 0 0
-1 0 0 0 7 2 0 2 2
1 0 1 -1 -6 -1 0 -1 0
0 0 0 0 5 2 0 1 2
-1 0 0 0 6 1 0 1 1
-1 -1 -1 -1 -4 -1 -1 -1 -1
-1 0 0 -1 -3 -1 0 -1 -1
-1 -2 0 -2 -16 -2 -1 -3 -2
-2 0 0 0 8 2 0 2 2
-2 0 1 -4 -8 0 -4 -1 0
0 -1 -1 0 -3 -1 0 -1 -1
-1 -1 -1 -1 -2 -1 -1 0 -1
0 0 0 0 -1 0 0 0 0
-1 -1 -1 -1 -3 -1 0 -1 -1
-2 -1 -1 -1 -5 -1 -1 -1 -1
0 0 0 1 4 1 0 1 1
0 1 1 1 4 1 0 1 1
-1 -1 -1 -1 -3 -1 -1 -1 -1
-16 -12 -1 -14 6 14 1 13 7
-1 -1 -2 0 15 1 -3 -3 -3
6 14 5 2 21 5 -14 -29 -8
1 0 2 2 -22 1 5 3 3
-1 4 -2 -2 5 4 -7 -4 -3
-11 -5 -12 -6 -5 -7 -10 -3 -5
-7 5 3 -16 -7 8 0 3 7
0 5 1 0 18 9 -5 -2 -3
0 0 0 1 12 1 -1 0 -1
1 0 0 1 1 2 -1 0 0
-2 -3 -1 2 0 4 0 1 2
-1 0 -1 0 7 0 -5 -3 -3
-3 -2 1 -1 -2 3 2 3 4
-2 -3 -2 -6 -17 6 -8 4 1
-4 -2 0 -1 -10 1 3 4 2
-4 -2 -3 -2 7 -1 -1 1 -2
12 18 -6 17 3 -22 -4 -31 -16
-1 0 0 0 16 1 -2 0 -1
-2 -2 0 1 -18 0 5 5 3
-4 -4 -4 -3 12 -1 -6 -3 -3
-4 1 -2 0 12 7 -3 1 0
-13 1 0 -37 10 13 -19 -4 -4
-1 -1 0 0 -14 -1 4 3 2
-2 0 0 0 12 1 -1 1 0
-1 0 4 0 -2 4 3 -3 2
-1 1 5 3 -11 6 8 7 7
-2 -1 -1 3 -1 1 4 5 2
0 0 0 2 -6 1 4 5 3
0 0 1 1 -2 2 6 6 3
-2 -1 0 0 -8 2 3 3 2
-2 2 -1 -4 1 7 0 3 -2
-2 -1 -2 0 6 -2 1 2 0
2 -2 -3 7 -4 -5 0 -1 -1
-1 0 1 0 -18 1 5 3 3
-1 -1 0 2 -4 -1 7 7 6
-1 0 0 0 11 0 -3 -1 -3
1 2 2 2 7 4 -3 -1 -1
-2 -2 3 8 -35 2 7 7 10
-6 -2 -4 -1 8 -2 -3 1 -4
-5 -7 -2 22 0 -17 8 11 -2
-3 -2 -1 -2 7 0 -6 -3 -3
-2 -1 -2 -2 12 0 -6 -4 -4
-2 -3 -2 -1 3 0 -6 -4 -3
-1 0 1 -1 9 1 -5 -2 -2
-1 1 1 0 13 1 -2 1 0
-1 0 1 2 -12 1 6 6 5
-3 -3 0 0 -14 2 7 6 5
-1 1 0 0 9 0 -3 -2 -3
1 2 0 1 2 -2 -4 -4 -5
0 0 0 0 0 0 0 0 0
-2 -4 -2 0 1 -1 2 3 2
-1 1 0 0 12 2 0 1 1
-1 -1 -1 -1 -7 -1 -1 -1 -1
0 -3 -1 -2 -15 -3 -2 -3 -2
1 -1 -3 2 -1 -4 1 2 -2
0 -2 -1 -1 -19 -2 0 -1 -2
-1 -1 -1 -1 -2 -1 -1 -1 -1
0 0 0 0 1 0 0 0 0
1 1 0 0 5 0 0 0 0
0 0 0 0 0 0 0 0 0
0 1 0 1 6 1 0 0 0
-1 2 -1 1 7 1 -2 0 -2
0 0 -1 1 10 1 -1 1 0
1 1 1 2 6 1 1 2 2
-2 -1 0 -3 2 2 -1 3 4
0 0 0 0 -1 0 0 0 0
0 1 0 1 13 2 -1 1 1
1 0 1 0 -4 0 0 0 0
0 0 -1 -1 -11 -2 -1 -2 -2
1 -1 -3 2 4 -5 1 2 -2
-1 1 0 0 10 2 -1 1 1
0 0 0 1 2 0 1 0 0
1 0 0 1 1 -1 1 1 1
-1 -1 -1 0 -1 0 -1 -1 -1
-1 0 -1 0 2 1 -1 -1 0
-1 0 0 1 11 2 -1 1 1
0 1 0 1 11 1 0 1 1
0 1 0 1 9 1 0 1 0
-1 0 -1 0 -1 -1 -1 -1 -2
0 0 0 1 2 1 0 0 1
0 0 1 -1 0 1 0 0 0
0 1 0 1 16 2 0 2 2
0 2 1 2 11 2 1 2 2
0 0 0 0 0 0 0 0 0
-1 -1 -1 -1 -4 -1 -1 -1 -1
0 0 1 0 -7 1 0 0 1
0 -1 -1 -1 -8 -1 0 -1 0
-2 1 2 -7 -3 2 -5 -3 0
0 -1 0 0 -5 -1 0 -1 -1
-1 -1 -1 -1 -3 -1 -1 -1 -1
0 -1 -1 -1 -4 -1 0 -1 -1
-1 -1 -1 -1 -3 -1 -1 -1 -1
1 1 1 1 4 1 1 1 1
0 1 1 1 12 2 0 1 2
1 2 1 1 17 2 0 2 1
0 0 0 0 2 0 0 0 0
0 0 0 0 3 0 0 0 0
0 0 0 0 3 0 0 0 0
0 0 0 0 3 0 0 0 0
0 0 0 0 3 1 0 1 1
0 1 0 0 5 1 0 1 1
0 0 0 0 2 0 0 0 0
0 0 0 0 -3 0 0 0 0
0 0 0 0 0 0 0 0 0
0 0 0 0 2 0 0 0 0
0 0 0 0 10 1 0 1 1
0 1 1 1 22 3 1 2 2
0 0 0 0 -2 -1 0 0 -1
0 1 1 1 13 2 1 1 1
0 -1 0 -1 -2 -1 0 -1 -1
0 0 0 0 4 1 0 1 0
0 -1 -1 -1 -14 -2 -1 -1 -1
0 0 0 0 -2 0 0 0 0
0 0 0 0 0 0 0 0 0
0 0 0 0 5 1 0 1 1
0 0 0 0 1 0 0 0 0
0 0 0 0 6 1 0 0 1
0 0 0 0 1 0 -1 0 -1
0 0 0 0 4 1 0 1 1
0 0 0 0 -4 0 0 -1 -1
0 0 0 0 11 1 0 1 1
0 0 0 0 4 1 0 1 1
0 0 0 0 0 0 0 0 0
0 0 0 0 0 0 0 0 0
0 0 0 0 -3 0 0 0 0
0 1 0 0 7 1 0 1 1
0 0 0 0 0 0 0 0 0
0 0 0 0 -8 -1 0 -1 -1
0 1 1 0 8 1 0 1 1
0 0 0 0 2 0 0 0 1
0 0 0 -1 -14 -1 0 -1 -1
0 0 0 0 0 0 0 0 0
0 0 0 0 0 0 0 0 0
0 0 0 0 -7 0 0 0 0
0 -1 -1 0 -8 -1 0 -1 -1
0 1 0 0 4 0 0 0 0
0 0 0 0 -1 0 0 0 0
0 0 0 0 -1 0 0 0 0
0 0 0 0 2 0 0 0 0
0 0 0 0 -1 0 0 0 0
0 0 -1 0 -4 -1 -1 -1 -1
0 0 0 0 0 0 0 0 0
0 1 0 1 8 1 1 1 1
0 0 0 0 -2 0 0 0 0
-1 -7 -4 -6 -43 -4 0 1 5
0 0 0 1 -5 1 2 2 3
3 6 3 3 14 5 4 7 3
0 0 0 -1 0 -1 -1 -1 -1
1 2 1 1 -1 0 1 0 1
-4 -13 -7 -13 -52 -11 -2 -7 1
2 -1 2 -1 -12 1 0 0 3
2 1 1 -1 -5 -1 1 0 1
-1 -1 -1 0 -10 0 1 1 1
2 2 1 1 1 0 1 0 0
4 3 3 1 -1 0 0 -1 1
-1 -1 -1 0 -8 1 2 3 3
2 2 2 0 4 0 -1 -1 0
-5 -11 -6 -11 -65 -11 -3 -8 -1
1 1 1 0 5 0 0 -1 0
1 1 2 0 4 1 1 1 1
2 5 1 5 11 3 4 7 3
-1 -1 -1 0 -10 0 1 2 2
1 1 1 0 3 -1 0 -1 -1
0 0 0 0 -12 1 2 2 2
1 0 0 0 -8 -1 1 0 2
3 1 4 -1 -12 5 1 2 5
1 1 1 0 8 0 -1 -1 -1
0 -1 0 0 -7 0 1 1 2
3 2 3 0 -2 1 0 1 2
0 -1 -1 -2 -9 -2 -2 -2 -1
0 0 1 -1 1 -1 0 -1 -1
1 1 1 0 7 0 0 0 0
0 0 0 -1 -1 -1 -1 -1 -1
1 1 1 0 3 0 -1 -1 -1
-1 -1 0 -3 -17 -2 -1 -2 1
1 1 1 0 1 0 1 0 1
1 1 0 1 -9 -1 0 -1 -1
1 1 1 0 3 -1 -1 -2 -1
1 0 2 0 2 1 0 0 1
-1 -1 0 1 -6 1 2 2 3
0 0 -1 1 -1 1 2 3 3
2 0 1 0 -6 0 0 0 1
2 2 2 1 3 1 2 2 1
-4 -7 -5 -1 -24 -7 2 1 1
-1 -1 -1 1 -6 1 2 3 3
-1 -1 -1 1 -8 1 3 3 4
-1 -1 -1 1 -7 1 3 3 3
-1 -1 -1 1 -7 2 3 4 4
-1 -1 -1 0 -11 0 1 2 2
0 0 0 -1 -1 -1 -2 -2 -2
2 2 2 -1 4 -1 -2 -2 -2
-1 -1 -1 0 -8 1 2 3 3
-2 -1 -1 -1 -2 0 -1 -1 0
0 0 0 0 -3 0 0 0 0
-1 0 0 -1 -1 1 -1 0 0
0 0 0 0 -4 0 -1 0 0
0 -1 -1 0 -6 -1 0 -1 -1
-1 0 -1 0 -1 0 -1 0 0
-1 0 0 -1 -1 0 -1 0 0
0 0 0 0 -6 0 -1 0 0
0 0 0 0 -1 0 0 0 0
0 -1 -1 -1 -6 -1 0 -1 -1
-1 -1 -1 -1 -8 -2 -1 -2 -2
0 1 1 1 10 2 1 2 2
-1 0 0 0 -1 0 0 0 0
0 -1 0 0 -3 -1 0 -1 0
0 0 0 0 -1 0 0 0 0
0 1 1 1 12 2 0 2 2
0 0 0 0 2 -1 0 0 -1
0 1 1 1 13 2 1 2 2
0 0 0 0 -2 0 0 0 0
0 0 0 0 6 1 0 1 1
0 -1 -1 -1 -6 -1 0 -1 -1
-1 0 0 -1 -2 0 -1 0 1
0 0 0 0 -3 0 0 0 0
0 1 1 1 12 2 1 2 2
-1 0 -1 -1 -6 -1 -1 -1 -1
0 0 0 0 -3 0 0 0 0
-1 -1 -1 0 -5 -1 0 -1 -1
-1 -1 -1 0 -4 0 0 0 0
-1 0 0 0 -3 0 -1 0 0
0 0 0 0 -1 0 0 0 0
0 0 0 0 -3 0 0 0 0
0 0 0 0 5 1 0 1 1
-1 -1 -1 -1 -2 -1 -1 -1 -1
0 0 0 0 -4 0 0 0 0
-2 -1 0 -1 8 1 -1 1 0
0 1 1 1 11 1 1 2 1
0 0 0 0 3 0 0 0 0
-1 0 0 -1 2 0 0 0 0
0 1 0 1 9 1 0 1 1
-1 -1 -1 0 -1 0 1 1 0
0 1 1 1 10 1 0 1 1
0 1 1 1 10 1 1 2 2
0 0 0 0 2 0 0 0 0
0 1 1 1 10 1 1 1 1
0 1 1 1 14 2 1 2 2
0 0 0 0 -2 0 0 0 0
0 0 0 0 -2 0 0 0 0
0 1 1 1 11 2 1 2 2
0 0 -1 -1 -7 -2 -2 -1 -2
-1 -1 -1 0 -3 0 0 0 0
-1 -2 -1 1 1 0 1 1 1
0 1 0 1 1 1 0 0 0
-1 -1 -1 -1 -11 -1 -1 -1 -1
0 -3 0 -3 -21 -2 0 -3 0
0 -1 -1 -1 -11 -3 0 -1 -1
-1 -2 -2 -2 -20 -3 -2 -3 -3
-1 -1 -1 -1 -4 -1 -1 -1 -1
0 0 0 0 4 1 0 1 1
-1 1 0 1 8 3 0 2 2
-1 -1 -1 0 -1 -1 0 -1 -1
0 1 1 1 6 2 0 2 2
0 0 1 0 7 -1 1 1 0
0 1 1 1 3 1 0 1 1
1 0 0 0 -11 -2 0 -1 -1
1 0 1 1 1 2 0 2 1
0 0 0 0 0 0 0 0 0
0 1 1 1 2 1 0 1 1
-1 -1 -1 -1 -3 -1 0 0 0
0 -1 -1 -1 -9 -1 -1 -1 -1
0 0 -1 0 2 -2 0 0 -2
0 1 1 1 2 1 0 1 1
1 0 1 0 1 0 1 0 0
-1 -1 -1 -1 -3 -1 0 0 0
0 0 0 0 -8 0 0 -1 0
0 0 0 0 -5 0 0 0 0
0 0 0 0 -2 0 0 0 0
0 1 1 0 -3 0 0 0 0
0 1 1 1 6 1 0 1 1
-1 -1 -2 -2 -10 -3 -1 -1 -1
1 0 0 -1 -8 -1 0 -1 -1
-1 0 1 0 -2 2 0 1 1
0 1 0 1 0 1 0 0 0
-1 -2 -2 -2 -24 -4 -2 -4 -3
0 0 0 0 0 0 0 0 -1
0 -1 0 0 -2 -1 0 -1 -1
-2 -4 -2 -4 -35 -4 -2 -5 -3
1 -1 0 -1 -11 -2 0 -1 -2
-1 -1 1 -3 -8 -1 -1 -1 0
0 -1 0 0 0 0 0 0 0
-1 -1 -1 -1 -3 -1 -1 -1 -1
-1 -1 -1 0 1 0 0 0 0
-1 -1 -1 -1 -2 -1 -1 -1 -1
1 0 0 0 -1 -1 1 0 0
0 0 0 0 -2 0 0 0 0
1 1 1 1 6 2 0 1 1
-1 0 -1 0 -1 0 0 -1 -1
-1 0 0 0 0 0 0 0 0
0 0 0 0 -4 0 0 0 0
0 0 0 0 0 0 0 0 -1
0 0 0 0 1 0 0 0 0
-1 -1 -1 -1 -10 -2 -1 -2 -1
-1 -1 0 -1 -1 -1 0 0 0
0 0 0 0 -2 0 0 0 0
0 -1 0 0 -6 0 0 -1 0
0 0 0 0 -4 0 0 0 0
-1 -1 -1 -1 -10 -1 -1 -1 -1
0 -1 -1 -1 -10 -2 -1 -2 -2
0 0 0 0 0 1 0 1 1
0 0 0 0 0 -1 0 -1 0
0 0 0 0 0 0 0 0 0
0 0 0 0 2 0 0 0 0
0 1 2 1 18 3 1 3 3
0 0 0 0 2 0 0 0 0
0 1 1 1 6 1 1 1 2
0 0 0 0 0 0 0 0 0
0 0 0 0 -2 0 0 0 0
-1 -2 -2 -1 -17 -2 -1 -2 -2
0 0 0 0 0 0 0 0 0
0 0 0 0 1 0 0 0 0
0 1 1 1 8 2 1 2 2
0 0 0 0 -6 -1 0 -1 -1
0 0 0 0 -4 -1 0 -1 -1
-1 0 -1 0 0 0 0 0 0
0 0 0 0 2 0 0 0 0
-1 0 0 0 2 0 0 0 0
0 0 0 0 1 0 0 0 0
0 0 0 0 0 0 0 0 0
0 1 1 1 8 1 1 1 2
-1 -1 -1 -1 -4 -1 -1 -1 -1
0 0 0 0 0 0 0 0 0
0 1 2 1 19 3 2 3 3
0 0 0 1 3 1 1 1 1
0 0 0 0 -4 0 0 0 0
0 0 0 0 1 1 1 1 1
-1 0 0 0 6 1 0 1 1
0 0 0 0 0 0 0 1 0
0 0 0 0 2 1 0 1 1
0 0 0 0 1 1 0 1 1
0 0 0 0 -3 0 0 0 0
0 0 0 0 1 1 0 1 1
0 1 1 1 8 2 1 2 2
0 0 0 0 -1 0 0 0 0
0 0 0 0 2 0 0 0 0
0 0 0 0 2 1 0 1 1
12 7 1 7 -9 -18 -3 -14 -16
1 1 2 1 -1 2 1 1 1
3 -1 0 2 6 4 0 4 0
0 1 -1 1 5 -1 0 -1 -2
4 2 2 2 0 0 1 0 -2
4 3 -3 1 -18 -22 -4 -20 -29
7 3 -6 4 -7 -14 3 -3 -11
5 1 1 1 -6 0 1 0 -2
-1 0 -1 -1 -3 -1 -1 -2 -2
1 2 2 1 3 2 0 0 0
2 3 0 1 1 -2 -1 -3 -5
1 1 1 1 -2 0 -1 0 0
2 2 -1 1 2 -2 -1 -2 -5
10 7 -1 5 -9 -22 0 -22 -30
0 2 1 1 6 1 0 1 -1
1 0 0 0 0 0 0 2 1
2 3 7 -8 2 10 -1 13 10
1 1 1 1 -3 -1 0 0 0
1 2 1 2 6 0 0 -1 -2
3 2 2 2 0 0 1 0 1
6 3 3 2 0 0 0 0 -2
10 2 -7 10 -10 -14 6 -5 -12
-1 1 1 0 5 1 0 0 -1
3 1 0 2 0 0 1 1 0
4 3 1 3 3 -1 1 1 -1
5 3 -1 3 0 -4 -1 -4 -6
-1 0 0 -1 0 0 -1 0 -1
-1 1 1 0 4 1 0 1 0
0 1 1 1 3 0 1 1 1
1 2 0 1 5 0 0 0 -1
4 2 -3 3 2 -7 -1 -5 -10
1 0 0 0 -3 0 0 0 0
2 2 1 1 -2 1 1 -1 -1
0 1 0 1 6 0 0 0 -2
-1 0 1 0 0 0 1 1 1
0 1 1 0 -1 0 -1 0 0
2 1 1 1 -2 1 0 0 0
5 4 2 4 -5 -3 1 -2 -2
0 -1 0 -2 -3 1 -1 2 1
7 4 0 -3 -9 -6 -5 -3 -5
1 0 -1 0 -7 -1 -1 -1 -1
1 2 2 1 -2 1 0 0 1
0 0 0 -1 -4 0 -1 0 1
0 0 0 0 -4 0 -1 0 0
4 1 -1 2 -3 -2 0 -1 -1
-1 1 0 0 3 -1 -1 -1 -2
0 2 0 1 7 0 0 -1 -3
1 1 0 0 -3 0 -1 0 0
0 -1 -1 0 1 0 0 0 2
-1 0 -1 0 6 1 0 1 0
0 1 0 1 6 1 -1 -1 -2
0 0 0 0 -2 0 -1 0 0
1 0 1 1 -1 0 0 0 -1
1 0 -3 1 1 -3 0 0 -3
1 0 1 1 4 0 0 0 0
0 0 0 0 -6 -1 -1 -1 -1
0 0 0 0 5 0 0 1 0
0 1 1 1 5 1 0 1 1
-1 1 1 0 4 1 0 2 2
0 0 0 1 9 1 1 1 1
0 0 0 0 -2 0 0 0 0
1 2 0 1 1 -2 0 -1 -3
0 0 0 0 -2 0 -1 0 0
0 -1 -2 -1 -7 -2 -1 -2 -2
-1 0 -4 0 1 -4 -4 -2 -9
0 0 0 0 4 0 1 1 0
0 0 0 0 -2 0 -1 0 0
0 1 0 1 10 1 0 2 1
0 0 0 0 1 1 0 0 0
1 1 1 1 7 2 0 1 2
0 0 0 0 -4 0 -1 -1 -1
0 0 -1 0 -1 -1 0 -1 -1
-1 1 1 -1 5 1 -1 1 0
0 0 0 0 -2 -1 0 -1 -1
0 0 -1 -1 -3 -1 -1 -1 -1
-1 0 -1 -1 -4 -1 -1 -1 -1
0 -1 -1 -1 -3 -1 -1 -1 -1
0 0 0 0 -2 0 0 0 0
0 0 0 0 3 -1 -1 -1 -1
0 -1 -1 -1 -5 -1 -1 -1 -1
0 0 -1 0 0 -1 0 1 -1
-1 0 0 -1 -5 -1 -1 -1 -1
0 0 -1 0 -1 -1 -1 -1 -2
0 0 0 1 6 0 1 1 0
1 1 0 1 7 1 1 1 1
0 0 -1 0 0 -1 0 0 -1
-1 -1 -1 -1 -4 -1 -1 -1 -1
0 1 -6 -1 5 -5 0 1 -5
0 0 0 1 6 1 0 1 1
0 0 0 1 8 1 1 2 1
0 1 0 1 13 2 1 2 1
0 1 0 1 11 1 1 2 1
0 0 0 0 2 0 0 0 0
0 0 0 0 -4 -1 -1 -1 -1
0 0 0 -1 -5 -1 -1 -1 -1
1 1 0 1 7 1 1 1 1
0 0 -2 0 6 0 -1 -1 0
0 0 0 1 11 1 1 1 1
0 1 0 0 7 1 0 0 0
0 0 0 0 -2 0 0 0 0
0 0 0 0 2 0 0 0 0
1 0 0 1 -2 -1 1 0 0
0 0 0 0 6 0 0 0 0
0 0 0 0 -1 0 0 0 0
0 1 1 1 10 1 1 1 1
0 0 0 0 2 0 0 0 0
1 0 0 0 4 0 0 0 0
1 1 1 1 14 2 1 2 2
0 0 0 0 3 0 0 0 0
1 3 1 1 6 1 0 2 0
0 -1 -1 0 -3 0 0 0 0
0 0 0 0 5 0 0 0 0
2 1 -2 1 5 0 -1 1 -2
1 1 1 1 12 1 1 1 1
0 0 -1 0 -2 0 0 0 -1
1 1 1 1 10 1 1 1 1
1 1 1 1 6 1 1 1 1
0 1 0 -1 6 0 0 1 1
0 0 0 0 -2 0 0 0 0
0 1 1 1 9 1 1 1 1
0 0 0 0 2 0 0 0 0
0 0 0 0 0 0 0 0 0
0 0 0 -1 -4 -1 0 0 -1
0 -1 -1 0 -3 -1 0 0 0
0 0 0 0 1 0 0 0 0
0 0 -1 0 -3 0 0 0 -1
0 0 0 0 4 0 0 0 0
0 0 0 0 2 0 0 0 0
1 1 0 1 3 0 0 1 0
0 0 0 0 -4 0 0 0 0
0 0 0 1 8 0 0 1 0
1 1 1 1 12 1 1 1 1
1 1 1 1 10 1 1 2 2
1 0 0 1 4 0 0 1 -1
0 0 0 0 3 0 0 0 0
0 0 -2 0 5 -1 1 2 0
1 1 1 1 12 2 1 1 2
1 1 1 1 13 2 1 2 2
1 1 1 1 14 2 1 2 2
1 1 1 1 16 2 1 2 2
0 1 1 1 9 1 1 1 1
0 0 0 0 1 0 0 0 0
0 0 0 0 -2 0 0 0 0
1 1 1 1 14 2 1 2 2
-2 -2 -1 -1 2 1 -2 0 0
0 0 0 0 1 0 0 0 0
0 1 1 -1 1 1 -1 -1 0
-1 -1 -1 -1 -4 0 -1 -1 -1
0 0 1 0 2 1 1 1 1
-1 0 -1 -1 5 2 -1 1 0
-2 -1 -1 -2 -1 -1 -1 -1 -1
-1 0 0 0 3 1 0 2 1
1 1 1 0 2 1 0 0 1
0 0 0 0 3 1 0 1 1
-2 -1 -1 -1 -4 0 -1 -1 -1
0 1 1 1 6 1 0 1 1
-1 -1 -1 -1 -8 -1 -1 -1 -1
0 -3 -1 -1 -6 -1 0 -1 2
-1 -1 -1 -1 -9 -1 -1 -1 -1
-1 -1 -1 -1 -4 -1 -1 -1 -1
1 1 0 0 -3 0 -1 -1 -1
-1 0 0 0 -1 0 -1 0 0
-1 -1 -1 -1 -5 -1 -1 -1 -1
-1 0 0 -1 1 0 -1 0 0
-1 1 1 0 8 2 1 2 2
-3 0 1 -2 3 1 -1 1 1
-1 -1 -1 -1 -7 -1 -1 -1 -1
0 0 0 0 -1 0 0 0 -1
-2 -1 -2 -2 -6 -1 -2 -2 -2
0 0 -1 0 0 0 -1 0 0
-1 -1 -1 -1 -8 -1 -1 -1 -1
0 -1 -1 -1 -6 -1 -1 -1 -1
0 0 0 -1 -3 -1 -1 -1 -1
-1 -1 -1 -1 -6 -1 -1 -1 -1
-1 -1 0 -2 -8 -1 0 0 0
-1 -1 -1 -1 -3 0 -1 0 0
-1 0 -1 0 -1 0 0 0 0
-1 -1 0 -1 -6 -1 -1 -1 -1
-2 -2 -2 -2 -9 -3 -3 -3 -3
0 0 1 0 2 1 0 1 1
0 1 1 1 9 2 1 2 2
-2 -2 -2 -2 -6 -3 -3 -3 -2
-1 0 0 0 1 0 0 1 0
-1 -1 -1 0 1 1 0 1 0
0 1 1 0 5 1 0 1 1
0 1 0 0 2 1 0 1 1
0 1 1 0 7 2 0 2 2
0 1 1 0 3 1 0 1 1
0 0 0 0 3 1 0 1 1
0 0 0 0 -2 0 -1 0 0
-1 -1 -1 -1 -6 -1 -1 -1 -1
0 1 1 1 3 1 0 1 1
5 7 2 6 3 3 -1 0 2
1 0 0 0 4 -1 0 -1 -1
-1 -5 -1 -6 -54 -7 2 5 5
-1 0 0 0 -4 2 1 2 2
1 -1 0 0 -5 -2 1 0 0
0 -6 0 -5 -52 -1 -1 0 5
1 0 -2 3 -8 -1 1 0 2
2 0 0 1 -2 -3 2 1 0
0 0 0 0 1 -1 0 0 -1
2 1 0 1 4 0 0 0 0
2 1 0 0 -2 1 0 0 2
1 0 0 -1 4 -1 0 -1 -1
2 1 0 1 -3 1 1 1 2
-1 -9 -3 -7 -58 -5 -4 -5 2
1 1 0 2 0 2 2 2 2
0 -1 0 0 0 -1 1 0 0
1 -9 0 -8 -85 1 2 5 9
0 0 0 0 5 -1 0 0 -1
0 0 0 1 -4 2 1 2 2
3 1 2 1 16 0 1 0 0
4 1 1 1 5 -1 1 -1 -1
3 1 -2 3 -9 -5 1 2 1
0 0 0 1 -5 2 1 2 2
0 -1 0 0 5 0 0 0 0
1 1 0 0 -1 -1 1 1 1
-2 -2 0 -2 -7 1 0 1 3
1 1 1 2 2 2 1 1 1
0 0 0 2 3 2 1 2 2
0 0 0 2 5 2 2 2 2
0 0 0 1 -2 1 1 1 2
0 -1 -1 0 -12 -2 0 0 2
0 -1 0 0 1 0 0 0 0
1 -1 0 -2 -11 0 -1 0 1
0 0 0 1 -6 2 2 2 3
0 -1 0 1 8 1 2 1 0
1 0 0 0 1 -1 0 -1 -1
0 0 0 -1 1 -1 0 0 -1
-1 -2 1 -3 -2 1 1 1 3
2 0 1 2 3 -1 2 -1 -1
2 -3 0 -4 -34 3 -2 -3 4
1 0 -1 0 0 -2 0 -1 -2
1 0 0 -1 5 -1 0 0 -1
1 0 0 -1 6 -1 0 -1 -1
1 0 -1 -1 2 -2 -1 -1 -2
0 -1 0 0 4 0 0 0 0
1 1 1 2 3 2 2 2 2
1 1 0 2 -3 2 2 2 3
1 0 0 0 3 -1 0 0 -1
1 1 0 0 1 0 -1 0 0
-1 -1 0 0 1 0 -1 0 0
0 0 0 0 1 1 0 1 1
0 1 0 1 2 1 1 1 1
0 1 0 1 8 1 1 1 1
1 1 0 0 0 1 1 0 1
0 -1 -1 0 -6 -1 0 0 0
-1 1 0 1 11 1 1 1 1
0 0 0 1 6 1 0 1 1
0 0 0 0 2 0 0 0 0
0 0 0 0 0 0 0 0 0
0 1 1 1 11 1 1 1 1
1 1 1 1 9 2 1 2 1
0 -1 0 0 3 0 0 0 1
0 1 1 1 6 1 1 1 1
-1 -1 -1 -1 -1 -1 -1 -1 -1
1 0 -1 0 0 1 0 0 2
0 0 0 0 6 0 0 1 1
1 1 1 1 3 1 1 1 1
-1 0 0 0 3 0 0 0 0
0 1 1 0 13 2 1 2 1
-1 0 0 0 3 0 0 1 0
1 1 1 1 5 1 1 1 1
0 0 0 0 4 0 0 0 0
-1 -1 -1 -1 -10 -1 -1 -1 -1
1 1 1 1 6 1 1 1 1
0 1 0 1 5 1 1 1 0
0 0 0 0 1 0 0 0 0
0 0 0 0 -2 0 0 0 0
0 1 1 1 5 1 1 1 1
0 0 0 0 4 1 0 1 0
0 0 0 0 0 0 -1 0 -1
0 0 0 0 -2 0 0 0 0
1 1 1 1 4 1 1 1 1
-3 -3 -3 -2 -15 -3 -3 -3 -3
0 1 0 1 8 1 1 1 1
1 1 1 1 11 1 1 1 2
-2 -2 -2 -1 -12 -1 -2 -1 -1
-1 0 -1 0 5 0 -1 0 0
0 1 2 0 0 2 1 1 2
0 1 1 1 10 1 1 1 1
0 0 1 1 9 1 1 1 1
0 0 1 0 9 1 1 1 1
0 1 1 1 12 1 1 1 1
0 0 0 0 10 1 0 1 1
0 0 0 0 0 1 0 0 1
1 1 1 1 7 2 1 2 1
0 1 1 1 11 1 1 1 1
0 0 0 0 3 1 1 1 1
0 0 1 0 8 1 0 1 1
0 0 0 0 1 0 0 0 0
0 1 0 1 3 1 1 1 1
0 0 0 0 2 1 0 0 0
0 0 0 0 -4 0 0 0 1
0 0 0 0 2 1 0 1 1
0 -1 0 0 -9 -1 0 -1 -1
0 0 0 0 5 1 0 0 1
0 0 0 0 5 1 0 1 1
0 1 1 1 15 3 1 3 2
-1 -1 -1 -1 2 -1 -1 -1 -1
0 0 0 0 3 1 0 1 1
0 0 0 -1 0 0 -1 1 0
0 0 0 0 -3 0 0 0 0
0 -1 -1 -1 -11 -2 -1 -2 -1
1 1 -1 0 0 0 0 -1 -1
0 0 0 0 3 0 0 0 0
0 0 0 1 1 1 1 1 1
0 0 0 0 10 1 0 1 0
0 0 0 0 0 0 0 0 0
0 0 1 0 3 0 0 0 0
0 0 0 0 -1 0 0 0 1
0 0 0 0 2 0 0 0 0
1 2 2 1 20 3 1 3 3
0 0 0 1 6 1 1 1 1
0 0 0 0 -5 0 0 0 0
0 0 0 0 -2 0 1 0 0
0 0 0 0 -3 0 0 0 0
0 0 0 0 1 1 0 1 1
0 0 0 0 -5 0 0 0 1
0 -1 0 -1 -8 -1 0 -1 -1
0 1 1 0 5 1 0 1 1
0 0 0 0 0 1 1 1 1
1 1 1 1 8 1 1 2 1
0 0 0 0 3 0 0 0 0
0 0 0 0 3 0 0 0 0
0 1 1 1 5 1 1 2 1
-1 -2 -2 -1 -16 -2 -1 -2 -2
0 1 0 0 7 0 1 1 0
0 0 0 0 3 0 0 -1 0
0 0 0 0 5 0 0 0 0
0 0 0 0 8 0 0 0 0
0 0 0 0 5 0 0 0 0
-1 -1 -1 -1 -1 -1 -1 -1 -1
0 0 0 0 1 0 1 1 1
0 0 0 0 1 1 1 1 1
0 0 -1 0 2 0 0 0 -1
-3 -1 1 -1 -16 2 -2 8 0
1 -1 -3 1 15 -2 2 0 -1
3 4 -4 4 7 0 1 -1 1
0 2 5 -1 -9 5 -1 1 4
1 0 -1 -1 -2 -1 1 -1 0
-2 -11 -3 -6 -67 -13 -1 -13 -7
2 1 1 2 -20 5 0 1 2
1 0 -3 1 7 -2 1 0 -1
0 -1 -3 1 5 -3 2 0 -2
2 1 1 1 7 1 1 1 1
1 0 1 2 2 3 1 0 2
0 -2 -4 1 8 -3 2 0 -2
2 2 3 1 -1 3 1 1 2
-1 -6 -1 -6 -59 -2 1 -9 -3
1 3 4 0 -4 4 0 1 3
-1 -2 2 -1 4 2 2 2 2
9 -6 1 3 -62 -4 4 -10 8
0 -2 -3 0 10 -2 2 0 -1
0 2 5 -1 -7 5 -1 1 3
-2 -4 -5 -1 6 -4 0 -1 -2
1 -2 -2 1 0 -3 3 -2 -3
1 7 -4 3 21 6 1 5 0
0 2 3 -1 -15 3 -1 0 2
-1 -3 -1 -1 4 -1 1 0 0
0 0 0 0 7 2 -2 1 2
-2 0 4 -4 -11 4 -3 -1 3
0 2 2 0 -9 3 -1 0 0
0 2 4 -1 -7 4 -1 1 3
0 2 4 -1 -5 4 0 1 2
1 2 3 0 -2 4 0 1 2
-1 1 0 -3 -9 1 0 0 0
-1 -1 1 0 2 1 1 1 2
0 -4 2 0 -32 -1 1 -4 1
0 2 4 -2 -16 5 -1 0 3
-1 -1 3 -2 2 4 1 1 3
0 -2 -3 1 4 -3 2 0 -2
0 -2 -3 1 10 -2 2 0 -1
-2 -2 5 -4 -20 4 -1 -2 6
0 -2 -1 2 5 -1 3 1 0
5 -15 7 9 -117 -15 11 -11 -6
-1 -3 -5 1 6 -3 2 -1 -3
0 -3 -5 1 10 -4 2 0 -3
-1 -4 -6 0 5 -5 1 -2 -4
0 -3 -5 1 8 -4 2 0 -3
-2 -3 -2 -1 0 -1 1 -1 0
0 2 4 -1 -11 4 -1 1 3
1 2 5 -1 -17 6 -1 0 3
0 -3 -4 1 8 -3 2 0 -2
0 12 -2 12 17 -15 -21 -31 -15
4 5 4 3 -5 2 3 3 1
-8 -21 -4 6 19 3 7 29 4
-6 -3 -2 -4 27 2 -7 -3 0
2 -2 2 6 -1 0 4 4 -1
-5 2 3 -17 -36 -7 -15 -9 -14
1 4 -10 10 33 -18 -6 7 -12
3 -2 0 10 -25 1 11 8 3
1 4 5 0 -2 4 2 3 4
1 -1 -3 3 7 -2 0 -1 -3
-3 -2 -4 3 30 -2 -5 -3 -7
0 2 1 0 -13 1 2 3 1
0 -1 -4 2 39 -1 -5 -5 -6
-3 -17 6 -13 -120 -14 -15 -36 -17
-2 -2 -1 -3 26 -1 -7 -5 -3
-5 -4 -5 0 2 1 2 4 2
-14 -22 5 -34 1 12 -9 18 -1
1 2 1 1 -9 3 1 2 2
-5 -3 -1 -5 29 0 -9 -6 -3
2 6 3 2 -12 5 2 5 4
3 3 1 9 -14 1 6 3 0
3 5 -14 23 -11 -31 2 11 -11
-5 -3 -2 -5 27 1 -7 -6 -2
-1 1 -2 0 -10 2 1 2 1
-4 -1 -4 0 7 -1 -5 6 1
-1 1 2 0 23 3 -7 -4 0
-2 0 1 -2 15 1 -4 -5 -1
-3 -1 0 -3 30 0 -5 -4 -1
-3 -1 0 -2 27 1 -4 -1 1
-3 -2 -2 -3 25 -1 -7 -4 -2
-3 -2 5 1 -13 1 -3 -4 -2
-3 -1 -3 0 2 1 1 2 1
-6 -5 -1 -9 -5 1 -5 -6 -4
-7 -4 -2 -6 29 0 -9 -5 -1
-8 -1 -5 -7 21 4 -10 1 -1
0 1 1 -1 -13 2 1 2 2
-1 0 0 1 -15 0 3 2 1
-7 2 -4 -6 42 9 -12 2 1
-3 -2 -3 1 -1 3 7 6 4
-7 16 -8 -50 20 20 -27 -5 4
2 1 -1 2 -14 1 4 3 1
1 3 1 -1 -23 1 1 1 1
3 4 2 2 -16 1 3 3 1
1 1 0 0 -18 1 2 2 1
2 2 1 3 5 5 3 5 3
-6 -2 1 -6 26 3 -8 -4 0
-8 -3 -1 -7 37 0 -12 -8 -2
1 2 1 -1 -11 3 1 3 3
4 6 3 2 12 6 -2 6 5
2 2 0 0 12 -2 -2 -2 -4
4 5 2 -7 -25 -13 -9 -19 -21
-1 1 1 0 -13 1 1 3 3
3 2 1 1 -4 -3 -2 -4 -5
4 4 -5 3 -6 -15 -3 -9 -17
2 4 0 1 4 0 1 2 -1
4 3 4 0 -1 1 -3 -3 -2
4 3 1 2 10 -1 0 0 -2
2 2 1 1 5 0 -1 0 -1
2 3 0 1 2 -1 0 0 -2
2 3 1 0 15 -1 -2 -2 -3
3 3 2 2 -5 1 1 2 1
5 6 -4 4 2 -18 -2 -8 -23
0 3 2 0 -9 2 2 5 4
-2 -2 1 -2 3 1 0 3 3
1 4 -6 -7 -3 -24 -10 -17 -27
1 1 0 0 7 -2 -2 -2 -2
0 1 1 -1 -14 1 1 3 4
-1 0 0 -3 11 -2 -5 -3 -4
3 2 1 1 14 0 -2 -3 -5
6 7 6 0 -1 2 0 -1 -2
-1 1 0 -1 -16 0 1 2 3
1 0 0 -1 6 -1 -2 -1 -2
4 4 2 1 5 -1 -1 -3 -3
2 1 1 2 -8 0 3 1 2
0 1 1 0 -13 0 1 3 3
-1 0 0 -1 -15 0 1 3 4
-1 0 0 -1 -10 1 1 4 3
0 1 1 0 -10 1 1 2 2
1 1 -2 0 1 -2 1 0 -5
0 -1 0 -1 0 1 1 2 3
1 2 -1 0 5 -4 -1 0 -4
-1 0 0 -2 -21 0 0 2 3
-1 0 0 -1 0 0 2 5 4
3 2 1 0 9 -2 -2 -1 -3
2 1 1 0 13 -1 -2 -2 -3
1 1 -2 1 -4 -4 1 0 0
-2 0 1 -1 8 2 -2 2 2
4 8 -13 -2 5 -17 -6 -4 -19
1 1 0 -1 12 -2 -4 -3 -4
3 3 2 0 18 -2 -2 -1 -3
0 1 0 -3 11 -3 -5 -4 -6
2 2 1 -1 14 -2 -3 -3 -5
1 -1 -1 -2 6 -2 -3 -2 -3
-1 1 0 0 -15 1 1 3 4
-1 2 2 -1 -21 1 2 4 5
2 3 1 -1 12 -2 -2 -2 -3
0 0 1 0 -5 1 0 0 1
0 0 0 0 -2 0 0 -1 -1
0 -2 0 0 -9 -1 0 0 0
0 0 0 0 -2 0 0 0 1
0 0 0 0 -1 0 0 0 0
1 0 1 0 -4 0 0 0 -1
1 0 0 1 -4 -1 1 0 0
-1 0 0 0 8 0 0 2 1
0 0 0 0 -1 0 0 0 0
0 0 0 0 -3 0 0 0 0
1 0 1 0 -17 0 1 -1 0
-1 -1 -1 -1 -3 -1 -1 -1 -1
0 0 0 0 -13 0 0 0 0
1 0 0 0 1 0 0 -1 -1
0 0 0 1 7 1 1 1 1
-1 1 0 1 25 3 0 3 2
-1 -1 -1 -2 -3 0 -1 1 2
-1 0 0 -1 -1 0 -1 0 0
0 0 0 0 -1 0 0 0 1
1 0 0 1 3 0 1 0 0
0 0 0 0 0 0 0 0 0
1 -1 0 1 -4 -1 1 1 0
0 0 0 1 5 1 0 1 1
-1 0 -1 0 5 0 -1 0 0
1 0 2 1 -11 0 2 0 1
1 1 1 0 -2 1 1 0 1
0 1 0 1 15 2 1 1 1
0 1 0 1 18 2 1 2 2
0 1 0 1 19 2 0 2 1
0 0 0 0 0 0 0 0 0
0 1 0 1 9 1 0 1 0
-1 1 0 1 18 2 0 2 1
1 0 1 0 -6 0 0 0 0
0 0 0 1 3 1 1 1 1
-1 0 0 0 2 0 0 0 0
-1 0 -1 0 -1 0 0 0 -1
0 0 0 0 -2 -1 0 0 -1
1 0 1 0 -15 0 1 0 1
-1 1 0 1 26 2 0 2 1
-1 1 1 -3 1 2 -2 0 2
0 0 -1 0 0 -1 0 0 -1
0 0 -1 0 -1 -1 0 -1 -1
0 0 0 0 0 -1 0 0 -1
0 0 -1 0 0 -1 0 -1 -1
-1 0 0 0 4 0 0 0 0
0 0 0 1 4 1 0 1 1
0 0 0 1 0 1 1 0 1
0 0 -1 0 1 -1 0 0 -1
1 1 0 0 -2 0 -1 -1 0
0 0 0 0 -1 0 1 0 0
-4 -5 -4 0 2 0 1 2 1
0 0 0 0 8 2 0 1 1
0 -1 -1 -1 -4 -1 -1 0 0
-5 -3 -1 -6 -1 1 -3 -1 2
0 -1 0 1 -5 -1 1 1 1
0 -2 -1 -1 -10 -2 -1 -2 -2
0 0 0 0 -3 -1 0 -1 -1
0 0 -1 -1 -1 0 -1 0 0
-1 1 0 -1 1 1 -1 1 1
0 0 0 0 1 0 0 0 0
-1 0 0 0 4 1 -1 1 1
-3 -3 0 -3 -2 0 -2 0 2
0 0 0 0 6 1 -1 0 0
0 -2 -1 -1 -12 -3 -1 -3 -3
-6 -3 -2 -5 7 1 -5 3 0
0 0 0 0 -2 0 0 0 0
0 1 1 0 9 2 0 1 1
0 0 1 0 -4 0 1 0 0
1 0 1 0 -4 -1 0 0 0
1 -1 -1 2 0 -2 1 0 -1
0 1 0 0 7 1 -1 0 1
0 0 0 0 -4 -1 0 -1 -1
0 1 1 1 5 1 1 2 2
-1 0 0 -1 0 1 -1 0 1
0 0 -1 -1 -1 -1 -2 -1 -1
-1 0 0 0 2 0 -1 -1 0
0 0 0 0 1 0 0 -1 0
0 0 0 0 6 1 0 1 1
0 -1 -1 -1 -5 -2 -1 -1 -1
-1 -1 -1 -1 -9 -2 -1 -2 -2
-2 0 0 -3 -4 1 -3 0 0
0 1 0 0 10 1 0 1 1
-1 -1 -1 -1 -8 -1 -1 -1 -1
0 0 0 0 -1 0 0 0 -1
0 0 0 0 -1 0 0 0 0
-2 -1 1 -3 -11 0 -2 -1 1
-1 -2 -2 -2 -14 -4 -1 -3 -3
-5 1 0 -10 -2 -1 -7 0 0
0 0 0 0 -2 0 1 0 0
0 0 0 0 -2 0 0 0 0
0 0 0 0 -2 0 1 0 0
-1 -1 -1 0 -2 -1 0 0 -1
0 0 0 0 -3 0 1 0 0
0 0 1 0 6 1 0 0 1
0 1 1 1 11 2 0 1 1
0 0 0 0 0 0 0 0 0
-1 0 0 1 6 0 -2 -1 -1
0 0 -1 -1 -5 -1 -1 -1 -1
-2 -2 -1 -1 1 0 0 1 0
0 0 0 0 7 1 0 1 1
0 -1 0 -1 -7 -1 0 -1 -1
-2 -1 -2 -2 3 -2 -2 0 -2
0 0 -1 1 3 -1 1 2 0
0 -1 -1 -1 -14 -2 -1 -1 -2
0 0 -1 0 -4 0 -1 -1 -1
0 0 -1 -1 -7 -1 -1 -1 -1
0 0 0 -1 -5 -1 -1 -1 -2
-1 -1 -1 -1 -3 -1 -1 -1 -1
1 1 1 1 3 1 1 0 0
-2 0 -1 -1 -3 -1 -2 -1 -2
0 0 0 0 2 0 0 0 0
-1 0 0 0 6 1 0 1 1
-1 -1 -1 -2 4 0 0 2 0
-1 0 0 0 -3 0 0 0 0
0 0 0 0 7 1 0 0 1
0 0 0 -1 -6 -1 -1 -1 -1
0 -1 -1 -1 -14 -2 -1 -2 -2
-1 0 0 0 3 -2 0 0 0
0 0 0 0 4 1 0 0 1
-1 0 0 0 1 0 0 0 0
-1 -1 -1 -1 -5 -1 0 0 -1
0 0 0 0 3 0 0 0 0
0 0 -1 0 -4 0 -1 -1 0
0 0 0 0 4 1 0 0 0
-1 0 0 0 6 1 0 1 1
0 0 0 1 4 1 0 0 0
0 0 -1 0 -3 -1 0 -1 -1
-1 0 0 0 3 1 0 1 1
-1 -1 -1 -1 -5 -1 -1 -1 -1
0 1 0 1 8 1 0 1 1
-1 1 1 0 13 2 0 2 2
0 0 0 0 -1 0 0 0 0
-1 -1 -1 -1 -4 -1 -1 -1 -1
-1 0 1 0 0 1 0 1 1
-1 -1 -1 -1 -7 -1 -1 -1 -1
-2 0 -1 -4 0 0 -4 -1 -1
-1 -1 -1 -1 -4 -1 -1 -1 -1
-1 -1 -1 -1 -7 -1 -1 -1 -1
-1 -1 -1 -1 -6 -1 -1 -1 -1
-1 -1 -1 -1 -4 -1 -1 -1 -1
0 0 0 0 3 0 0 0 0
0 1 1 1 11 2 0 1 1
1 1 1 1 12 1 1 1 1
-1 0 -1 0 -2 0 0 0 -1
0 0 2 0 5 5 2 4 5
-1 -2 -2 -2 -8 -2 -1 -2 -2
2 2 2 2 13 2 -2 -1 0
1 1 1 0 3 1 0 1 2
0 2 0 1 9 0 0 1 0
1 7 0 3 19 7 1 8 6
0 2 1 0 11 4 0 3 3
0 1 -1 1 7 0 1 3 1
-1 -1 -1 -1 -2 -1 -1 -1 -1
0 0 -1 -1 -2 0 0 0 -1
-1 -1 -1 -1 1 0 0 0 0
-1 -1 -1 -1 -2 -1 -1 -1 -2
0 0 0 0 4 1 0 1 1
2 4 2 4 9 6 3 5 5
1 0 1 0 3 2 0 1 2
0 -1 -1 0 0 -2 0 -1 0
6 6 1 5 13 -4 -1 -3 -2
0 0 0 0 2 -1 -1 0 -1
1 1 1 0 3 2 0 1 2
1 1 1 1 8 1 1 1 1
1 2 0 1 9 0 1 2 0
0 2 2 -1 8 1 -1 3 1
1 1 2 0 4 2 0 1 2
0 1 0 0 5 0 0 0 0
0 1 1 0 2 1 1 2 1
0 2 1 0 11 3 0 2 3
1 1 1 0 0 1 0 1 1
1 1 1 0 3 1 1 1 2
1 0 0 0 2 1 0 0 1
1 0 1 0 2 1 0 1 1
1 1 2 2 12 3 1 3 3
0 0 -1 -1 1 -1 0 0 0
2 2 0 1 6 -1 0 0 -1
2 2 2 1 7 2 1 1 3
0 1 0 0 -2 -1 0 0 -1
0 0 -1 0 -1 -1 -1 0 -1
0 -1 -1 0 -3 -1 -1 -1 -1
1 3 1 2 6 1 1 1 1
1 0 0 0 2 -1 0 0 0
2 -1 -2 3 7 1 4 2 1
0 0 -1 0 -2 -1 0 0 -1
-1 -1 -2 -1 -4 -1 -1 -1 -2
0 -1 -1 0 -1 -1 0 -1 -1
0 -1 -1 0 -1 -1 -1 0 -1
0 1 0 1 9 0 0 1 0
2 2 2 1 5 2 1 1 2
2 2 2 1 7 3 1 2 3
0 -1 -1 0 0 -1 -1 -1 -1
-1 -1 -2 -2 -3 -2 -2 -1 -1
-1 0 1 0 7 2 0 2 3
0 1 0 0 0 2 0 1 2
0 0 0 0 -2 0 0 0 0
0 0 0 0 -1 0 0 0 0
-1 -1 0 -1 -2 1 -2 0 1
-1 -1 -1 -2 -4 -1 -2 -1 -1
0 -1 -1 -1 -9 -2 -2 -2 -2
0 0 1 0 5 2 0 1 2
0 0 0 0 2 1 1 1 1
0 0 1 0 4 2 1 2 2
0 0 1 0 5 1 0 1 2
-1 0 -1 0 -5 0 0 -1 -1
-1 -1 0 -1 -2 0 0 0 1
0 0 0 0 -3 0 -1 0 -1
0 -1 -1 -1 -4 -2 -1 -2 -2
1 1 2 2 8 5 1 2 3
0 0 0 0 2 1 0 0 1
0 0 0 0 -3 0 0 0 -1
0 1 1 0 7 2 1 1 2
0 0 0 0 0 0 0 0 0
-2 0 -1 -3 0 -1 -3 0 -1
0 0 0 0 -3 0 0 0 -1
0 0 0 0 0 0 0 0 0
-1 0 1 0 5 2 0 2 2
0 0 0 0 -4 0 0 -1 -1
0 0 0 0 -2 0 0 0 -1
0 0 0 0 0 0 0 0 0
0 0 0 0 0 0 0 0 0
0 0 0 0 -2 0 0 0 -1
-1 -1 -1 -1 0 -1 -1 -1 0
0 0 -1 0 -3 -1 -1 -1 -1
1 1 1 1 3 2 1 2 2
0 0 0 0 -2 0 0 0 -1
0 0 0 0 0 0 0 0 0
0 0 1 0 4 1 0 1 1
0 0 1 0 4 1 0 1 1
-1 -1 0 -1 -3 0 0 0 0
0 -1 -1 -1 -4 -2 -1 -1 -2
-1 0 2 1 3 4 1 2 3
0 0 1 0 4 1 0 1 1
0 1 1 0 8 2 1 2 3
0 1 1 0 10 3 1 2 3
0 1 1 0 7 2 1 1 2
0 0 0 0 -1 0 0 0 0
0 0 0 0 -2 0 0 0 -1
0 0 -1 0 -4 -1 -1 -1 -1
0 0 1 0 6 2 0 1 2
1 2 0 2 -1 -1 0 -2 0
0 0 0 0 0 0 0 0 0
-1 -1 -1 -1 -4 -1 1 0 -1
0 -1 -1 0 1 0 1 0 0
-2 -3 -2 -2 -10 -3 -2 -3 -2
-1 -6 -5 -4 -26 -8 -1 -6 -5
-1 0 -1 1 -4 -2 0 0 0
-1 -2 -2 -1 -8 -2 0 -1 -2
0 0 0 0 -1 0 0 0 0
0 -1 0 -1 -3 -1 -1 -2 -1
-1 -1 -1 -2 -6 -2 -2 -2 -2
0 0 0 0 -1 0 0 0 0
0 -1 -1 -1 -4 -2 -1 -1 -2
-2 -6 -1 -3 -23 -4 -2 -7 -2
-1 -1 -1 0 -3 -1 0 0 0
-1 -1 0 0 -4 1 0 1 1
-2 -5 -1 -3 -8 -1 1 0 2
0 -1 0 0 -4 0 0 0 0
-1 -1 -1 0 -1 0 1 0 0
0 0 0 0 -3 0 0 0 0
-1 -1 -1 -2 -8 -3 -2 -3 -3
1 1 0 0 -5 -2 0 -1 -1
-1 -1 -1 0 0 0 1 0 0
-1 -1 0 -1 -5 0 0 0 0
-1 -1 -1 -1 -6 -2 -1 -1 -2
0 -1 0 0 -2 -1 0 0 0
0 -1 -1 0 -2 0 0 0 0
-1 -1 -1 0 0 0 1 1 1
-1 -1 -1 0 0 1 1 1 1
-1 -1 -1 0 -2 -1 0 0 -1
-1 -2 -1 -1 -7 -2 0 -1 -1
-1 -1 -1 0 -2 0 0 0 0
-1 -2 0 -2 -6 -1 -2 -2 -1
-1 -1 -1 0 1 0 1 1 1
0 0 1 1 3 2 1 2 3
0 0 0 0 -2 0 0 0 0
1 0 1 0 1 1 1 1 0
-3 -3 -2 -2 -8 -1 -2 -1 0
-1 0 -1 0 -1 0 0 0 0
2 2 1 0 -5 1 2 -1 0
0 0 1 0 -1 0 0 0 0
0 0 1 0 -1 0 0 0 0
1 1 1 1 1 1 1 1 0
0 0 1 0 -1 1 1 0 0
0 -1 0 -1 -6 0 0 0 0
0 0 0 1 2 1 1 1 1
0 -1 0 0 1 0 1 0 0
0 0 0 0 -2 0 1 0 0
0 0 0 0 2 0 0 0 0
0 0 0 0 -5 0 0 -1 -1
-1 -1 -1 0 2 0 0 0 0
0 0 0 0 8 1 0 1 1
0 0 0 0 -1 0 0 0 0
1 1 0 1 2 1 0 0 1
0 0 0 0 -1 0 0 0 0
0 0 0 0 -3 0 0 0 0
0 0 0 0 -5 0 -1 -1 -1
0 0 0 0 2 0 0 0 0
0 0 0 0 5 1 0 1 1
0 0 -1 0 -4 -1 -1 -1 -1
0 0 0 1 10 1 0 1 1
1 1 0 0 0 0 1 0 0
0 1 0 1 10 1 1 1 1
0 0 0 0 -4 -1 0 -1 -1
1 1 -1 0 4 -1 -1 0 0
-1 0 -1 0 -1 0 0 0 -1
0 1 0 1 12 1 0 1 1
0 0 0 0 -4 0 0 0 -1
0 0 0 0 -1 0 0 0 0
0 0 0 0 1 0 0 0 0
0 1 1 1 11 1 1 1 1
0 0 0 0 0 0 0 0 0
0 0 0 0 4 0 0 0 0
0 0 0 0 5 0 0 1 1
0 0 0 0 5 1 0 0 1
0 0 0 0 6 1 0 0 1
0 0 0 0 5 0 0 1 1
0 0 0 1 11 1 1 1 1
0 0 0 0 -2 0 0 0 0
0 0 0 0 -3 0 0 0 0
0 0 0 0 -1 0 0 0 0
0 1 0 1 12 1 1 1 1
0 0 0 0 -3 -1 0 0 -1
0 0 0 0 -2 0 0 0 -1
0 0 -1 0 -6 -1 0 -1 -1
0 0 0 0 -4 0 0 0 0
0 0 0 0 -4 -1 0 0 -1
0 0 -1 0 4 0 0 0 0
0 -1 -1 0 -6 -1 -1 -1 -1
0 -1 -1 -1 -6 -1 -1 -1 -1
0 -1 -1 0 -7 -1 0 -1 -1
-1 -1 -1 -1 -7 -1 -1 -1 -1
0 0 -1 0 -1 -1 0 -1 -1
0 0 0 0 8 1 1 1 1
1 1 1 1 18 1 1 2 2
0 0 -1 0 -4 -1 -1 -1 -1
-1 0 -1 0 -1 -1 -1 0 0
0 1 1 1 0 1 1 1 1
0 0 0 0 2 1 0 1 0
0 -1 -1 0 4 0 0 0 0
-1 -1 -1 -1 -9 -1 -1 -1 -1
-1 -2 -1 -2 -7 -2 -1 -2 -1
-1 -1 0 -1 -6 0 -1 0 0
-2 -3 -3 -3 -22 -4 -3 -4 -4
0 0 1 0 0 1 1 1 1
0 0 0 0 0 0 0 0 0
0 0 0 0 6 1 0 1 1
0 0 0 0 -2 1 0 1 1
-1 -1 -1 -1 -1 -1 -1 -1 -1
-2 -3 -2 -1 -6 -2 -2 -3 -2
-1 -1 -1 0 2 -1 0 -1 -1
-1 -1 -1 -1 -12 -2 -1 -2 -2
1 0 0 0 6 1 1 1 0
0 0 0 0 -1 1 0 1 1
-1 -1 -1 0 4 0 0 0 0
0 1 1 1 1 1 1 2 2
-1 -1 -1 -1 -11 -2 -1 -2 -1
0 0 0 0 -2 0 -1 -1 0
-1 -1 -1 0 3 0 0 0 0
0 0 0 0 -3 0 1 0 0
0 2 2 1 13 3 1 3 4
-1 -1 -1 0 -1 -1 0 -1 -1
-1 -1 -1 0 0 -1 0 -1 -1
0 -1 -1 0 3 0 0 0 0
0 -1 -1 0 0 0 0 0 0
-1 -1 -1 0 1 -1 0 0 -1
-1 -1 -1 -1 -7 -2 -1 -2 -1
-1 -1 -1 -1 -9 -1 -1 -1 -1
0 0 0 0 0 1 0 0 0
-1 -1 -1 0 4 0 0 0 0
0 0 0 1 5 1 1 1 2
0 0 0 0 0 1 1 1 1
0 0 0 0 -4 0 0 0 0
0 0 1 1 3 2 1 2 2
-2 -2 -2 -2 -18 -3 -2 -3 -3
0 0 0 0 -1 0 1 1 1
0 0 0 0 -3 1 0 0 1
0 1 1 1 0 1 1 1 1
0 0 0 0 -1 1 1 1 1
0 0 1 0 0 1 1 1 1
0 0 0 0 -6 0 0 0 0
0 -1 -1 0 2 0 0 0 0
-1 -1 -1 0 3 -1 0 0 -1
0 0 0 0 -1 1 1 1 1
-3 -2 -3 -3 -5 -1 -3 -1 2
1 2 1 2 21 3 1 2 2
0 2 1 -2 1 1 -1 0 0
0 0 0 0 -2 0 0 0 0
0 0 0 0 3 1 -1 0 0
-1 -1 -1 -1 5 0 0 1 3
-2 -1 0 -2 -5 0 -2 -1 1
-1 0 0 -1 5 0 -1 0 0
2 3 3 3 30 4 3 4 4
-1 0 -1 0 0 0 0 0 0
0 1 1 1 14 2 1 2 1
1 2 2 2 23 3 2 3 3
1 1 1 1 10 1 1 1 0
-2 -1 2 -1 2 2 1 0 4
0 0 0 1 7 0 0 0 1
0 1 1 0 16 1 0 1 1
3 0 -3 0 -4 -1 -2 0 0
1 1 1 2 18 2 1 2 2
0 0 0 0 3 0 0 0 0
0 0 0 1 10 2 0 1 2
-1 0 -1 -1 4 1 -1 1 0
-3 0 0 -2 0 1 -3 -1 0
0 0 0 0 5 0 0 0 0
0 0 0 0 8 1 1 1 1
-1 0 0 0 5 1 -1 0 0
-1 -1 0 -1 -3 0 -1 0 0
0 0 0 0 6 0 0 0 0
0 0 0 0 3 0 0 0 0
0 0 0 1 9 1 1 1 1
0 0 0 0 2 0 0 0 0
-1 0 0 0 7 1 0 1 1
0 1 1 0 7 1 0 1 1
0 0 -1 0 0 0 0 0 0
0 1 0 0 6 0 0 1 1
0 0 0 1 14 1 1 1 1
1 2 2 2 20 3 2 3 3
0 1 1 1 11 2 1 2 2
-1 -1 0 0 3 0 0 0 0
-2 -1 -1 -1 3 0 -1 0 0
-1 -3 -2 1 -3 0 3 2 1
0 1 1 1 15 2 1 2 2
2 3 2 3 28 4 2 4 4
1 2 1 2 17 3 1 3 3
1 2 2 2 23 3 2 3 3
0 0 0 0 6 1 0 1 1
0 0 0 1 8 1 1 1 1
1 1 1 1 9 1 1 1 1
2 3 2 3 24 3 2 3 4
0 0 0 0 2 0 0 0 0
0 0 0 0 6 1 0 1 1
0 0 0 1 2 1 0 0 0
0 0 0 0 0 0 0 0 0
0 0 0 0 0 0 0 0 0
0 0 0 0 -2 0 0 0 0
0 0 0 0 -2 0 0 0 0
0 0 0 0 -4 0 -1 -1 -1
0 0 0 0 5 1 0 1 1
0 0 0 0 6 1 0 1 1
0 1 1 1 15 3 1 3 3
0 0 0 0 1 0 0 0 -1
0 0 0 0 3 1 0 1 1
0 -1 0 -1 0 0 0 0 0
0 0 0 0 0 0 0 0 0
-1 -1 -1 -1 -15 -2 -1 -2 -2
0 0 0 0 -2 0 -1 0 0
0 0 -1 0 0 -1 0 0 -1
0 0 0 0 1 0 0 0 0
0 0 0 0 6 0 0 0 0
0 0 0 0 1 0 0 0 0
0 0 0 0 3 0 0 0 0
0 0 0 0 -2 0 0 0 0
0 -1 -1 -1 -4 -1 -1 -1 -1
0 1 1 1 11 2 1 2 2
0 0 0 0 2 1 0 1 1
0 0 0 0 -3 0 0 0 0
0 0 0 0 -2 0 0 0 0
0 0 0 0 -5 0 0 0 0
0 0 0 0 1 0 0 0 0
0 0 0 0 -2 0 0 0 0
0 -1 -1 -1 -8 -1 -1 -1 -1
0 0 1 0 4 1 0 1 1
0 0 0 0 -2 0 0 0 0
0 -1 -1 -1 -11 -1 -1 -1 -1
0 0 0 0 1 0 0 0 0
0 0 0 0 3 0 0 0 0
0 -1 -1 -1 -8 0 0 0 0
0 -1 -1 -1 -9 -1 -1 -1 -1
0 0 0 0 1 0 0 0 0
0 0 0 0 4 0 0 0 0
0 0 0 0 3 0 0 0 0
0 0 0 0 7 1 0 0 0
0 0 0 0 4 0 0 0 0
0 -1 -1 -1 -4 -1 -1 -1 -1
0 0 0 0 -1 0 0 0 0
0 0 0 0 3 1 0 1 1
0 0 0 0 0 0 0 0 0
0 0 -1 0 -2 0 0 0 0
0 0 1 0 7 1 1 1 1
0 0 0 0 3 1 0 1 0
0 0 0 0 0 0 0 0 0
0 0 0 0 2 1 0 0 1
0 0 0 -1 -2 0 -1 0 0
0 0 0 0 -2 0 0 0 0
0 -1 -1 0 -3 -1 0 -1 -1
0 1 1 1 6 1 1 1 1
0 0 0 0 10 1 0 1 1
0 1 2 1 21 3 2 3 4
0 0 0 0 -2 0 0 0 0
0 0 0 0 4 1 0 1 1
0 -1 0 0 -1 -1 0 -1 -1
0 0 0 0 0 0 0 0 0
-1 -2 -2 -2 -20 -3 -2 -3 -3
0 0 0 -1 -3 0 -1 0 -1
0 0 0 0 -3 0 0 0 0
0 0 0 0 1 0 0 0 0
0 0 0 0 2 0 0 1 1
0 0 0 0 3 1 0 1 1
0 0 0 0 3 1 -1 0 0
0 0 0 0 1 0 0 0 0
0 -1 -1 0 -8 -1 -1 -1 -1
0 1 1 0 14 2 1 2 2
0 0 0 0 -1 0 0 0 0
0 0 0 0 0 0 0 0 0
0 0 0 0 -1 0 0 0 0
0 -1 0 0 -3 -1 0 0 -1
0 0 0 0 2 0 0 0 0
0 0 0 0 0 0 0 0 0
-1 -1 -1 -1 -10 -2 -1 -1 -1
0 0 1 1 4 2 1 1 1
0 0 0 0 -1 0 0 0 0
-1 -1 -1 -1 -15 -2 -1 -2 -2
0 0 0 0 0 0 0 0 0
0 0 0 0 1 0 0 0 0
-1 -1 0 -1 -9 -1 0 0 0
-1 -1 -2 -1 -11 -2 -1 -1 -2
0 0 0 -1 0 -1 0 1 0
0 0 0 0 -1 0 0 0 0
0 0 0 0 2 0 1 1 0
0 0 0 1 7 1 1 1 1
0 0 0 0 1 0 0 0 0
-1 -1 -1 -1 -9 -1 -1 -1 -1
0 0 0 0 0 0 0 0 0
-1 0 0 0 2 0 0 0 0
0 0 0 0 -1 0 0 0 0
6 6 4 4 9 1 4 1 0
1 0 0 0 -7 -2 1 0 0
0 -3 0 -1 -2 3 3 4 5
0 0 0 -1 3 0 -2 -1 -1
0 0 1 1 4 2 2 2 2
4 4 1 4 4 5 3 7 6
1 1 0 3 12 4 2 4 1
4 3 1 4 2 0 5 5 3
1 0 0 0 -2 0 1 0 1
0 0 0 0 -3 -1 1 0 0
1 1 1 0 6 1 1 1 1
2 1 1 0 -5 -1 2 0 0
1 1 1 0 5 1 0 1 0
3 6 2 1 4 6 3 8 7
2 0 0 0 -2 -2 -1 -2 -1
3 1 0 1 2 -2 0 -2 -2
0 -4 -1 0 4 5 2 1 3
2 1 2 1 -1 0 2 0 1
1 0 0 -1 0 -1 -1 -2 -1
3 2 2 1 -7 0 2 0 1
3 3 2 1 5 1 3 3 3
6 2 -1 7 -1 -4 7 4 -1
2 1 1 0 2 0 -1 -1 0
2 1 1 1 1 0 1 0 0
2 1 1 1 -1 1 3 3 1
-2 0 0 -1 7 2 -1 2 2
3 2 1 0 -2 -1 0 -2 -1
2 1 1 0 0 -1 -1 -2 -2
2 1 1 1 3 -1 0 -1 -1
1 0 0 0 1 0 0 0 0
2 1 2 2 8 3 2 3 4
2 1 0 0 1 -1 0 -1 -2
1 1 0 0 6 0 1 2 1
2 1 1 1 3 0 0 0 0
2 2 1 1 2 1 0 0 0
2 1 1 1 -1 0 2 0 0
1 0 0 0 -6 -2 1 0 0
0 4 2 1 15 6 0 5 2
5 3 1 1 -2 -2 1 -2 -2
3 3 2 -4 2 6 -2 0 6
3 2 1 1 -1 -1 2 0 0
3 1 1 1 -7 -1 2 0 0
3 1 1 1 -4 -2 2 0 0
3 1 1 1 -5 -1 2 0 0
2 2 2 1 3 0 2 1 0
2 2 2 0 5 1 -1 0 0
3 2 2 1 4 0 0 0 0
3 1 1 1 -4 -1 2 0 0
2 1 -4 1 -11 -4 1 -2 -3
2 2 3 1 -8 3 0 1 2
-3 -3 1 -6 -54 -5 2 -5 -5
0 -3 -3 1 10 -2 2 0 -1
2 -1 1 0 -11 -2 0 -1 -1
-5 -8 -5 -8 -66 -14 1 -8 -8
-3 -1 -3 -2 -20 -6 1 -2 -5
1 0 2 0 -4 1 1 -1 1
1 1 2 0 -9 1 0 0 1
3 1 0 1 2 0 0 -1 -1
4 1 -1 2 -4 -1 2 -1 -1
1 2 3 0 -8 3 0 1 2
2 -1 -2 2 7 -2 1 -1 -2
-3 -11 -1 -7 -98 -13 0 -11 -6
0 -3 -3 1 9 -3 1 -1 -2
-1 -1 1 -1 5 1 2 2 4
0 -3 1 -4 -7 -1 4 1 3
0 1 3 0 -8 2 0 1 3
0 -3 -4 1 11 -3 2 0 -2
2 2 3 1 -20 2 0 0 1
3 2 3 1 -8 1 0 -1 1
-4 0 0 -4 -47 -8 0 -5 -7
-1 -3 -3 1 12 -3 1 -1 -2
0 0 2 0 -8 2 1 1 3
2 1 1 1 -2 0 2 -1 0
0 -2 -3 1 -3 -3 2 0 -1
0 -2 -2 1 12 -3 1 0 -1
-1 -3 -3 0 9 -2 1 0 -1
-1 -2 -2 0 6 -2 1 0 0
0 -2 -3 1 6 -3 1 -1 -2
0 -3 -1 0 -21 -5 2 -2 -2
-1 -1 0 0 2 0 1 0 2
3 2 2 1 3 3 1 1 2
-1 -3 -4 1 12 -4 1 -1 -2
-2 -2 0 -2 4 0 2 2 4
0 1 3 0 -10 2 0 0 2
1 1 3 0 -7 3 0 1 2
-1 -1 -1 -1 1 0 2 2 2
-1 0 1 1 6 2 1 1 3
5 5 2 5 -4 8 4 4 3
0 1 3 0 -18 2 0 0 2
1 2 4 0 -10 3 0 0 3
1 2 4 1 -15 4 0 1 2
1 1 3 0 -15 3 0 0 2
0 0 2 0 -13 2 1 1 3
-1 -3 -4 0 6 -3 1 -1 -2
-1 -4 -5 1 10 -5 1 -1 -4
1 1 3 0 -11 3 0 0 3
-1 -1 0 0 1 0 -1 0 1
0 0 0 0 0 0 0 0 -1
0 0 0 0 1 0 0 -1 0
0 0 0 0 1 0 0 0 0
0 0 0 0 -4 0 0 -1 0
0 0 0 0 5 0 0 0 0
0 0 0 0 4 0 0 0 0
0 0 0 0 1 1 0 1 1
0 0 0 0 1 0 0 0 0
0 -1 -1 0 -5 -1 -1 -1 -1
-1 -1 -1 -1 -11 -2 -1 -2 -2
0 0 0 0 3 0 0 0 0
-1 -1 -1 -1 -7 -1 -1 -1 -1
0 0 0 0 0 0 0 0 -1
0 0 0 0 6 1 0 1 1
0 1 1 1 16 3 1 3 3
0 0 0 0 0 0 0 0 1
0 0 0 0 4 1 0 1 1
0 0 0 0 2 0 0 0 0
0 0 0 0 1 0 0 0 0
0 0 -1 0 -7 -1 0 -1 -1
0 0 0 0 2 0 0 0 0
0 0 0 0 4 0 0 0 0
0 0 1 0 7 1 0 1 1
0 -1 0 0 -6 -1 -1 -1 -1
0 0 0 0 -2 0 0 0 0
0 0 0 0 4 1 0 0 0
0 0 0 0 9 1 0 1 1
0 1 1 0 10 1 0 1 1
0 0 0 0 1 0 0 0 0
0 0 0 0 -1 1 0 0 0
0 1 1 1 11 2 1 2 2
0 -1 -1 -1 -6 -1 -1 -1 -1
0 0 0 0 5 1 0 0 1
-1 0 0 0 11 2 0 2 2
0 0 0 0 4 0 0 1 0
0 0 0 0 1 0 0 0 0
0 0 0 0 -2 0 0 0 0
0 1 1 1 13 2 1 2 3
0 0 0 0 0 1 0 0 1
0 0 0 0 3 0 0 0 0
0 0 0 0 6 0 0 0 0
0 0 0 0 2 0 0 0 0
0 0 0 0 4 0 0 0 0
0 1 1 1 7 1 0 1 1
0 0 0 0 5 1 0 1 1
0 0 0 0 3 0 0 0 0
0 0 0 0 5 1 0 1 0
0 1 -1 1 3 1 1 1 0
0 0 0 0 -1 0 0 0 0
1 1 1 0 2 0 1 0 1
0 0 0 0 -3 0 0 -1 0
0 0 0 0 1 0 0 0 0
1 1 1 1 -1 -2 0 0 -1
1 1 0 1 3 1 1 1 1
0 0 0 0 2 0 0 0 0
0 0 0 0 0 0 0 0 0
0 0 0 0 -2 -1 0 0 -1
0 0 0 0 0 0 0 -1 -1
0 0 0 1 1 0 1 1 0
0 0 0 0 -2 0 0 0 0
1 1 0 0 -3 -1 1 0 0
-1 -1 0 -1 -3 -1 -1 -1 -1
0 1 1 1 8 2 1 2 1
1 1 1 0 0 -1 0 0 1
1 1 0 1 3 0 1 1 1
0 0 0 -1 -3 -1 0 -1 -1
1 1 0 1 2 0 1 1 0
0 0 0 0 0 0 0 0 0
1 1 0 1 2 0 1 1 1
0 0 0 -1 -3 0 0 -1 0
1 1 1 1 6 1 1 1 1
0 1 0 0 -2 0 0 0 0
0 0 0 0 0 0 0 0 0
-1 -1 -1 0 -3 0 -1 -1 -1
-1 0 0 -1 -2 0 -1 0 0
0 0 0 0 -1 0 -1 0 0
0 0 0 0 -2 0 0 0 0
0 0 0 0 2 0 0 0 0
0 0 1 0 4 1 0 1 1
0 0 0 0 0 0 0 0 0
-1 0 0 -1 -3 0 -1 -1 0
0 0 0 -1 3 1 0 1 1
0 0 0 1 1 0 1 1 0
0 0 0 0 1 0 1 0 0
0 1 1 0 2 1 0 1 2
0 1 1 0 5 1 0 1 0
0 1 0 0 0 0 0 0 0
1 1 0 1 4 0 1 1 1
0 0 0 0 0 0 1 0 0
1 0 0 1 1 0 1 0 0
1 1 0 1 2 0 1 1 0
1 1 1 1 6 1 1 1 1
0 0 0 -1 -1 0 0 0 0
0 0 0 -1 -2 0 -1 0 0
1 0 0 1 2 0 1 1 0
-1 0 -1 -1 2 -1 -1 0 0
1 1 1 1 13 2 1 2 2
0 1 0 0 0 1 -1 0 0
-1 0 0 -1 -4 0 -1 0 -1
1 1 1 1 6 1 1 1 1
0 0 -1 -1 -1 0 -1 1 0
-1 0 0 -1 2 -1 -1 0 0
1 1 1 1 6 1 1 2 1
1 2 2 2 14 2 2 2 2
0 1 0 1 8 1 1 1 1
0 0 0 0 6 1 0 1 1
0 0 0 1 5 1 0 1 1
-1 0 -1 0 -2 -1 0 -1 -1
0 1 0 0 4 0 1 1 1
-1 -1 -1 -1 -3 -1 0 -1 0
-1 -1 -1 -1 -3 -1 -1 -1 -1
2 1 -1 1 3 0 -1 0 -2
0 0 0 0 -1 0 0 0 0
-1 -1 -1 -1 -5 -1 -1 -1 -1
0 0 1 0 4 1 0 0 1
1 1 1 1 9 2 2 2 2
-1 1 1 -1 5 1 -1 1 1
0 -1 0 0 -3 0 0 0 0
-1 -1 -1 -1 -5 -1 -1 -1 -1
0 0 0 0 -1 0 -1 0 0
-1 0 -1 0 -1 0 -1 0 0
0 0 0 0 0 0 0 0 0
-1 0 0 0 -2 0 -1 0 -1
0 0 0 0 0 0 0 0 0
-1 -1 0 -1 -3 -1 0 -1 0
0 0 0 0 3 1 0 1 1
0 0 0 0 -1 -1 0 0 -1
1 0 0 1 3 0 1 1 0
0 0 0 0 -2 0 0 0 0
-1 -1 -2 -2 -10 -2 -2 -2 -3
0 0 0 0 2 1 0 0 1
1 1 1 1 9 1 1 2 1
-1 -1 -1 -1 -2 -1 -1 -1 -1
0 0 0 0 0 0 0 0 0
0 -1 -1 1 3 -1 1 2 0
0 1 1 0 5 1 0 1 1
1 1 1 1 7 1 1 1 1
1 2 2 1 13 2 1 2 2
1 1 1 1 8 2 1 1 2
0 0 0 0 0 0 0 0 0
0 0 0 0 0 0 0 0 0
0 0 0 0 -2 0 0 0 0
0 1 0 1 5 1 0 1 1
-1 0 -1 -1 4 0 -1 0 0
0 0 0 0 2 0 0 0 0
0 1 1 0 1 0 0 0 0
0 0 0 0 -2 0 0 0 0
0 0 0 0 2 0 0 0 0
0 0 0 0 -2 0 -1 0 0
-1 0 0 -1 0 0 -1 -1 0
0 1 0 0 5 1 0 1 1
0 0 0 0 3 1 0 0 1
0 0 0 0 1 0 0 0 0
0 0 0 0 2 0 0 0 -1
0 1 1 1 9 1 1 1 1
0 0 0 0 1 0 0 0 0
0 1 0 0 4 0 0 0 0
0 0 0 0 -2 0 0 0 0
0 0 0 0 0 0 0 0 0
1 1 0 1 0 0 0 0 -1
0 0 0 0 4 1 0 1 1
0 0 0 0 -2 0 0 0 0
0 0 0 0 4 1 0 0 1
0 0 0 0 5 1 0 1 0
-1 0 0 -1 1 0 -1 0 0
0 0 0 0 -3 0 0 0 0
0 0 1 0 3 1 0 1 1
0 0 -1 -1 -7 -1 -1 -1 -1
0 0 0 0 -2 0 0 0 0
0 0 0 0 -2 0 0 0 0
0 0 0 0 -5 0 0 0 -1
0 0 0 0 -4 0 0 0 -1
0 0 0 0 -2 0 0 0 0
0 0 0 0 1 0 0 0 0
0 0 0 0 -1 0 0 0 0
0 0 0 0 4 0 0 0 0
0 0 0 0 -4 -1 0 0 -1
-1 -1 -1 -1 -9 -1 -1 -1 -1
0 1 1 1 7 1 1 1 1
0 1 1 1 8 1 1 1 1
0 -1 -1 -1 -3 -1 -1 -1 -1
0 0 0 0 4 1 0 1 1
0 0 -1 1 2 -1 1 1 0
0 1 1 1 10 1 1 1 1
0 1 1 1 8 1 0 1 1
0 1 1 0 8 1 0 1 1
0 1 1 1 10 1 1 1 1
0 1 1 0 7 1 0 1 1
0 0 0 0 -3 0 0 0 0
0 0 0 0 -3 -1 0 0 -1
0 1 1 1 9 1 1 1 1
2 0 0 0 1 0 0 -1 2
1 0 0 1 4 1 1 1 1
0 0 0 -1 -2 0 -1 0 0
1 1 1 1 20 1 1 1 1
-1 0 0 -1 -2 1 0 0 0
2 1 0 2 8 4 0 2 2
0 -1 1 0 1 0 0 -1 1
0 0 0 0 0 2 1 2 1
1 1 1 1 9 1 1 1 1
0 0 0 0 2 0 0 0 0
-1 -1 -1 0 3 0 0 0 0
2 2 2 3 15 3 2 3 2
1 1 1 1 16 2 1 1 1
0 -1 1 0 3 0 2 1 1
2 2 2 3 28 3 2 2 3
0 1 1 0 6 1 1 2 2
2 0 -2 -1 8 -1 -2 0 0
1 2 2 2 14 2 2 2 2
2 2 2 2 25 2 2 2 2
2 2 2 2 17 2 2 3 3
-1 0 0 -1 -6 1 0 1 0
1 0 1 1 -6 1 0 0 1
2 2 2 2 27 2 2 2 2
1 1 1 2 15 2 2 2 2
0 0 -1 1 4 0 0 0 0
1 1 1 1 16 1 1 1 1
1 1 1 1 15 2 1 1 1
1 1 1 1 20 2 1 2 2
0 0 0 1 11 1 1 1 1
1 1 1 2 17 2 1 1 2
0 0 1 0 3 1 0 1 1
0 0 1 0 5 1 1 1 1
0 0 -1 0 3 0 -1 0 -1
2 2 2 2 28 2 2 2 2
0 0 0 1 10 0 1 1 1
2 2 2 3 18 3 3 3 3
1 1 1 1 6 1 1 1 1
-1 0 -1 0 6 -2 0 0 -1
0 0 0 0 -1 1 1 1 1
0 -1 -3 -1 -2 -1 1 1 -2
2 2 2 2 12 2 2 2 2
3 3 3 4 24 4 3 3 4
2 2 2 2 14 2 2 2 2
2 2 2 3 19 3 3 3 3
1 2 1 2 13 2 2 2 2
1 1 1 1 20 1 1 1 2
2 2 2 3 27 2 2 2 2
3 3 3 3 19 3 3 3 3
0 1 0 1 9 0 -1 0 -1
0 0 -1 0 -3 -1 -1 -1 -1
0 -1 -1 0 -6 -2 0 0 1
0 0 0 0 6 1 0 1 1
0 0 0 0 4 0 0 1 0
1 1 0 1 -1 0 0 0 0
0 0 -1 0 2 -1 0 1 0
1 0 0 1 4 0 1 1 1
-1 -1 -1 0 -3 0 0 -1 -1
0 0 0 0 6 1 0 1 0
0 1 0 0 9 1 0 1 0
-1 -1 -1 -1 -5 -1 -1 -1 -1
0 0 0 0 11 1 0 1 1
0 0 -1 0 6 0 -1 0 -1
0 0 0 0 11 2 0 1 2
0 0 0 0 0 0 0 0 1
2 0 0 0 -8 -1 -1 -1 1
-1 0 0 -1 -2 0 -1 0 0
0 0 0 0 8 2 0 1 1
0 0 0 0 1 0 0 0 0
1 1 1 1 5 1 0 0 0
0 1 -1 0 7 -2 0 1 -1
0 0 0 0 8 2 0 1 2
0 0 0 0 1 0 0 0 0
1 1 1 1 3 0 1 1 1
0 0 1 0 7 1 0 1 1
0 0 1 1 9 2 0 1 1
0 0 0 0 7 1 0 1 1
0 0 0 0 6 1 0 1 1
0 0 0 0 9 1 0 1 1
0 0 0 0 5 0 0 1 0
0 0 0 0 1 0 0 0 0
0 0 0 0 3 1 0 0 0
0 0 0 0 8 1 0 1 2
0 0 0 0 -4 0 0 0 0
-1 -1 -1 -1 -2 -1 -1 0 -1
0 0 0 0 -2 0 0 -1 -1
0 0 0 0 -3 0 1 0 0
1 0 0 0 3 0 1 0 0
1 0 0 0 -7 0 0 -2 0
0 0 0 0 -2 -1 0 0 -1
-1 -1 -1 -1 -5 -1 -1 -1 -1
0 0 0 0 -3 0 0 -1 -1
-1 -1 -1 -1 -4 -1 -1 -1 -1
0 0 0 0 2 0 0 0 0
0 0 0 0 6 1 0 1 1
0 1 1 1 13 2 1 2 2
-1 -1 -1 -1 -3 -1 -1 -1 -1
-1 0 0 -1 -1 0 0 0 0
0 0 0 0 -4 0 0 -1 -1
0 0 0 0 1 0 0 -1 -1
0 0 0 0 0 0 0 0 0
0 0 0 0 -1 0 0 0 0
-1 -1 -1 -1 -5 -1 -1 -1 -2
0 0 -1 -1 -1 -1 -1 0 -1
0 1 1 1 7 1 1 2 2
0 0 0 0 -3 0 0 0 0
0 0 0 0 -2 0 0 0 0
0 -1 -1 -1 -13 -2 -1 -2 -2
0 0 0 0 0 1 0 0 0
0 0 0 -1 -4 -1 -1 -1 -1
-1 -1 -1 -1 -2 -1 -1 0 -1
0 0 0 0 3 0 0 0 0
0 1 2 1 17 3 1 3 3
0 0 0 0 1 0 0 0 0
0 0 0 0 1 1 0 0 0
0 0 0 0 0 0 0 -1 0
0 0 0 0 -3 0 0 0 0
0 0 0 0 -2 0 0 0 0
0 0 0 0 0 0 0 0 0
0 0 0 0 1 0 0 0 0
0 0 0 0 5 1 0 1 1
-1 -1 -1 -1 -17 -2 -2 -2 -2
0 0 0 0 -5 -1 0 -1 0
0 0 0 0 1 0 0 0 0
0 0 0 0 2 0 0 0 0
0 0 0 0 3 0 0 0 0
0 0 0 0 0 0 0 0 0
0 0 0 0 -3 0 0 0 0
0 0 1 1 10 2 1 1 2
0 0 -1 -1 -2 -1 -1 -1 -1
0 0 0 0 1 0 0 0 0
-1 0 0 0 6 1 0 1 0
0 0 0 0 0 0 0 0 0
0 0 0 0 2 0 0 0 0
-1 -1 -1 -2 -13 -2 -1 -2 -2
0 1 1 1 17 3 1 2 2
0 0 0 0 -1 0 -1 1 0
0 0 0 0 2 0 0 1 1
0 0 0 0 1 0 0 0 0
0 0 0 0 -1 0 0 0 0
0 0 0 0 2 0 0 0 0
0 0 0 0 4 1 0 1 1
0 0 0 0 2 0 0 0 0
0 0 0 0 1 0 0 0 0
0 0 0 0 1 0 0 0 0
0 0 0 0 4 1 0 1 0
0 0 0 0 -4 0 0 0 0
0 0 -1 0 1 0 -1 -1 -1
0 0 0 0 2 0 0 0 0
0 1 1 1 13 2 1 2 2
-1 0 -1 0 0 0 0 0 -1
0 0 0 -1 -3 -1 0 -1 0
-1 1 1 1 16 3 1 3 3
0 0 0 0 -3 0 0 0 0
0 1 1 1 9 1 1 1 1
-1 -1 -1 0 -1 0 -1 -1 0
1 1 0 1 1 1 0 1 1
-1 0 0 0 4 0 0 0 0
-1 -1 0 -1 2 -1 -1 0 0
0 0 0 0 4 0 0 0 0
-1 -1 0 -1 -5 0 -1 0 0
-1 0 -1 0 -1 0 -1 0 -1
0 0 0 0 -1 0 0 0 0
0 0 0 0 3 0 0 0 0
-1 0 -1 0 -7 -1 -1 -1 -1
0 2 1 2 17 3 2 3 3
0 0 1 0 3 1 0 1 1
0 0 0 0 2 0 0 0 0
0 0 0 0 -6 0 0 0 0
-1 -1 -1 -1 -12 -2 -2 -2 -2
0 0 0 0 -4 0 0 0 0
0 0 0 0 6 0 0 0 0
0 0 0 0 5 0 0 0 0
0 0 0 0 3 0 0 0 0
0 0 0 0 4 0 0 0 0
-1 0 0 0 2 1 0 1 1
-1 0 0 0 -1 0 0 0 0
0 0 0 0 2 0 0 0 0
0 0 0 0 2 0 0 0 0
-1 -2 -2 -2 -22 -3 -2 -3 -3
0 0 0 0 -1 0 0 0 0
1 1 1 1 6 1 1 1 1
-1 -2 -1 -1 -19 -3 -1 -3 -2
-1 0 0 0 7 1 0 1 1
0 1 -1 0 1 -1 0 1 -1
0 0 0 0 2 1 0 1 1
0 0 0 0 -3 0 0 0 0
0 1 0 1 1 1 0 1 1
0 1 0 0 0 0 0 0 0
0 0 0 0 -1 0 0 0 0
-1 0 0 0 -1 -1 0 0 0
-1 -1 -1 -1 2 0 0 0 0
0 1 0 0 1 0 0 0 0
3 2 0 1 -2 0 1 1 1
0 0 -1 0 -3 -1 -1 -1 -1
-1 0 0 -1 -2 -1 -1 -2 -2
0 0 1 0 -2 0 1 1 1
1 0 0 0 -1 -1 0 -1 -1
-3 -3 -4 -4 -17 -4 -3 -6 -4
0 0 0 0 -1 0 0 -1 0
2 2 2 1 3 2 2 1 2
0 0 -1 -1 -2 -1 -1 -1 -1
1 1 0 0 1 0 0 0 0
0 0 0 0 -2 -1 -1 -1 -1
0 0 0 -1 -1 -1 0 -1 -1
0 0 0 0 -6 0 0 -1 0
1 -5 0 -1 -20 -4 -2 -6 -2
0 0 1 0 -4 1 1 1 1
0 -1 0 0 -2 0 1 1 2
-1 -1 0 -2 -4 -2 -3 -2 -3
0 -1 -1 -1 -4 -1 -1 -1 -1
0 0 1 0 -3 0 0 1 1
-1 -1 -1 -2 -2 -1 -2 -1 -1
1 1 1 0 1 0 0 0 0
1 2 1 0 -1 1 0 -1 0
0 1 1 0 -1 1 1 1 1
-1 -1 -1 -1 -3 -1 0 -1 -1
-1 0 -1 -1 -2 -1 -2 -1 -2
0 0 0 0 -2 0 0 0 0
1 1 1 1 1 2 2 2 2
1 0 0 1 -2 1 1 1 1
1 0 1 1 0 1 1 2 2
0 0 1 0 -3 0 0 0 1
1 0 1 1 -2 1 1 1 2
0 0 0 0 0 1 1 1 1
0 0 0 -1 -3 -1 -1 -2 -2
0 1 1 1 -3 1 1 1 1
-1 -1 -1 -1 -1 -1 0 0 0
0 -1 -1 0 -2 -1 0 -1 -1
1 0 0 0 0 0 0 0 0
0 0 0 -1 1 -1 -1 -1 -1
0 1 1 0 4 1 2 2 2
-2 -2 -2 -3 -12 -3 -4 -2 -2
0 0 0 0 2 0 0 0 0
0 -1 -1 -1 -3 -1 -1 -1 -1
0 0 0 0 3 0 0 0 0
0 0 -1 0 -1 -1 0 -1 -1
0 -1 -1 -1 -3 -1 0 -1 0
0 0 0 0 -1 1 0 1 1
0 1 1 0 -3 1 1 1 1
-1 -1 -1 -1 -4 -1 -1 -1 -1
2 3 1 2 6 1 0 2 0
0 0 0 0 2 0 -1 -1 -1
-3 -4 -3 -4 -31 -4 0 0 0
0 0 0 0 0 1 0 1 1
-1 -1 -1 -1 -5 0 -1 0 0
-2 -4 0 -4 -30 -1 1 -1 3
0 -1 0 0 -11 -1 1 -1 0
0 -1 0 -1 -6 -1 0 -1 -1
0 0 0 0 0 -1 0 -1 -1
-1 0 0 0 2 1 0 1 1
-1 0 0 0 10 2 0 2 2
0 0 0 -1 -1 -1 -1 -1 -1
-1 0 0 1 10 2 0 2 3
-2 -3 -1 -4 -12 -2 -1 0 1
0 1 0 1 6 1 1 2 2
2 1 1 1 -6 -1 1 -1 -1
-1 -4 -1 -3 -25 -1 -1 0 2
0 0 0 0 2 0 0 0 0
0 0 0 1 4 1 1 1 2
0 0 0 -1 0 -1 0 -1 -1
0 1 0 -1 1 1 -1 0 0
-1 0 -1 0 -5 -1 0 0 -1
0 0 0 0 1 1 1 1 1
1 0 1 0 1 0 1 0 0
0 -1 -1 0 -1 0 0 0 0
-1 -1 0 0 -2 1 0 1 1
0 1 0 1 3 1 0 1 1
1 1 0 1 2 1 1 1 1
1 0 1 1 -2 0 1 0 0
0 0 0 1 5 1 1 2 2
0 0 -1 -1 -2 -1 0 0 0
1 0 1 0 -4 0 0 0 -1
-1 -1 0 -1 -1 1 -1 0 1
0 0 0 0 -1 1 0 1 1
1 -1 0 -1 -16 -2 0 -2 -1
0 0 0 0 1 -1 -1 -1 -1
0 0 0 -1 0 -1 -1 -1 -1
0 -1 0 -1 -12 -1 0 -1 0
1 1 1 0 -2 0 1 -1 -1
0 0 1 -1 -3 1 -1 0 1
0 0 0 0 1 -1 0 -1 -1
0 0 0 -1 1 -1 -1 -1 -1
0 0 0 0 2 0 0 0 -1
0 0 0 -1 -1 -1 -1 -1 -1
0 0 0 0 -1 -1 0 -1 0
0 0 0 0 -4 0 0 0 0
0 0 0 1 4 2 1 2 2
0 0 0 -1 0 -1 -1 -1 -1
-1 -1 -1 -1 0 0 -1 0 0
0 0 0 0 0 0 0 0 0
0 0 0 0 -1 0 0 0 0
0 0 0 0 -3 0 0 -1 0
-1 -1 -1 -1 -7 -2 -1 -2 -2
0 0 0 0 5 2 0 2 2
0 0 0 -1 -4 0 0 0 1
-1 -1 -1 -1 -6 -1 -2 -2 -2
0 0 0 0 0 0 0 0 0
-1 -1 -1 -1 -5 -1 -1 -1 -1
-1 0 0 -1 0 0 -1 -1 -1
0 1 1 1 6 1 1 1 1
-1 0 0 0 0 0 0 0 0
-1 -2 0 -1 -6 -1 0 -1 0
0 0 0 0 -1 0 0 0 0
-1 0 0 0 3 0 0 0 1
-1 -1 0 -1 -1 0 -1 -1 -1
0 1 1 1 6 1 1 2 2
0 0 0 0 -1 0 0 0 0
0 1 1 1 6 2 1 2 2
-2 -2 -2 -2 -6 -2 -2 -2 -2
0 0 -1 0 0 0 -1 0 0
0 0 0 0 -2 0 0 0 0
0 0 0 0 5 1 0 1 1
0 1 1 0 3 1 0 1 1
0 0 0 0 -4 -1 -1 -1 0
-1 -1 -1 -1 -2 -1 -1 -1 -1
-1 -1 -1 -1 -4 -1 -1 -1 -1
-1 -1 -1 -1 -4 -1 0 0 0
0 0 0 0 -1 0 0 0 0
-1 -1 0 -1 1 0 -1 -1 0
0 0 0 0 1 0 0 0 0
0 0 0 -1 0 -1 0 0 -1
-1 -1 -1 -1 -4 -1 -1 -1 -1
-1 0 0 0 2 1 0 1 2
0 1 1 1 6 1 1 1 1
0 0 0 0 -1 0 0 0 0
0 0 1 0 2 1 1 2 2
-1 0 -1 0 2 0 -1 0 0
-1 0 0 0 -2 0 0 0 0
0 1 0 0 5 1 0 1 1
0 1 1 1 6 1 1 1 2
0 1 0 0 3 1 0 1 1
1 1 1 1 6 1 1 1 1
0 0 0 0 5 1 0 1 1
-1 -1 -1 -1 -5 -1 0 -1 0
0 -1 0 0 -3 -1 -1 0 -1
0 1 1 1 5 1 1 1 1
-1 -1 -1 -1 -1 0 0 0 0
0 0 0 0 2 0 0 0 0
-1 0 -1 0 2 0 0 0 0
0 0 0 1 -1 0 0 0 0
0 1 1 1 6 2 1 2 2
-2 -2 -2 -2 -7 -2 -1 -2 -2
-1 -1 -1 -1 -5 -2 -1 -1 -1
-1 1 2 1 12 4 1 3 4
0 0 0 0 0 0 0 0 0
0 1 1 1 5 1 0 1 1
0 0 -1 0 -4 -1 -1 -1 -1
-1 0 0 0 0 0 0 0 0
0 0 0 0 -2 0 0 0 0
-1 -2 -2 -2 -6 -2 -2 -2 -2
1 1 0 1 6 1 1 1 1
-1 -1 -1 -1 -2 1 -1 1 0
-1 1 1 0 1 2 0 2 2
-1 0 0 0 -1 0 0 0 0
0 0 0 1 1 0 1 0 0
-1 -1 -1 -1 -3 -1 -1 -1 -1
-1 1 1 1 10 3 1 3 3
-1 -1 -1 -1 -1 0 0 0 0
0 0 0 1 2 0 1 0 0
-1 -1 -1 -1 -5 -1 -1 -1 -1
-1 -2 -1 -1 -9 -2 -2 -2 -2
0 -1 -1 0 -7 -1 0 -1 -1
0 1 1 1 7 1 1 1 1
1 1 1 1 7 1 1 1 1
0 1 0 1 5 1 0 1 0
0 0 0 1 2 0 0 0 0
0 0 0 0 0 1 0 1 0
-1 0 0 0 2 1 0 0 0
0 0 0 0 0 0 0 0 0
0 0 0 1 2 0 0 0 0
-2 -2 -2 -2 -9 -2 -2 -2 -2
-1 0 0 0 -1 0 0 0 0
0 0 0 0 3 1 0 1 1
-1 -2 -2 -2 -16 -3 -2 -3 -3
-2 0 0 0 7 2 0 2 2
0 1 0 -1 1 0 0 1 1
-1 0 0 0 0 0 0 0 0
-1 -1 -1 -1 0 0 -1 0 0
-1 0 0 0 2 0 0 0 0
-1 0 0 -1 0 0 0 0 0
-1 -1 -1 -1 -5 -1 -1 0 0
0 0 -1 0 -1 0 0 0 -1
0 0 -1 0 -2 0 0 0 -1
-1 0 0 0 0 0 0 0 0
0 0 -1 0 3 0 -1 0 -1
0 0 1 0 7 1 1 1 1
0 0 0 0 -1 1 1 1 1
0 0 -1 0 -4 0 -1 -1 0
0 0 -1 0 -3 -1 -1 -1 -1
1 0 0 1 3 0 0 1 1
0 0 0 0 -3 0 0 0 0
0 -1 -1 -1 -9 -2 -1 -2 -2
0 0 1 0 5 1 0 1 1
0 0 0 0 0 0 0 0 0
0 0 0 0 1 0 0 1 1
0 0 1 1 4 1 0 1 1
0 -1 -1 0 -5 -1 -1 -1 -1
1 1 0 1 6 0 0 0 0
-1 -1 -1 0 -4 -1 -1 -1 -1
0 -1 -1 -1 -4 -1 -1 -1 -1
0 0 0 0 1 1 0 1 1
0 0 0 0 1 1 0 1 1
-1 -1 -1 -1 -5 0 -1 -1 -1
1 1 2 1 12 2 2 2 2
0 0 0 0 1 0 0 -1 -1
0 0 -1 0 2 -1 0 0 -1
0 0 -1 0 -5 0 -1 -1 -1
0 0 0 0 0 0 0 0 0
0 1 1 0 5 2 1 2 2
0 0 0 0 -4 0 0 0 0
0 0 0 0 -2 0 -1 -1 -1
0 -1 -1 -1 -4 -1 -1 0 0
0 -1 -1 0 -3 -1 0 0 -1
-1 -1 -1 -1 -4 -1 -1 -1 -1
0 0 0 0 6 0 0 0 0
0 0 -1 0 -4 -1 -1 -1 -1
0 0 0 0 0 0 0 0 1
-1 -1 -1 0 -6 -1 -1 -1 -1
1 0 0 1 2 1 1 1 1
0 0 1 0 5 1 1 1 1
1 0 1 0 4 1 0 0 1
1 1 1 1 3 1 1 2 2
0 0 -1 0 -5 -1 -1 -1 -1
-1 0 1 -1 -1 1 -1 0 1
1 1 1 1 7 1 1 1 1
1 1 1 1 7 2 1 1 2
1 1 2 1 12 2 1 2 2
1 1 1 1 10 2 1 1 2
0 0 0 0 -1 0 0 0 0
0 -1 -1 0 -6 -1 0 -1 -1
-1 -1 -1 -1 -8 -1 -1 -1 -1
0 0 1 0 5 1 0 1 1
-1 0 0 0 6 1 0 0 0
0 0 0 0 8 0 0 0 0
0 0 0 0 -1 0 -1 0 -1
0 1 0 0 6 1 0 1 1
0 -1 0 0 -16 -1 -1 -1 -1
-1 0 -1 0 2 -1 -1 -1 -1
-1 0 0 0 4 1 0 2 1
0 -1 -1 0 -27 -2 -1 -2 -2
0 0 0 0 2 0 0 0 0
0 -1 -1 -1 -9 -1 -1 -1 -1
0 0 0 0 2 0 -1 0 0
-1 -1 -1 -1 0 -1 -1 -1 -1
0 0 0 0 -6 0 0 0 0
-1 0 -1 0 -1 -1 -1 -1 -1
0 0 0 0 -3 0 0 0 0
-1 -1 -1 -1 -7 -1 0 -1 -1
1 0 -1 0 -6 -1 0 -1 -1
-1 0 0 0 1 0 0 0 0
0 0 0 0 3 1 0 1 1
-1 0 0 0 7 0 0 0 0
0 -1 -1 -1 -25 -2 -1 -2 -2
0 0 0 0 -1 0 -1 0 0
0 0 0 0 -1 0 0 0 0
-1 -1 -1 -1 0 0 0 0 0
0 1 1 1 18 2 1 2 2
0 0 0 0 3 1 0 1 0
0 0 0 0 -8 0 0 0 0
0 0 0 1 1 0 0 0 1
0 0 0 0 1 1 0 1 1
0 0 0 0 -1 0 0 0 0
0 0 0 0 -10 0 0 0 0
0 0 0 0 -7 0 0 0 0
0 -1 0 -1 -6 -1 -1 -1 -1
0 0 0 0 2 1 0 1 1
-1 1 1 1 23 3 1 3 3
0 0 0 0 3 0 0 0 0
-1 -1 -1 -1 -3 -1 -1 -1 -1
0 2 1 2 25 4 1 4 4
-1 -1 -1 -1 -19 -2 -1 -2 -1
0 0 -1 -1 0 -1 0 0 0
-1 -1 -1 -1 -2 -1 -1 -1 -1
-1 -1 -1 0 2 0 -1 0 -1
-1 -1 -1 -1 0 -1 -1 -1 -1
-1 0 -1 0 3 -1 -1 -1 -1
-1 -1 -1 0 1 0 0 0 0
0 0 0 0 5 1 0 1 1
0 0 0 0 2 1 0 1 1
-1 -1 -1 0 2 0 0 0 -1
0 0 0 0 3 1 0 0 0
0 0 0 0 -2 0 -1 -1 -1
-1 -2 -1 1 7 0 0 0 0
0 0 0 0 2 0 0 0 1
0 0 0 0 1 1 0 0 0
-1 0 -1 -1 -2 1 0 0 0
0 0 -1 0 1 -1 0 0 0
1 1 1 1 8 2 1 2 2
0 0 0 0 -2 0 0 0 -1
0 0 0 0 1 0 0 0 0
0 -1 -1 -1 -5 -1 0 0 -1
-1 -1 -1 -1 -7 -1 -1 -1 -1
0 0 0 0 1 0 0 0 0
-1 -1 -1 -1 -5 0 0 0 0
1 1 1 1 11 1 1 1 1
-1 0 0 0 6 1 0 1 1
-1 0 0 -1 8 1 -1 1 1
-1 0 0 0 -2 -1 -1 -1 -1
1 0 0 1 5 1 0 1 1
0 0 0 0 2 0 0 0 0
0 0 0 0 -2 1 0 0 0
1 0 -1 1 3 -1 1 1 0
0 1 1 1 9 1 0 1 1
-1 0 0 0 -1 0 -1 0 0
0 0 0 0 -1 0 0 0 0
0 0 1 0 3 1 0 0 1
1 1 1 1 11 2 0 1 1
0 1 1 1 12 2 1 1 2
0 1 1 1 11 2 1 1 2
1 0 0 0 6 1 0 0 1
0 0 0 1 3 1 0 1 1
0 0 0 0 6 1 0 1 1
0 0 0 0 -1 0 0 0 0
1 1 1 1 9 1 1 1 1
0 0 0 0 6 1 0 1 1
0 0 0 0 -2 0 -1 0 -1
0 0 -1 -1 -6 -1 -1 -1 -1
0 0 0 0 -1 0 0 0 0
0 1 1 0 8 1 0 1 2
-1 1 0 -1 7 1 -1 0 1
0 -1 -1 -1 -6 -1 -1 -1 -1
-1 -1 -1 -1 -3 -1 -1 -1 -1
0 0 0 0 -4 -1 0 0 -1
-1 -1 -1 -1 -7 -1 -1 -1 -1
-1 0 -1 -1 -4 0 -1 0 0
1 1 1 1 8 1 1 1 1
1 1 0 1 8 1 1 1 1
0 0 -1 -1 -4 -1 -1 -1 -1
-2 -2 -2 -1 -3 0 -2 -1 0
-1 -1 -1 -1 -5 -1 -1 -1 -1
-1 0 0 0 0 1 -1 -1 0
-1 0 0 0 -1 0 -1 0 0
0 0 0 0 2 0 0 0 0
-2 -2 -1 -1 -3 0 -2 -1 -1
-1 -1 0 -2 -3 -1 -1 -1 -1
0 0 0 0 1 1 0 1 1
0 0 0 0 -4 0 -1 0 0
0 0 0 0 -1 -1 0 0 0
0 -1 -1 -1 -5 -2 -1 -1 -1
0 1 1 1 9 2 0 2 2
0 -1 -1 -1 -2 -1 0 0 0
0 -2 -1 0 -4 -2 0 0 0
-1 0 0 -1 -3 -1 0 0 0
-1 0 0 0 3 1 0 1 1
2 2 1 2 4 0 0 0 -2
0 0 1 0 5 2 0 1 2
-1 -1 -1 -1 -3 0 -1 -1 -1
-1 0 0 0 1 1 0 0 1
0 0 0 0 3 0 1 1 1
-2 -1 0 -3 -4 0 -2 -1 0
0 -1 -1 0 -3 -1 0 -1 -1
0 0 1 0 6 2 0 1 1
-1 -1 -1 -2 -9 -2 -2 -2 -2
0 -1 0 -1 -1 0 -1 0 0
-1 -1 -1 -1 -6 -1 -1 -1 -1
-1 -1 -1 -1 -6 -1 -1 -1 -1
-1 -1 -1 -1 -5 -1 -1 -1 -1
0 0 0 0 -2 0 0 0 0
-1 -1 0 -1 -6 0 0 -1 0
-1 0 0 -1 0 0 0 0 0
0 0 -1 0 2 -1 0 0 0
0 -1 0 0 -4 -1 0 0 -1
-2 -1 -1 -1 1 0 -1 0 -1
0 1 1 0 6 1 0 1 2
0 1 1 1 8 2 0 2 2
-1 -1 -2 -1 -2 -1 -1 -1 -1
-1 0 0 0 5 1 0 1 1
1 -1 -1 2 3 1 2 3 1
0 1 1 1 9 2 0 1 2
0 0 0 0 4 1 0 1 2
0 0 1 0 3 1 0 1 1
0 1 1 0 7 2 0 1 2
0 1 1 1 9 2 0 2 2
0 0 0 0 -1 0 0 0 0
0 0 0 0 -2 -1 0 0 0
0 1 1 1 8 2 0 2 2
2 3 0 2 9 0 -4 0 -3
1 1 1 1 4 1 0 1 1
0 -3 -2 2 3 -3 1 0 -1
0 0 0 0 7 1 0 1 1
-1 -3 -3 -2 -14 -5 -2 -4 -4
4 2 -3 5 3 -11 2 -4 -11
2 1 -3 1 2 -7 1 2 -4
1 -2 -1 -2 -17 -5 -1 -3 -4
0 0 0 0 2 0 0 0 0
-1 -1 -1 -1 -3 -1 -1 -1 -1
0 0 -2 -1 -4 -2 -2 -2 -4
0 0 0 0 -1 -1 0 -1 -1
-1 -1 -2 0 -2 -1 -1 -1 -1
4 3 -3 2 7 -3 0 0 -8
-1 1 0 1 9 3 -1 2 2
1 1 1 -1 -9 -1 -1 -1 -1
6 1 1 5 -6 -3 1 0 0
0 0 0 0 -2 -1 0 -1 -1
0 1 0 1 8 2 -1 1 2
2 1 1 0 -3 -1 1 0 -1
1 0 -1 -1 -9 -3 -2 -3 -3
1 1 -2 1 1 -7 0 2 -4
0 1 1 1 9 3 0 1 3
1 0 0 0 -6 -1 0 -1 -1
0 -2 -2 -1 -7 -5 -1 -2 -4
1 -1 -1 0 -3 -2 -2 -3 -3
0 1 0 0 5 2 -1 1 1
-1 0 0 0 6 2 -1 1 2
0 1 1 1 7 2 0 2 2
0 0 -1 0 7 1 0 1 1
0 1 -2 -1 2 -4 -2 -1 -4
0 0 0 -1 -4 0 0 -1 0
1 0 0 0 -6 0 0 -2 -2
0 1 0 1 10 3 0 2 3
-1 -1 -1 -2 -13 -3 -2 -3 -3
0 0 0 0 1 0 0 0 0
0 0 0 -1 -2 -1 -1 -1 -1
1 -3 -2 -2 -25 -7 -3 -7 -8
1 0 1 -2 -8 -1 0 -1 0
5 3 -1 3 -1 -4 3 -4 -4
1 0 0 0 -1 -1 0 0 -1
0 0 0 0 2 0 0 0 -1
1 1 1 0 0 0 0 -1 0
0 0 0 0 -2 -1 0 -1 -1
1 0 0 0 -5 -2 1 -1 -1
0 1 1 1 9 2 0 1 2
1 2 1 2 13 3 0 2 2
0 0 0 0 2 0 0 0 0
