0.016731353476643562
-0.09222416579723358
-0.2088194638490677
-0.15780749917030334
-0.045893676578998566
-0.024163683876395226
0.23095734417438507
0.3184095323085785
0.3057527244091034
-0.5837730169296265
-0.4585130214691162
-0.22959455847740173
-0.43438443541526794
0.030715974047780037
0.267164409160614
0.14642034471035004
0.71220463514328
0.9256512522697449
-0.36411985754966736
-0.24275752902030945
-0.03564382717013359
-0.3804643750190735
0.021418778225779533
0.3650742471218109
-0.04306507855653763
0.4384878873825073
0.5180014967918396
-0.055560555309057236
-0.10665471851825714
-0.0923442542552948
-0.11992976814508438
-0.08657342940568924
-0.16223746538162231
-0.1053696796298027
-0.1722642481327057
-0.16870053112506866
0.015983901917934418
0.0012254012981429696
0.02648509107530117
0.011553820222616196
-0.019165517762303352
-0.019240573048591614
0.02341884933412075
-0.02175210230052471
-0.0066336640156805515
0.0703836977481842
0.05979340150952339
0.06168665364384651
0.04166254773736
-0.006799191236495972
0.03939239680767059
0.05899283289909363
0.03166355937719345
0.027967100962996483
0.5244677066802979
0.5202082395553589
0.4862256348133087
0.026581570506095886
-0.03992589935660362
0.01454244926571846
-0.31808093190193176
-0.5221316814422607
-0.3188590705394745
0.5069035887718201
0.7652390599250793
0.5392044186592102
0.12786303460597992
0.14568956196308136
-0.007485802285373211
-0.457001268863678
-0.6634402275085449
-0.6113411784172058
0.14246518909931183
0.44992122054100037
0.5107956528663635
-0.18919630348682404
0.009005301631987095
0.11362055689096451
-0.3004900813102722
-0.28455501794815063
-0.09789850562810898
-0.01540624350309372
-0.006650612689554691
-0.009617172181606293
0.004378993529826403
0.032194286584854126
0.02126123011112213
0.006728424225002527
0.02300700731575489
0.025412630289793015
0.040651679039001465
0.06598096340894699
0.050944432616233826
0.07162807881832123
0.0853462815284729
0.09609512984752655
0.05302737280726433
0.10532496124505997
0.07529499381780624
-0.014216581359505653
0.014617063105106354
0.004661913495510817
0.008023114874958992
0.03257257118821144
0.01611742004752159
-0.008188375271856785
0.022595226764678955
0.02376270294189453
0.0332077257335186
0.04733232781291008
0.043603070080280304
0.0518624521791935
0.02871900424361229
0.009776037186384201
-0.007741292007267475
-0.09242630749940872
-0.08015532046556473
-0.0076945167966187
-0.07693982869386673
-0.02915474958717823
-0.10630125552415848
-0.19972525537014008
-0.1874111443758011
-0.11814706772565842
-0.2989771068096161
-0.2241704910993576
-0.013875558041036129
0.02060200646519661
0.05591708794236183
0.02459709905087948
0.15319231152534485
0.11231433600187302
0.007125066127628088
0.011365726590156555
0.04070437327027321
-0.1781652271747589
-0.2400006502866745
0.8115544319152832
-0.06846141070127487
-1.4324480295181274
0.23594509065151215
0.9547353386878967
0.07192867249250412
0.23388953506946564
0.6261926293373108
-0.2818293273448944
0.7886582612991333
0.14309042692184448
-2.327897787094116
0.2289324253797531
0.8005675077438354
-0.1821005493402481
0.8659182786941528
0.27720463275909424
0.3640809953212738
0.35029366612434387
0.48449623584747314
-0.7638396620750427
-0.08823864161968231
0.34734317660331726
-0.5391379594802856
0.03055386245250702
0.09534259885549545
-0.0165255106985569
0.1544293761253357
-0.14409314095973969
-0.28157299757003784
0.35208621621131897
-0.18229499459266663
-0.05540376901626587
0.4775087833404541
-0.4970245361328125
0.14659984409809113
0.32195958495140076
-0.44225502014160156
0.31186169385910034
0.9459289312362671
-0.6702702045440674
0.009876001626253128
0.17917901277542114
0.07022960484027863
-0.14420939981937408
0.026274075731635094
0.03691832348704338
-0.09364131093025208
0.05676976963877678
0.15847788751125336
0.04976194351911545
-0.03851654753088951
0.04815831035375595
0.21965959668159485
0.1802883893251419
0.15557986497879028
0.15718142688274384
0.2931901216506958
0.10201393067836761
0.21993866562843323
0.2086016982793808
-0.11171809583902359
-0.12723152339458466
-0.07275032997131348
-0.19333502650260925
-0.30858314037323
-0.22563864290714264
-0.1243380755186081
-0.23309509456157684
-0.1693991869688034
-0.005015977192670107
0.0641794353723526
0.10426849871873856
0.02990921027958393
0.08714261651039124
0.19024984538555145
0.10413447767496109
0.1522369384765625
0.16685831546783447
-0.03496040776371956
-0.09638527035713196
-0.05785148963332176
-0.11010994017124176
-0.12856048345565796
-0.13337773084640503
-0.0699508935213089
-0.15502819418907166
-0.15068867802619934
0.03890778496861458
-0.00947384163737297
0.019291624426841736
0.0021095939446240664
-0.03624426946043968
-0.020559417083859444
0.040495630353689194
-0.008774537593126297
0.00893290713429451
0.05032163858413696
0.0026391909923404455
0.02317805401980877
-0.005581450182944536
-0.04526366665959358
-0.017912505194544792
0.010557274334132671
-0.015727465972304344
-0.01974448561668396
-0.028674069792032242
-0.030341481789946556
-0.05454137176275253
-0.05260627344250679
-0.016559239476919174
-0.07350246608257294
-0.06439400464296341
-0.09482613205909729
-0.08674599230289459
-0.09531331062316895
-0.13950121402740479
-0.13486254215240479
-0.14416496455669403
-0.12011466920375824
-0.1494910567998886
-0.13317331671714783
-0.16256193816661835
-0.16070668399333954
0.09797507524490356
0.1500893533229828
0.13242261111736298
0.12225605547428131
0.07038290053606033
0.1752815544605255
0.09747381508350372
0.1804826408624649
0.17337928712368011
-0.0879950076341629
-0.13401128351688385
-0.11929633468389511
-0.15343160927295685
-0.14920057356357574
-0.20550057291984558
-0.12198647856712341
-0.2044462412595749
-0.1824384331703186
0.006676795892417431
-0.002745106117799878
0.009802226908504963
-0.02605302818119526
0.006401717662811279
0.009417484514415264
0.015087256208062172
0.0071540228091180325
0.03071264922618866
0.04937952011823654
0.07578031718730927
0.06913601607084274
0.05680330842733383
0.08148246258497238
0.13919195532798767
0.051103852689266205
0.12318169325590134
0.15790033340454102
0.00656138826161623
-0.0055627161636948586
-0.011707204394042492
-0.010379347018897533
-0.026822803542017937
-0.03403960540890694
0.004176593851298094
-0.018873902037739754
-0.03908328339457512
-0.007471228484064341
-0.0398770272731781
-0.036236509680747986
-0.030792970210313797
-0.05371306836605072
-0.0663454607129097
-0.026882654055953026
-0.06347309052944183
-0.06643810123205185
0.010154101066291332
-0.03456786647439003
-0.03174728527665138
-0.02315519005060196
-0.037590447813272476
-0.06789983808994293
-0.028048358857631683
-0.07609166949987411
-0.07382474839687347
-0.008252098225057125
-0.012758857570588589
0.010059256106615067
-0.017456134781241417
-0.0017976615345105529
-0.016037914901971817
-0.01571979746222496
-0.02818853035569191
0.0057190414518117905
-0.010411524213850498
-0.016788480803370476
0.0003928013611584902
-0.007528588641434908
0.005513752810657024
0.010221577249467373
0.009003574028611183
0.00550543749704957
0.016543708741664886
0.03786063939332962
0.061824116855859756
0.04217449948191643
0.07475250214338303
0.1035851240158081
0.12948185205459595
0.05139753594994545
0.1262265145778656
0.1216178834438324
-1.1628247499465942
0.10668649524450302
-0.41195812821388245
-0.2528342604637146
2.4137251377105713
-0.08599520474672318
-0.38069963455200195
0.15506337583065033
-0.9435492753982544
-1.2226277589797974
0.2206927239894867
-0.8484109044075012
-0.29056239128112793
2.8960697650909424
-0.04992210119962692
-0.7806093096733093
0.252762109041214
-1.057836651802063
-0.15279613435268402
0.4822508692741394
-0.44821402430534363
-0.05020013824105263
1.0272505283355713
-0.37727493047714233
-0.4936334788799286
0.04265856370329857
-0.47476011514663696
-0.0026414403691887856
0.025332415476441383
0.0441155731678009
0.028937064111232758
0.05506560951471329
0.09725197404623032
0.05270230770111084
0.09519357234239578
0.10692411661148071
-0.0205385759472847
-0.006775818765163422
0.0026030598673969507
-0.006316773127764463
0.03290922939777374
0.02404133789241314
-0.012323384173214436
0.02054596319794655
0.04655715823173523
0.005052744410932064
0.0181050356477499
0.00915970467031002
0.03867246210575104
0.05834147706627846
0.06557533144950867
0.00315086473710835
0.07349888235330582
0.07194434106349945
0.06225056201219559
0.1218932718038559
0.1431046426296234
0.12863975763320923
0.09114072471857071
0.19492016732692719
0.12036295235157013
0.1873786747455597
0.18603986501693726
-0.035927366465330124
-0.05329571291804314
-0.03346341475844383
-0.07411467283964157
-0.06979487091302872
-0.06190633773803711
-0.04389585182070732
-0.10390812158584595
-0.06406310200691223
-0.025628764182329178
-0.10673189908266068
-0.11184580624103546
-0.12223833054304123
-0.11035958677530289
-0.21398931741714478
-0.1126478984951973
-0.22559769451618195
-0.2122676819562912
0.5920077562332153
0.7522881627082825
-0.0021229321137070656
0.8095899820327759
0.38521572947502136
-0.6069473028182983
-0.2589402198791504
-0.7856529355049133
-1.4091274738311768
1.0577582120895386
0.9234091639518738
0.017522789537906647
0.8454481959342957
0.273639053106308
-0.704247236251831
-0.1812722384929657
-0.9116382598876953
-1.779390811920166
0.11421796679496765
0.22152972221374512
-0.0607588067650795
0.30828240513801575
0.2015167474746704
-0.31963834166526794
0.14056703448295593
-0.31928861141204834
-0.8025674819946289
0.011162806302309036
-0.0038674436509609222
0.004193020984530449
-0.004132876638323069
-0.03466081619262695
-0.013374611735343933
0.0015300116501748562
-0.01815565675497055
-0.02898791991174221
0.008253618143498898
-1.025843812385574e-05
0.00856801588088274
0.007017800118774176
-0.010265055112540722
-0.024111127480864525
0.0045972769148647785
-0.0303543321788311
-0.03496065363287926
-0.016915954649448395
-0.06745157390832901
-0.060470275580883026
-0.08323147147893906
-0.06252306699752808
-0.12780314683914185
-0.07186561822891235
-0.11727526038885117
-0.11478748917579651
-0.019495241343975067
-0.0027753659524023533
0.0031962876673787832
0.009432452730834484
0.04610245302319527
0.049485042691230774
0.03130551800131798
0.040134623646736145
0.06864172965288162
0.017661307007074356
0.029051965102553368
0.021226922050118446
0.07128605991601944
0.07954483479261398
0.08135886490345001
0.05753909423947334
0.09987325966358185
0.08646160364151001
-0.011098352260887623
-0.013593158684670925
-0.00802858080714941
0.01956881582736969
0.03430185467004776
0.039928678423166275
-0.01565728895366192
0.04010210558772087
0.034368325024843216
-0.04766885191202164
-0.07645593583583832
-0.07610084116458893
-0.08467712253332138
-0.05715925619006157
-0.10458638519048691
-0.06635823100805283
-0.10603175312280655
-0.1052468866109848
0.02623242326080799
-0.011443166993558407
0.010106946341693401
0.016439620405435562
0.024161815643310547
-0.011780056171119213
0.039886243641376495
0.004026148002594709
0.021578365936875343
0.018124379217624664
-0.022673623636364937
-0.019388800486922264
-0.03911633789539337
-0.0391688197851181
-0.03944946452975273
-0.023660944774746895
-0.045975059270858765
-0.031036539003252983
-0.002980889054015279
0.016758108511567116
0.005583511665463448
-0.0023035206831991673
0.04367993772029877
0.009673281572759151
0.006972888950258493
0.0249630119651556
0.010366044007241726
-0.05482245236635208
-0.1239938884973526
-0.1063140258193016
-0.11060519516468048
-0.20539958775043488
-0.14782899618148804
-0.07413645088672638
-0.13666875660419464
-0.11224641650915146
-0.005606265272945166
0.023094872012734413
0.010029532946646214
0.01157965138554573
0.06744305789470673
0.06440448015928268
0.038630563765764236
0.07229815423488617
0.06622052192687988
-0.04165538772940636
0.24162639677524567
0.547167181968689
-0.35054507851600647
0.05572155490517616
0.4792584478855133
-0.5992292761802673
-0.3038027584552765
0.26109498739242554
-0.15764936804771423
0.10041116923093796
0.8521822094917297
-0.4889017343521118
-0.15761694312095642
0.4689042866230011
-0.4505120515823364
-0.28228479623794556
0.47371962666511536
-0.38572871685028076
-0.10175931453704834
0.09678936004638672
-0.39739906787872314
-0.00044425507076084614
0.5495625734329224
-0.15050475299358368
0.1324353665113449
0.5239108204841614
0.002193309599533677
0.006153833121061325
0.007862540893256664
0.0351683683693409
0.044157642871141434
0.06281508505344391
0.029077747836709023
0.04423011466860771
0.059356071054935455
0.023384692147374153
0.009950735606253147
-0.007921994663774967
0.0314016193151474
0.02667798101902008
0.02994604781270027
0.021027574315667152
0.03451894223690033
0.023077338933944702
0.050406698137521744
0.022102054208517075
0.041384048759937286
0.06355752050876617
0.05957229807972908
0.06488929688930511
0.05067354440689087
0.058534346520900726
0.05892206355929375
0.03969167545437813
0.056966885924339294
0.04064887762069702
0.044800687581300735
0.00969112478196621
0.09211742877960205
0.03925994783639908
0.06277429312467575
0.07331918925046921
0.01852327585220337
0.02930520288646221
0.03538629412651062
0.008241118863224983
0.01697772741317749
0.021263491362333298
0.014224497601389885
0.006875419989228249
0.013939428143203259
-0.08258804678916931
-0.1412055641412735
-0.12695622444152832
-0.1423836350440979
-0.08209492266178131
-0.19447216391563416
-0.12389936298131943
-0.19170835614204407
-0.1790468394756317
-0.03828337788581848
-0.16091346740722656
-0.0988248661160469
-0.16415804624557495
-0.12742631137371063
-0.319389671087265
-0.13369303941726685
-0.3628600835800171
-0.26197728514671326
0.09930809587240219
0.19249096512794495
0.29600170254707336
0.17823846638202667
0.173442080616951
0.46243372559547424
0.10682369768619537
0.26998838782310486
0.35078808665275574
-0.04111370071768761
0.0262789037078619
0.021365724503993988
-0.011317341588437557
-0.07314100116491318
0.10482940077781677
-0.01851184293627739
0.09054160863161087
0.14835837483406067
0.02125871740281582
-0.0325571745634079
0.0019477630266919732
-0.00047459074994549155
-0.04781525954604149
0.0031579823698848486
-0.009429438970983028
-0.03700266405940056
0.007739136461168528
0.028466282412409782
0.05321940407156944
0.030792459845542908
0.05308406800031662
0.1621890515089035
0.14106199145317078
0.06539692729711533
0.12421011179685593
0.1298191249370575
0.010864704847335815
-0.026184208691120148
-0.011721043847501278
0.006385909393429756
-0.015390022657811642
0.05050605535507202
0.010578890331089497
0.00983443297445774
0.06331003457307816
-0.010313923470675945
0.03227372467517853
0.02805251255631447
0.08070454746484756
0.06214994564652443
0.14314042031764984
0.08925789594650269
0.1555827558040619
0.1667330116033554
-0.04291754215955734
-0.04848194867372513
-0.04354642704129219
-0.004347263369709253
-0.011539078317582607
-0.014201687648892403
0.02703717350959778
0.012279639020562172
0.03433645889163017
0.01669084094464779
-0.007681766990572214
-0.005447050556540489
0.032228127121925354
0.03330225124955177
0.06400507688522339
0.050102125853300095
0.04347389563918114
0.07088474184274673
0.023205913603305817
0.03960733488202095
0.057296913117170334
0.06728680431842804
0.064487986266613
0.11145342886447906
0.0855415090918541
0.11445935815572739
0.12375841289758682
-0.01820294000208378
-0.007878124713897705
-0.013155685737729073
0.010217597708106041
0.048681024461984634
0.03384600579738617
0.011248758994042873
0.03002477064728737
0.03978239372372627
-0.002393433591350913
-0.005354834720492363
-0.007788008078932762
0.013328080996870995
0.043236613273620605
0.02483438327908516
0.012683363631367683
0.0188584141433239
0.02224731631577015
0.04331173747777939
0.08232678472995758
0.09811293333768845
0.08805646747350693
0.09864802658557892
0.21464666724205017
0.09482154250144958
0.1962529718875885
0.22513732314109802
-0.051022548228502274
-0.022013843059539795
0.021244535222649574
-0.045612554997205734
0.0041994028724730015
0.05082140490412712
-0.03320872783660889
0.020191218703985214
0.05144879221916199
-0.022829435765743256
-0.07518482953310013
-0.03460078686475754
-0.055933404713869095
-0.003389678429812193
-0.06922993063926697
-0.08089888095855713
-0.04422316700220108
-0.04333020746707916
-0.0471789613366127
-0.02737635374069214
0.0031909768003970385
-0.027857143431901932
0.011268917471170425
0.031099021434783936
-0.0009365373407490551
0.025269269943237305
0.04203202947974205
0.005895454436540604
0.028662126511335373
0.025156056508421898
0.005288871470838785
0.03329732269048691
0.04851126670837402
0.007503866218030453
0.0464198999106884
0.06483780592679977
0.023208918049931526
0.07200063765048981
0.0500962920486927
0.04757631942629814
0.09999940544366837
0.1259964555501938
0.019001945853233337
0.10699468106031418
0.11543963849544525
-0.2862463593482971
-0.12212182581424713
-0.2646455764770508
-0.15301452577114105
0.3748360574245453
0.10470379143953323
-0.2777491509914398
0.1521342545747757
0.08222317695617676
0.2516847252845764
0.11973707377910614
0.1174224466085434
-0.00996442511677742
-0.30579739809036255
-0.12200602889060974
0.050905559211969376
-0.19779072701931
-0.030324786901474
-0.03674696385860443
-0.03183306008577347
0.0012670740252360702
-0.11561474949121475
0.14688728749752045
0.031332917511463165
-0.15655475854873657
-0.0314929373562336
-0.056640200316905975
0.04337146505713463
0.10322584956884384
0.13048705458641052
0.1359301209449768
0.11542847007513046
0.23527489602565765
0.1280907690525055
0.22442632913589478
0.2278570681810379
-0.05890403315424919
-0.03412053734064102
-0.025170698761940002
-0.07296577841043472
-0.04893866553902626
-0.022496165707707405
-0.05453169345855713
-0.06325456500053406
-0.017173372209072113
-0.019972356036305428
-0.0457988865673542
-0.045421052724123
-0.06167559325695038
-0.04958653450012207
-0.08640379458665848
-0.049830880016088486
-0.09287223219871521
-0.09509042650461197
0.18243826925754547
0.03749172389507294
-0.01508351881057024
0.0017151435604318976
-0.10395703464746475
-0.2016250640153885
-0.030533213168382645
-0.11452857404947281
-0.14807720482349396
0.011310004629194736
-0.023689569905400276
-0.20981816947460175
0.10873913764953613
0.08336389064788818
-0.29889658093452454
0.07998736202716827
-0.00427312683314085
-0.2538031339645386
-0.052313100546598434
0.006700306665152311
-0.23540952801704407
0.07092081010341644
0.20801405608654022
-0.14481478929519653
0.07915835082530975
0.1845381259918213
-0.14573362469673157
0.02077806554734707
0.011333288624882698
0.036719001829624176
0.019681718200445175
0.04033162072300911
0.04289081692695618
0.03621875122189522
0.05038393661379814
0.06998834013938904
0.03231265768408775
0.04333534091711044
0.03640422224998474
0.04079195111989975
0.055325038731098175
0.06399551779031754
0.0219785925000906
0.051066700369119644
0.054013196378946304
0.002518265275284648
0.0024655358865857124
0.014048470184206963
0.016480576246976852
0.02501438558101654
0.04159504920244217
0.013256843201816082
0.018733514472842216
0.03242543712258339
-0.06778938323259354
-0.06629125773906708
-0.004142052493989468
-0.0603618361055851
-0.12206605076789856
0.01362692378461361
-0.03717648610472679
-0.03256784379482269
0.03174389898777008
0.15222297608852386
0.19638673961162567
0.19543863832950592
0.21219314634799957
0.1269596517086029
0.26320600509643555
0.1774202585220337
0.2647625505924225
0.2553374171257019
-0.01028994657099247
-0.2073356658220291
-0.1496337652206421
-0.20140580832958221
-0.1533135622739792
-0.43295666575431824
-0.23995999991893768
-0.4558904469013214
-0.42949023842811584
0.004943683743476868
-0.025074370205402374
-0.026973579078912735
-0.01902935467660427
-0.048489760607481
-0.05243990570306778
-0.026424463838338852
-0.05217453092336655
-0.06011688709259033
0.02219446934759617
-0.0104402806609869
-0.011462053284049034
-0.011408382095396519
-0.02984658069908619
-0.03986714407801628
-0.010699342004954815
-0.03438669815659523
-0.02980293706059456
-0.0029975345823913813
-0.04967617616057396
-0.035315029323101044
-0.026066938415169716
-0.05368568003177643
-0.07943589240312576
-0.030880911275744438
-0.08012083172798157
-0.08530941605567932
0.04568183794617653
0.02244686335325241
0.0010377865983173251
0.015054620802402496
0.011079766787588596
0.01186839584261179
0.005607394967228174
0.010218312963843346
-0.020769599825143814
-0.10004644840955734
-0.14267189800739288
-0.14839176833629608
-0.12650467455387115
-0.1018146201968193
-0.1804838478565216
-0.12078960239887238
-0.16762804985046387
-0.1640109121799469
0.03860532492399216
0.031243357807397842
0.016004366800189018
0.029948027804493904
0.023364046588540077
-0.00675653712823987
0.04154158756136894
-0.0026684978511184454
-0.011945509351789951
0.04671711474657059
-0.025180092081427574
-0.02933422103524208
-0.05337315425276756
-0.18937894701957703
-0.1667795330286026
-0.032027311623096466
-0.14029769599437714
-0.11155368387699127
0.011871631257236004
0.041741590946912766
0.003254608018323779
0.09854339063167572
0.24702967703342438
0.09704659879207611
0.035715579986572266
0.1346910446882248
0.05953965708613396
0.015704521909356117
-0.07985152304172516
-0.03295047953724861
-0.05537373200058937
-0.1500754952430725
-0.17094777524471283
-0.03635818511247635
-0.17795974016189575
-0.15865330398082733
0.056420065462589264
0.1975012719631195
0.19194981455802917
0.22821494936943054
0.11841235309839249
0.379231333732605
0.20880582928657532
0.36250102519989014
0.3649289608001709
-0.1138598769903183
-0.16750165820121765
-0.12785790860652924
-0.21181748807430267
-0.13897137343883514
-0.2164432406425476
-0.11067907512187958
-0.21141968667507172
-0.1772434264421463
0.06686155498027802
0.009423259645700455
0.018975641578435898
-0.022610671818256378
0.027655405923724174
-0.09621448069810867
-0.009069104678928852
-0.09261567145586014
-0.09092918783426285
0.678873598575592
0.08658698946237564
-0.49217280745506287
0.6289048790931702
0.0014914351049810648
-0.8067511320114136
0.49306705594062805
0.15408079326152802
-0.22092947363853455
0.643991231918335
0.05631469190120697
-0.835924506187439
0.8200955390930176
0.014256133697926998
-1.0669450759887695
0.8589608073234558
0.3463311791419983
-0.40592828392982483
-0.0440349318087101
-0.1807083785533905
-0.029263485223054886
0.04568593204021454
-0.14821219444274902
-0.01973583921790123
0.2273910939693451
0.35039016604423523
0.30841952562332153
0.014758296310901642
-0.011899027973413467
0.0015092534013092518
0.004156784620136023
-0.02178395353257656
0.004538118839263916
0.006849649362266064
-0.009831355884671211
-0.009957903064787388
-0.05481092631816864
-0.07704375684261322
-0.05536217987537384
-0.06336529552936554
-0.026397347450256348
-0.08035742491483688
-0.05648632347583771
-0.07651493698358536
-0.07772913575172424
-0.018246572464704514
-0.03842756524682045
-0.043235715478658676
-0.04000944271683693
-0.005197076592594385
-0.054518017917871475
-0.039885856211185455
-0.06106395274400711
-0.08542679995298386
-0.0040900567546486855
-0.03129933401942253
-0.029719073325395584
-0.03932856395840645
-0.06557133793830872
-0.07049135118722916
-0.02077574096620083
-0.07051197439432144
-0.06746320426464081
0.01027198787778616
-0.024609962478280067
-0.0236072838306427
-0.00960051640868187
-0.03259067237377167
-0.05374571308493614
-0.010124297812581062
-0.039959121495485306
-0.04991259053349495
0.02197554148733616
-0.01649126410484314
-0.01255893800407648
-0.0038643255829811096
-0.03893370181322098
-0.05643993616104126
-0.008788817562162876
-0.05505445972084999
-0.04639516770839691
-0.013171371072530746
-0.045354340225458145
-0.04714255779981613
-0.03475012257695198
-0.019161801785230637
-0.07633168995380402
-0.04123656451702118
-0.06819774955511093
-0.08573973178863525
-0.030611056834459305
-0.056195054203271866
-0.058507099747657776
-0.03325534611940384
-0.05119236558675766
-0.061519429087638855
-0.05055416747927666
-0.06208619847893715
-0.07937922328710556
0.01654704287648201
0.012768367305397987
0.008537841960787773
0.001595384906977415
-0.025474805384874344
-0.009556178003549576
0.006577729247510433
-0.014828212559223175
-0.03514272719621658
-0.0048632812686264515
-0.023911455646157265
-0.016864590346813202
-0.016649413853883743
-0.04554349556565285
-0.043759286403656006
-0.022846810519695282
-0.046225521713495255
-0.05821472778916359
-0.016143903136253357
-0.03311075270175934
-0.04500091075897217
-0.0288277305662632
-0.040667399764060974
-0.055031631141901016
-0.02893872931599617
-0.04893122613430023
-0.059783294796943665
0.0008613655809313059
-0.02000383660197258
-0.02982519380748272
-0.003953307401388884
-0.030768292024731636
-0.05959486588835716
-0.023397769778966904
-0.05339041352272034
-0.051524773240089417
0.0436682291328907
0.03758610785007477
0.05254479497671127
0.06513850390911102
0.029427064582705498
0.08444772660732269
0.04702555015683174
0.060307733714580536
0.07295651733875275
-0.02495671808719635
-0.02267313376069069
-0.024936167523264885
-0.024428198114037514
-0.016729215160012245
-0.02143716625869274
-0.03527235984802246
-0.05175063759088516
-0.03933310881257057
-0.0678274855017662
-0.0926545187830925
-0.09454406797885895
-0.11041423678398132
-0.07133219391107559
-0.1479499787092209
-0.08754008263349533
-0.14555613696575165
-0.15515147149562836
-0.03359680250287056
-0.0135071175172925
0.01800168678164482
-0.004852956160902977
0.025937438011169434
0.06636334210634232
0.02349250763654709
0.03851569816470146
0.07227764278650284
0.016634909436106682
0.046131767332553864
0.027481505647301674
0.061260804533958435
0.07476193457841873
0.101412832736969
0.06017887964844704
0.11311905831098557
0.08712689578533173
0.017865575850009918
-0.002498068381100893
0.002411801600828767
0.023241732269525528
0.008841307833790779
0.03397604450583458
0.0008786664111539721
0.00410548085346818
0.03921174630522728
-0.019359853118658066
-0.029379097744822502
0.005512339994311333
-0.011549064889550209
0.023541133850812912
0.0343213826417923
0.027966918423771858
0.028396112844347954
0.06223897263407707
0.027289332821965218
0.045537885278463364
0.029308173805475235
0.04404079169034958
0.054523203521966934
0.0971447080373764
0.02837146446108818
0.08626919984817505
0.0935470312833786
-0.0033482566941529512
0.0030115852132439613
0.022455446422100067
0.011548963375389576
0.04262220859527588
0.07171827554702759
0.013553938828408718
0.07223760336637497
0.08188152313232422
0.03798270970582962
0.0010914804879575968
0.01299222745001316
-0.01112573966383934
-0.040966469794511795
-0.035073280334472656
-0.0038219450507313013
-0.021840693429112434
-0.03128131851553917
0.026110077276825905
-0.02247149497270584
-0.030610810965299606
-0.010796126909554005
-0.04101171717047691
-0.05560193583369255
-0.009366334415972233
-0.06507702171802521
-0.07103823870420456
0.016067754477262497
-0.04719351977109909
-0.05194078013300896
-0.033014968037605286
-0.045463766902685165
-0.10883455723524094
-0.04796231910586357
-0.11507474631071091
-0.12199460715055466