0.47705185413360596
0.08049967139959335
-0.20700602233409882
0.07413134723901749
-0.7017495036125183
-0.522100031375885
0.48353254795074463
0.28003934025764465
0.08848151564598083
0.5966925024986267
-0.01452043280005455
0.6629632115364075
-0.10830830782651901
-1.6582366228103638
0.13662423193454742
0.44368651509284973
-0.0340743362903595
0.708482563495636
0.2164386808872223
-0.11072385311126709
0.309391587972641
-0.10276921838521957
-0.7934037446975708
0.35909584164619446
-0.031446367502212524
0.08663900196552277
0.6254337430000305
-0.06580399721860886
-0.1051705852150917
-0.12173372507095337
-0.10608581453561783
-0.05397314578294754
-0.16679903864860535
-0.12370702624320984
-0.1539161652326584
-0.19636842608451843
0.0669737160205841
0.060805417597293854
0.06417801976203918
0.05890451371669769
-0.008113979361951351
0.007177240680903196
0.05940937623381615
-0.019606739282608032
-0.0023478977382183075
0.015617404133081436
0.010970041155815125
0.006923395209014416
-0.00044435623567551374
-0.02757302299141884
-0.010227059945464134
0.029652025550603867
-0.019824624061584473
-0.03716624900698662
0.07185837626457214
-0.011908456683158875
0.08434940129518509
-0.11296495050191879
-0.15129336714744568
-0.08074719458818436
-0.09667041152715683
-0.1275239735841751
-0.11285693943500519
0.14963561296463013
0.2628948390483856
0.21561193466186523
0.16583094000816345
0.15267083048820496
0.24893857538700104
0.08789899945259094
0.022029699757695198
0.0334206186234951
0.07203295826911926
0.1253499686717987
0.140190988779068
0.038618303835392
0.010942565277218819
0.005273900926113129
-0.050652291625738144
-0.09357854723930359
-0.09889612346887589
0.7396805286407471
0.2266468107700348
-0.561681866645813
1.1933616399765015
0.2147049903869629
-0.921043336391449
0.5212546586990356
-0.387189656496048
-1.5269029140472412
0.8560133576393127
0.2874571681022644
-0.5315676331520081
1.2250308990478516
0.1480558067560196
-1.0892820358276367
0.5932614803314209
-0.3722997009754181
-1.747008204460144
-0.050611697137355804
-0.04272621124982834
-0.21628256142139435
0.1939346045255661
0.1267099827528
-0.18549008667469025
0.21401801705360413
-0.10563217103481293
-0.3118126690387726
0.04318081587553024
0.053903110325336456
0.07496527582406998
0.0995657742023468
0.019066259264945984
0.12293235957622528
0.11398572474718094
0.05204037204384804
0.0797855481505394
-0.10316172987222672
-0.1974613517522812
-0.15515926480293274
-0.18802373111248016
-0.25194159150123596
-0.29414471983909607
-0.16952712833881378
-0.30636656284332275
-0.2868900001049042
0.019253529608249664
0.015758834779262543
0.0322679728269577
0.0064026787877082825
0.04950636252760887
0.0624544695019722
0.024006828665733337
0.030766254290938377
0.06610994786024094
0.060110077261924744
0.052979692816734314
0.05895552039146423
0.05306749418377876
0.03191124647855759
0.06864505261182785
0.07916968315839767
0.08001334965229034
0.04945382848381996
-0.049645014107227325
-0.07274428009986877
-0.013826927170157433
-0.05510716140270233
-0.09440334141254425
-0.08842910081148148
-0.06830181926488876
-0.10229574143886566
-0.04933346435427666
-0.008065258152782917
-0.04500490054488182
-0.08695557713508606
-0.04318380728363991
-0.10154931247234344
-0.10929268598556519
-0.08030194789171219
-0.10907173156738281
-0.09918540716171265
-0.06803584843873978
-0.046839453279972076
-0.019195323809981346
-0.03560388833284378
-0.009005746804177761
0.004558769054710865
-0.06890378147363663
-0.024301698431372643
0.012730863876640797
-0.013370875269174576
0.08692742139101028
0.06069954112172127
0.009510496631264687
0.08260120451450348
0.08289768546819687
0.005683181341737509
0.09470686316490173
0.061598945409059525
0.011372615583240986
0.052313461899757385
0.08207692205905914
0.05726885423064232
0.09319847077131271
0.12549957633018494
0.03490784391760826
0.09178552031517029
0.08045731484889984
0.03109014965593815
0.037745893001556396
0.04373316094279289
-0.015333577059209347
-0.01723715104162693
-0.015602554194629192
-0.012396860867738724
-0.013557173311710358
0.01963876746594906
-0.04814305901527405
-0.05985775589942932
-0.04368896037340164
-0.03601932153105736
-0.07125431299209595
-0.08020523935556412
-0.06427839398384094
-0.049477554857730865
-0.06957709044218063
-0.0028116817120462656
-0.03375348076224327
-0.03830363228917122
-0.04578526318073273
-0.03999970853328705
-0.061890292912721634
-0.05700293928384781
-0.07179754227399826
-0.06556433439254761
-0.10065589845180511
-0.12209919840097427
-0.09517142921686172
-0.14860455691814423
-0.1014481708407402
-0.11307239532470703
-0.10809142142534256
-0.12644359469413757
-0.18498170375823975
0.04511505737900734
-0.02148282714188099
0.007361588999629021
-0.008413068950176239
-0.0192042775452137
-0.003439967054873705
0.037656981498003006
-0.0028571325819939375
0.029165683314204216
0.05877043306827545
-0.00035283301258459687
0.04176079481840134
0.013442657887935638
0.0004175283247604966
0.029309222474694252
0.04083888605237007
0.04773793742060661
0.020427821204066277
-0.06233668699860573
-0.042928874492645264
-0.15003228187561035
-0.07299268990755081
-0.09861461818218231
-0.1309642791748047
-0.09577718377113342
-0.12386623024940491
-0.08404462039470673
-0.0222539771348238
-0.02164958417415619
-0.11534281820058823
-0.04391779378056526
0.04266979172825813
0.04234674945473671
-0.040805794298648834
0.01866050250828266
-0.01333603635430336
-0.071656234562397
0.038778141140937805
-0.009490820579230785
0.03940250352025032
0.10030949115753174
0.07263130694627762
0.0391269288957119
0.19883373379707336
0.10947629064321518
-0.07388491928577423
-0.12355538457632065
-0.13846109807491302
-0.1361151784658432
-0.14179319143295288
-0.22131110727787018
-0.1139126718044281
-0.1925794631242752
-0.19536054134368896
0.0008121823193505406
-0.0012990070972591639
-0.04224963113665581
-0.04371921345591545
0.02900511398911476
-0.02649618312716484
0.011104103177785873
-0.016461782157421112
-0.02172815054655075
0.006534975953400135
0.049533743411302567
0.01674124225974083
0.06129170209169388
0.11433739215135574
0.0884140133857727
0.03918614983558655
0.08168879896402359
0.09781868755817413
0.006408827845007181
0.015398730523884296
0.0052528418600559235
-0.03331592679023743
-0.06138407811522484
-0.05165242403745651
-0.010998383164405823
-0.03604830056428909
-0.057080771774053574
0.05905283987522125
0.03537842631340027
0.04989071562886238
0.012195286341011524
-0.04863562807440758
-0.0147319994866848
0.023376615718007088
-0.03061077930033207
0.006734513211995363
0.006839481182396412
-0.07668548822402954
-0.0548064224421978
-0.06125088408589363
-0.07028828561306
-0.11528544872999191
-0.08527574688196182
-0.1578342467546463
-0.1276189237833023
0.01686260849237442
0.01143699698150158
0.015280015766620636
-0.01631687954068184
0.008778958581387997
-0.027568453922867775
-0.04301841929554939
-0.039815910160541534
0.018386874347925186
-0.04889443889260292
-0.06720001250505447
-0.03914082422852516
-0.02589157223701477
-0.008845874108374119
0.0012743616243824363
-0.03203856199979782
-0.03936484456062317
-0.03766065090894699
0.047321438789367676
0.1008031815290451
0.06358526647090912
0.11474442481994629
0.16982044279575348
0.18052580952644348
0.06404973566532135
0.15789593756198883
0.13399706780910492
-0.05240217223763466
0.007383269257843494
0.02243310585618019
0.05839868262410164
0.03960280120372772
0.13893626630306244
0.07384972274303436
0.1404353529214859
0.19266293942928314
-0.09963762015104294
-0.0688108503818512
-0.038246504962444305
0.015006219036877155
-0.02195189706981182
0.07152025401592255
0.0343145988881588
0.01096383761614561
0.0443839430809021
-0.14505566656589508
-0.17695695161819458
-0.09709734469652176
-0.15431924164295197
-0.12352152913808823
-0.14658339321613312
-0.13645139336585999
-0.07890100032091141
-0.04388086125254631
-0.029400218278169632
0.025622108951210976
0.026186691597104073
-0.025494148954749107
0.04666266590356827
0.06915706396102905
0.0019038388272747397
0.07829731702804565
0.07235312461853027
-0.02817261591553688
-0.009970062412321568
0.012516421265900135
-0.009768309071660042
0.009548675268888474
0.010411766357719898
-0.03414992243051529
-0.003596504917368293
0.06307961046695709
0.019316688179969788
0.031407345086336136
0.019193673506379128
0.07314548641443253
0.07968425750732422
0.0927608460187912
0.04243530333042145
0.11564628034830093
0.1159924790263176
0.021011285483837128
0.10550501197576523
0.0927724614739418
0.08865000307559967
0.09300963580608368
0.13233952224254608
0.09522879868745804
0.17399443686008453
0.165433868765831
-0.02414865419268608
-0.003145803464576602
0.00877945777028799
0.004665198735892773
0.008794933557510376
0.06005796045064926
0.012325783260166645
0.01781337521970272
0.05697375535964966
0.0016238262178376317
-0.01222448144108057
-0.03798185661435127
-0.02801954187452793
-0.016260268166661263
-0.04008078947663307
-0.014574103057384491
-0.05477166548371315
-0.015565523877739906
0.7488255500793457
1.0919113159179688
0.618912935256958
0.32375970482826233
0.04799523949623108
-0.33393996953964233
-0.6079361438751221
-1.2292405366897583
-1.488943338394165
0.7752907276153564
1.218631625175476
0.9939684271812439
0.273843377828598
0.1263449639081955
-0.17693287134170532
-0.7606875896453857
-1.2837904691696167
-1.7249606847763062
0.021349772810935974
0.19704356789588928
0.18816746771335602
-0.0909968689084053
-0.1346760392189026
0.13350000977516174
-0.14906850457191467
-0.41488420963287354
-0.37914732098579407
0.04570328816771507
0.028208717703819275
0.03748033940792084
0.07151688635349274
-0.018207453191280365
0.05674027279019356
0.08164827525615692
0.06763387471437454
0.03903713822364807
0.028703002259135246
0.023797541856765747
0.046387139707803726
0.07428886741399765
0.0008308449760079384
0.013993168249726295
0.056115757673978806
-0.012243940494954586
-0.001975452294573188
-0.06131371855735779
-0.12661129236221313
-0.11424268782138824
-0.12759929895401
-0.11183109879493713
-0.19591759145259857
-0.10885737836360931
-0.1659199744462967
-0.1540849208831787
-0.06303884088993073
-0.017979558557271957
-0.05631551519036293
-0.03705766424536705
0.027774080634117126
0.027440877631306648
0.006883183494210243
0.024424124509096146
0.09118934720754623
-0.048109911382198334
0.012305784039199352
-0.002712299581617117
0.07895466685295105
0.09570468962192535
0.08086699992418289
0.07436253875494003
0.15832757949829102
0.1867123544216156
-0.015184951946139336
-0.012963416054844856
0.009071683511137962
0.016221484169363976
0.03224463388323784
0.06243567913770676
0.0018465332686901093
0.07905244827270508
0.08345869928598404
0.00980500690639019
0.035885345190763474
0.03352481499314308
0.020920047536492348
-0.011948974803090096
0.04088493809103966
0.03055773675441742
0.04111148416996002
0.009968116879463196
0.10727696120738983
0.046950045973062515
0.06590462476015091
0.07738731056451797
0.07697754353284836
0.07665930688381195
0.08979703485965729
0.04864570125937462
0.117674320936203
-0.05331901088356972
-0.16162829101085663
-0.17973291873931885
-0.1575755625963211
-0.12055148184299469
-0.21196870505809784
-0.1731029599905014
-0.2118542194366455
-0.20161400735378265
0.02940131165087223
0.029106587171554565
0.07298259437084198
-0.00594446063041687
0.0287052933126688
0.060725145041942596
0.017053864896297455
0.0023846402764320374
0.015279358252882957
-0.05569610744714737
-0.19541360437870026
-0.1648813635110855
-0.13476739823818207
-0.2622816860675812
-0.19788368046283722
-0.12104291468858719
-0.20475399494171143
-0.20178566873073578
0.04886569827795029
0.048212453722953796
0.011757174506783485
0.04623105004429817
0.08128990978002548
0.10888925939798355
0.04749969765543938
0.09038341790437698
0.06158045679330826
0.0038771876133978367
0.09045525640249252
0.10528630763292313
0.08482371270656586
0.13963553309440613
0.13778209686279297
0.031161975115537643
0.12758132815361023
0.22589285671710968
-0.058617886155843735
-0.11579389870166779
-0.01873370260000229
-0.02087898924946785
-0.14489564299583435
-0.10946979373693466
-0.04982972517609596
-0.02225244604051113
-0.025492629036307335
0.020847409963607788
0.052882447838783264
0.0537242628633976
0.08708924800157547
0.07620353251695633
0.06406482309103012
0.04181148484349251
0.04824112728238106
0.14615148305892944
0.013137251138687134
0.04066374897956848
-0.01996195688843727
0.08219480514526367
0.09852806478738785
0.09705982357263565
0.04278522729873657
0.0880466178059578
0.0763230100274086
0.018276534974575043
0.005091693717986345
-0.018584121018648148
0.06370601058006287
0.029315456748008728
0.04106900840997696
0.05118139460682869
0.07962960749864578
0.059764061123132706
-0.0004977741045877337
-0.028206191956996918
-0.019102081656455994
0.028177883476018906
0.031100405380129814
0.0031746577005833387
0.04310925677418709
0.014675022102892399
0.004699797835201025
0.0307515449821949
0.06222730502486229
0.017688343301415443
0.07106869667768478
-0.00505526689812541
0.17980244755744934
0.0889129564166069
0.14362382888793945
0.19683758914470673
-0.06329545378684998
-0.06324823945760727
-0.04275043308734894
-0.07999709248542786
-0.08205581456422806
-0.06239917501807213
-0.09664938598871231
-0.08526334911584854
-0.03698417916893959
-0.02480912208557129
-0.08873245865106583
-0.04238651320338249
-0.06346536427736282
-0.05690202862024307
-0.09752049297094345
-0.04239548370242119
-0.11536891013383865
-0.03528846055269241
0.08074671775102615
-0.03929457440972328
0.07995302975177765
-0.08232580125331879
-0.07478073239326477
-0.1902403086423874
-0.15482686460018158
-0.28837698698043823
-0.18261933326721191
0.14750298857688904
0.07888591289520264
0.14984436333179474
0.09890495240688324
0.0016437106532976031
0.17393051087856293
-0.008113903924822807
0.014891332015395164
0.08447844535112381
0.05590227618813515
0.101157546043396
0.047866545617580414
0.13166402280330658
-0.08213941752910614
0.09174526482820511
0.0685018002986908
0.0926632210612297
0.10166853666305542
-0.011117744259536266
-0.28255629539489746
0.31054314970970154
-0.09120728075504303
-0.47799190878868103
0.5112361311912537
-0.17045196890830994
0.005356175824999809
0.7965785264968872
0.2819446623325348
0.28129342198371887
-0.17715394496917725
0.07837490737438202
0.30125388503074646
0.09448584169149399
-0.2575436234474182
-0.36802276968955994
-0.15619716048240662
0.17109836637973785
-0.07611357420682907
-0.3207126557826996
0.36526232957839966
0.01728137768805027
-0.03333285078406334
0.20923754572868347
-0.008852516300976276
-0.07329612970352173
-0.05861235037446022
0.02053825557231903
-0.007678816560655832
-0.0020204319152981043
0.04962097108364105
0.07006558775901794
0.0015612634597346187
0.08348691463470459
0.06690284609794617
-0.07802735269069672
-0.024905702099204063
-0.032521121203899384
0.015115626156330109
0.03079364262521267
0.051611535251140594
0.01852269656956196
0.09193842858076096
0.11493920534849167
-0.008790609426796436
0.0021932178642600775
0.01556337345391512
0.016484325751662254
0.03677684813737869
0.10997006297111511
0.08312642574310303
0.0872853621840477
0.14310969412326813
-0.028694789856672287
-0.028740234673023224
0.010205918923020363
-0.04304637759923935
-0.045757927000522614
-0.04950809106230736
-0.003006399143487215
-0.0373748242855072
-0.041834041476249695
-0.002634905744343996
-0.04306025803089142
-0.04796266928315163
-0.020838938653469086
-0.010819263756275177
-0.03227539733052254
-0.002913303906098008
-0.010996483266353607
-0.0053066895343363285
-0.031000766903162003
-0.04353497177362442
-0.051304467022418976
-0.06902790069580078
-0.05557144060730934
-0.0584467314183712
-0.018156826496124268
-0.07847223430871964
-0.059422943741083145
-0.16130423545837402
0.11021094769239426
0.5770978927612305
-0.46880993247032166
-0.2577499449253082
0.7887493371963501
-0.8234472274780273
-0.44095349311828613
0.40936344861984253
-0.153294175863266
0.538138210773468
1.3067384958267212
-0.6706429123878479
-0.1149449273943901
0.8044443726539612
-1.4178049564361572
-0.776446521282196
0.041450370103120804
0.4007653594017029
0.2179098278284073
0.46167513728141785
-0.17888449132442474
-0.1490124613046646
0.13146041333675385
-0.43710091710090637
-0.5907092094421387
-0.20128914713859558
-0.0026321171317249537
-0.05452662706375122
-0.03597879409790039
-0.0544142909348011
-0.09295526146888733
-0.054106567054986954
-0.02917572855949402
-0.05227912589907646
-0.04198048263788223
0.047346193343400955
-0.001285145990550518
-0.009766686707735062
-0.015996795147657394
-0.042212605476379395
-0.03648745268583298
-0.0018565425416454673
-0.02780560776591301
0.0023435575421899557
-0.02291719987988472
-0.015484086237847805
-0.057831060141325
-0.04269830137491226
-0.02857191488146782
-0.032595761120319366
-0.06074756383895874
-0.06622210144996643
-0.06065017357468605
-0.7107783555984497
-0.22924375534057617
-0.09802130609750748
-0.3924312889575958
1.0557236671447754
0.23071396350860596
-0.3532918393611908
0.21366778016090393
-0.2564277648925781
0.22930501401424408
0.244823157787323
-0.8874605298042297
0.6639915704727173
0.8275451064109802
-0.42589861154556274
-0.2696857750415802
-0.049434538930654526
-0.7114314436912537
-0.2426324039697647
-0.0009533055126667023
-0.25309765338897705
-0.1988096386194229
0.7270716428756714
0.05138643458485603
-0.4723920226097107
0.02385854162275791
-0.12175994366407394
0.09886511415243149
0.10050160437822342
0.1505756676197052
0.10950121283531189
0.06116623058915138
0.1364867389202118
0.141837015748024
0.1556243896484375
0.1472228765487671
0.029397068545222282
0.01564749702811241
0.01983279548585415
-0.008710644207894802
-0.02146323025226593
4.294628161005676e-05
-0.030743306502699852
-0.05175938457250595
0.008515609428286552
-0.03377161920070648
-0.045223675668239594
-0.06261389702558517
-0.03692812845110893
-0.03521198779344559
-0.07243529707193375
-0.03236786276102066
-0.10090962052345276
-0.10907002538442612
0.032176654785871506
-0.113089419901371
-0.12184670567512512
-0.09194489568471909
-0.06988266110420227
-0.13079528510570526
-0.07815735787153244
-0.13658510148525238
-0.26248008012771606
0.04163279011845589
-0.03118397854268551
-0.05129067599773407
0.07132058590650558
0.068757563829422
-0.09821448475122452
0.006409430410712957
-0.061521194875240326
-0.15877285599708557
0.06608988344669342
0.13168127834796906
0.0835566446185112
0.16983166337013245
0.1277003288269043
0.040928006172180176
0.11673205345869064
0.14918774366378784
0.014874097891151905
0.023499291390180588
-0.0007002619095146656
0.024361230432987213
-0.041501838713884354
-0.0352734811604023
-0.05400647222995758
-0.03642941638827324
-0.03899464011192322
-0.015970541164278984
0.04431583732366562
0.13093781471252441
0.11231452971696854
0.08546990901231766
0.16432338953018188
0.13835306465625763
-0.02477889321744442
0.061367396265268326
0.07550644874572754
0.007424437906593084
0.025463251397013664
0.026602277532219887
0.013549099676311016
0.007626271806657314
0.0330699197947979
0.016807036474347115
-0.04525785148143768
-0.02000696398317814
-0.03605484962463379
-0.1059841737151146
-0.05779513716697693
-0.1509580761194229
-0.24190104007720947
-0.1525474339723587
-0.09372391551733017
-0.2633274495601654
-0.15818694233894348
0.014434280805289745
0.1737499237060547
0.13216401636600494
0.2250724732875824
0.24018777906894684
0.1982203871011734
0.1655241996049881
0.25039559602737427
0.18718615174293518
0.03372062370181084
-0.11494375020265579
-0.051831480115652084
-0.12383796274662018
-0.16306352615356445
-0.24559617042541504
-0.09195956587791443
-0.19286541640758514
-0.21185743808746338
0.0478212833404541
0.0018843106226995587
-0.006826245225965977
0.0505194254219532
-0.02333875000476837
-0.024872658774256706
0.012262474745512009
-0.020560773089528084
-0.027397746220231056
0.07355965673923492
0.048155952244997025
0.04397553950548172
0.021333396434783936
-0.006658665370196104
0.023904716596007347
0.017199115827679634
0.022030051797628403
0.053906939923763275
-0.09575475007295609
-0.12802578508853912
-0.12078320235013962
-0.06850229948759079
-0.10213320702314377
-0.1601775586605072
-0.09248459339141846
-0.143275186419487
-0.1661502867937088
0.07958511263132095
0.12694308161735535
0.08170191943645477
0.1252444088459015
0.13945497572422028
0.23826026916503906
0.09579945355653763
0.23022045195102692
0.22495879232883453
-0.11596076935529709
-0.06746277958154678
-0.09158330410718918
-0.07195106148719788
-0.09867244958877563
-0.09978470206260681
-0.0576884001493454
-0.06851720809936523
-0.01501932181417942
0.04049849137663841
0.05068960413336754
0.026821419596672058
0.02154611051082611
0.05688644200563431
0.02248971164226532
0.051489003002643585
0.007276835851371288
0.03973598778247833
-0.05562876909971237
-0.1115075871348381
-0.1838613748550415
-0.1543835550546646
-0.2141433209180832
-0.3295937776565552
-0.14591500163078308
-0.28449156880378723
-0.33075544238090515
0.0012676490005105734
0.11825975775718689
0.058949876576662064
0.13950684666633606
0.28227901458740234
0.15345507860183716
0.09972327947616577
0.24554981291294098
0.19212041795253754
-0.033712226897478104
-0.053848590701818466
-0.06462371349334717
-0.02655799873173237
-0.0797036662697792
-0.14523863792419434
-0.012332510203123093
-0.03457668423652649
-0.1303427815437317
0.02251988649368286
0.04354650154709816
0.011636633425951004
0.04040294140577316
0.011096298694610596
0.014808621257543564
0.02562537044286728
0.0062758359126746655
0.013744983822107315
-0.07336887717247009
-0.16670815646648407
-0.12473580241203308
-0.16889959573745728
-0.10694578289985657
-0.16990156471729279
-0.09281720221042633
-0.1713552176952362
-0.1613265872001648
0.0688561499118805
0.019793737679719925
0.03819640725851059
0.025177035480737686
-0.04893823340535164
0.010534526780247688
0.01625359058380127
-0.027524394914507866
0.02421433851122856
0.6711536049842834
0.09579364210367203
-0.6954320669174194
1.071548342704773
0.08711455017328262
-1.0140339136123657
0.838959813117981
0.26830917596817017
-0.6446614265441895
1.0448936223983765
-0.016894135624170303
-1.3669452667236328
1.2989403009414673
0.21545949578285217
-1.5525091886520386
1.4634644985198975
0.4527827799320221
-0.9783957004547119
0.5184692740440369
0.19691750407218933
-0.3293558359146118
0.5942359566688538
-0.003916836343705654
-0.5616675019264221
0.4932872951030731
0.10863510519266129
-0.45060303807258606
-0.03462577238678932
-0.09412314742803574
-0.0051127332262694836
-0.08024018257856369
-0.023320771753787994
0.008179058320820332
-0.03388176113367081
-0.0414915531873703
-0.01580960862338543
-0.1679297536611557
-0.18599942326545715
-0.09754280000925064
-0.180058553814888
-0.06743334978818893
-0.14589440822601318
-0.15554286539554596
-0.1552441269159317
-0.18082363903522491
0.037116728723049164
0.04938885197043419
0.07071390748023987
0.07555722445249557
0.11011911183595657
0.17305375635623932
0.06440545618534088
0.11454756557941437
0.09656073153018951
-0.017678139731287956
-0.010147507302463055
-0.016599908471107483
-0.03672473132610321
-0.05349085479974747
-0.04740751534700394
-0.018894238397479057
-0.06709104031324387
-0.06733056902885437
0.00863480381667614
-0.026276057586073875
-0.02633010596036911
-0.021128520369529724
-0.025233272463083267
-0.0344553142786026
-0.02871806174516678
-0.026426279917359352
-0.04475174844264984
-0.006770113483071327
-0.03523416444659233
-0.04329269379377365
-0.015567903406918049
-0.04826408997178078
-0.06767216324806213
-0.020989995449781418
-0.0503934845328331
-0.034212496131658554
0.004826504737138748
-0.02835640124976635
-0.015512258745729923
-0.01815314218401909
-0.017280718311667442
-0.07353673130273819
-0.023466063663363457
-0.029557570815086365
-0.06384235620498657
-0.03920944407582283
-0.037833262234926224
-0.07761190086603165
-0.04557746276259422
-0.0775829330086708
-0.0515911839902401
-0.07799579948186874
-0.05949696525931358
-0.10115078836679459
0.010243563912808895
0.011410747654736042
0.026714524254202843
-0.02006792649626732
-0.02192632481455803
0.004860116634517908
-0.0030352454632520676
-0.017265871167182922
-0.0493633858859539
-0.007336475420743227
-0.029972732067108154
0.009425508789718151
-0.004170334432274103
-0.05932917073369026
-0.025292424485087395
-0.011041714809834957
-0.03247402608394623
-0.03910587728023529
-0.011834605596959591
-0.013415155932307243
-0.044392023235559464
-0.04999478533864021
-0.04539686068892479
-0.04496323689818382
-0.010747235268354416
-0.04347917437553406
-0.04077348858118057
-0.010389504954218864
-0.029763048514723778
-0.03444333001971245
-0.006673135329037905
-0.07076438516378403
-0.07475505769252777
-0.04673129320144653
-0.06383810192346573
-0.03354686126112938
0.11017680913209915
0.07117640227079391
0.11595025658607483
0.12404897809028625
0.060041021555662155
0.14510276913642883
0.10840238630771637
0.1026359349489212
0.15479227900505066
-0.0271812304854393
-0.021364741027355194
-0.029941614717245102
-0.016070669516921043
-0.027118319645524025
-0.011473212391138077
-0.05263062193989754
-0.059364065527915955
-0.038224317133426666
-0.07932739704847336
-0.07457689940929413
-0.10465001314878464
-0.11760663241147995
-0.09827006608247757
-0.15933367609977722
-0.09256847202777863
-0.17123670876026154
-0.1716039925813675
-0.06368331611156464
-0.013568758964538574
-0.006209850776940584
-0.024463679641485214
-0.0022418154403567314
0.040970128029584885
0.012070500291883945
0.009269378148019314
0.02790745347738266
-0.012571009807288647
0.07898478955030441
0.02159218117594719
0.11161679029464722
0.15991860628128052
0.13943925499916077
0.11710783839225769
0.21652136743068695
0.1480592042207718
-0.03618403151631355
-0.002752655418589711
-0.0370623916387558
-0.014915869571268559
-0.027373503893613815
0.007844745181500912
-0.035631272941827774
-0.04103228449821472
0.02217921055853367
-0.04723869636654854
-0.048600077629089355
-0.041676584631204605
-0.06783138960599899
-0.001291452208533883
-0.006705228239297867
0.013690763153135777
0.021704504266381264
0.05451755225658417
-0.010468121618032455
0.03760242089629173
-0.027802089229226112
0.03584892675280571
0.04531944915652275
0.09438939392566681
-0.01947435550391674
0.09656794369220734
0.129408061504364
-0.07105379551649094
0.033991195261478424
0.06553390622138977
0.0002342293446417898
0.07635697722434998
0.12223319709300995
0.06319114565849304
0.1458474099636078
0.16626855731010437
-0.04145272821187973
-0.007301898207515478
-0.007181493099778891
-0.024647602811455727
0.02559993602335453
0.0561138354241848
-0.011015532538294792
0.09016170352697372
0.08235923200845718
0.043167728930711746
0.11281689256429672
0.06318539381027222
0.09577184915542603
0.1173117607831955
0.17053495347499847
0.09246797114610672
0.13364443182945251
0.1665622442960739
-0.05791008099913597
-0.03694935142993927
-0.05062982439994812
-0.011162673123180866
0.028226088732481003
0.0022260297555476427
-0.03463219851255417
-0.014479859732091427
0.009745270013809204