3x3 kernel: 0.0019209235906600952 0.15435568988323212 -0.1399940848350525 0.037546634674072266 -0.03919452428817749 -0.04394178092479706 -0.13241586089134216 0.16595174372196198 -0.0743567943572998 0.08374683558940887 0.06869925558567047 -0.17151109874248505 -0.015334397554397583 -0.10844290256500244 -0.06981013715267181 -0.0291481614112854 -0.13112442195415497 -0.10597576200962067 0.05536980926990509 0.06855790317058563 -0.17877313494682312 -0.11914655566215515 0.04059748351573944 0.1821388453245163 -0.13491801917552948 0.10698111355304718 0.024789348244667053 -0.13150346279144287 0.18818961083889008 -0.07594888657331467 -0.057352349162101746 0.0989418774843216 -0.17305198311805725 0.11843447387218475 -0.10320200026035309 0.08646635711193085 0.12662751972675323 0.0996270626783371 -0.1811666488647461 -0.11660811305046082 -0.03945530951023102 -0.17338827252388 0.036928772926330566 0.14009056985378265 -0.18928611278533936 -0.13959649205207825 -0.05695851147174835 0.09134863317012787 -0.06661103665828705 -0.02143089473247528 0.07225678861141205 -0.1212003082036972 -0.10433195531368256 0.10611803829669952 -0.17630958557128906 -0.03923606872558594 -0.1597764641046524 -0.08902952075004578 0.10347779095172882 -0.04384389519691467 0.00745825469493866 0.16043336689472198 0.13921312987804413 -0.06835665553808212 0.18209002912044525 -0.1109367311000824 -0.018761977553367615 -0.17117564380168915 0.04567652940750122 -0.07717586308717728 0.11755405366420746 -0.045679569244384766 0.15739880502223969 0.010447949171066284 -0.1806509643793106 -0.15216824412345886 -0.15463688969612122 0.16144360601902008 -0.09044205397367477 0.010850086808204651 0.03573225438594818 -0.09116540849208832 0.17995642125606537 0.09482981264591217 0.18278689682483673 -0.042554110288619995 0.05655777454376221 -0.022164106369018555 0.15420256555080414 -0.08759542554616928 -0.08522530645132065 -0.08206240832805634 -0.1624308079481125 -0.16126680374145508 0.02855852246284485 0.14478300511837006 -0.1806807667016983 -0.021183833479881287 -0.049070850014686584 0.0537390261888504 0.015622884035110474 0.07407854497432709 -0.07074035704135895 0.1687323898077011 0.11923350393772125 0.18201209604740143 -0.13458333909511566 -0.12424134463071823 0.1876130849123001 -0.0975848063826561 0.17120866477489471 -0.17388533055782318 0.11163868010044098 -0.1881408840417862 -0.17921629548072815 -0.01759159564971924 -0.005726918578147888 0.06373943388462067 0.14671368896961212 -0.05603663623332977 -0.08158115297555923 0.12439124286174774 -0.13408246636390686 0.03779633343219757 0.0361250638961792 0.06117309629917145 0.15685532987117767 -0.08168625086545944 0.13271267712116241 0.08149035274982452 -0.030795767903327942 -0.11825476586818695 0.05873294174671173 0.07263894379138947 0.11307553946971893 -0.05817648768424988 0.1553550809621811 -0.17997848987579346 -0.09947092831134796 -0.01879332959651947 0.023610517382621765 -0.05207444727420807 -0.1048353910446167 -0.041787028312683105 -0.03705379366874695 -0.06897123903036118 -0.07540961354970932 -0.11372657120227814 0.07612405717372894 0.17392520606517792 -0.06069463491439819 0.05625811219215393 0.12859825789928436 -0.11562615633010864 0.1119876354932785 0.13307853043079376 0.00329570472240448 -0.0671277791261673 0.012922018766403198 -0.12744036316871643 0.06639756262302399 0.14590008556842804 -0.10805833339691162 -0.007088616490364075 0.14557887613773346 -0.045466646552085876 -0.17860767245292664 0.13257662951946259 -0.1637517809867859 -0.14897027611732483 -0.16858167946338654 -0.11754170805215836 -0.12482892721891403 -0.19014520943164825 -0.07149367779493332 -0.06593865156173706 -0.16467596590518951 -0.02959848940372467 0.12851892411708832 -0.06099337339401245 0.14659489691257477 0.146702840924263 0.15498046576976776 0.1787809580564499 -0.06071993708610535 0.03798714280128479 0.08594931662082672 0.046707794070243835 -0.1749332845211029 0.16424711048603058 -0.023464083671569824 -0.0806918814778328 0.1490391343832016 0.06382642686367035 0.004363879561424255 0.14409954845905304 0.02023378014564514 0.032022446393966675 0.0892239362001419 0.15614600479602814 -0.01616165041923523 -0.019682034850120544 -0.05263766646385193 0.10507996380329132 0.13168086111545563 0.08487574756145477 -0.06844460964202881 0.1487916260957718 0.11103974282741547 0.10797969996929169 0.031616806983947754 -0.07921672612428665 0.1610390990972519 -0.11684072017669678 -0.17390145361423492 -0.043035224080085754 -0.0845601037144661 0.12163884937763214 -0.09438999742269516 -0.17512507736682892 0.07495872676372528 -0.05328689515590668 -0.027519673109054565 0.1769333928823471 -0.1496492326259613 0.09443201124668121 0.17579789459705353 0.10494618117809296 0.0627366453409195 -0.03233909606933594 -0.10982421040534973 0.1532246321439743 0.14002810418605804 -0.08114833384752274 0.03521989285945892 0.00030340254306793213 -0.06739509105682373 -0.13114947080612183 0.06874765455722809 0.023319214582443237 0.0895233005285263 0.02756810188293457 0.046783849596977234 0.05778564512729645 -0.011820480227470398 -0.190358966588974 0.11840637028217316 -0.036614418029785156 0.13754232227802277 -0.1871512532234192 -0.045876339077949524 -0.15159755945205688 -0.0945538729429245 -0.0925317108631134 -0.09552052617073059 -0.07874396443367004 -0.1565142720937729 -0.18854306638240814 0.1722220629453659 -0.008838370442390442 -0.12628023326396942 -0.010219767689704895 0.06213434040546417 -0.08434608578681946 -0.125238835811615 0.09541557729244232 -0.12271261215209961 -0.16728520393371582 0.015611276030540466 -0.05184924602508545 0.007642596960067749 0.04381078481674194 0.14884571731090546 0.018641293048858643 0.10509388148784637 -0.14537720382213593 -0.0029206573963165283 -0.1205645501613617 -0.11525307595729828 -0.18226569890975952 0.09758476912975311 0.09408579766750336 -0.19162331521511078 -0.009707912802696228 -0.01056671142578125 0.15316902101039886 0.08842475712299347 -0.15201404690742493 0.1815129667520523 0.11156804859638214 -0.16899055242538452 -0.18646061420440674 -0.16125991940498352 0.01560896635055542 -0.14216357469558716 -0.1921217441558838 -0.08345299959182739 0.0893719345331192 0.04203219711780548 -0.043821781873703 -0.01683676242828369 0.07374532520771027 0.06801028549671173 -0.052704036235809326 -0.14525377750396729 0.1280706375837326 -0.18345627188682556 -0.005296170711517334 -0.15999522805213928 0.19146515429019928 -0.11712207645177841 -0.02605290710926056 0.04441826045513153 0.14846505224704742 0.1446441262960434 0.020790860056877136 0.15960071980953217 -0.06877922266721725 -0.1206129789352417 -0.049536481499671936 0.1648130863904953 -0.07623139023780823 0.008787453174591064 -0.14474864304065704 -0.15113668143749237 -0.08790179342031479 0.023891568183898926 0.032832518219947815 0.14290298521518707 0.06072555482387543 -0.1508413553237915 0.08140887320041656 0.03145679831504822 0.18932737410068512 -0.018251627683639526 0.1393677443265915 -0.08772692829370499 0.1405871957540512 -0.19051261246204376 -0.11902578920125961 -0.09370680898427963 -0.048407718539237976 -0.1175394132733345 -0.0010339021682739258 -0.05097682774066925 -0.18733623623847961 0.051296666264534 0.09866897761821747 -0.07772625982761383 0.15817825496196747 -0.1493493765592575 -0.08187070488929749 0.15160615742206573 -0.08055854588747025 -0.03529135882854462 -0.128625750541687 0.15681041777133942 0.17809776961803436 -0.1356464922428131 -0.07032570242881775 -0.07168647646903992 0.03785036504268646 0.019294634461402893 -0.019519448280334473 -0.012417495250701904 0.0912332683801651 0.16576410830020905 -0.1707616150379181 0.13961417973041534 -0.17349626123905182 -0.05670766532421112 -0.17331483960151672 0.049994274973869324 0.07128335535526276 0.15795262157917023 0.10570420324802399 0.04130640625953674 0.06849075853824615 -0.00018952786922454834 0.16699425876140594 0.0473155677318573 -0.028888851404190063 0.05872081220149994 0.03017604351043701 0.06564642488956451 0.08161245286464691 -0.15939195454120636 0.004550814628601074 -0.1255076676607132 0.04293273389339447 -0.09564186632633209 -0.1294422149658203 0.062473878264427185 0.08574260771274567 0.1469341367483139 0.0974971204996109 0.15048696100711823 -0.1207844689488411 0.047278910875320435 -0.16795614361763 -0.005598843097686768 0.08950619399547577 -0.13316187262535095 -0.012960433959960938 0.07294861972332001 0.16700725257396698 -0.08340606093406677 0.1715669482946396 -0.09411320090293884 0.13693149387836456 0.004671216011047363 -0.09294172376394272 -0.1505955457687378 -0.15139539539813995 0.18154452741146088 0.05284613370895386 0.07689635455608368 -0.19005881249904633 0.07041917741298676 -0.13384585082530975 -0.021826043725013733 -0.047064900398254395 -0.17800664901733398 -0.020635560154914856 0.08110921084880829 -0.13253863155841827 0.15278218686580658 0.061821386218070984 -0.09321555495262146 0.11583079397678375 0.13947848975658417 -0.17641599476337433 0.17730776965618134 -0.13912087678909302 -0.012316673994064331 0.05134245753288269 0.11754770576953888 0.16754715144634247 -0.033801496028900146 0.18669842183589935 0.1480424553155899 0.06658713519573212 -0.06900783628225327 -0.027239784598350525 0.054705068469047546 0.14936895668506622 -0.007924646139144897 0.01684059202671051 0.16914530098438263 0.09651552140712738 -0.010342270135879517 0.18339477479457855 0.17091841995716095 -0.17391693592071533 0.09541256725788116 0.12190763652324677 0.06222115457057953 0.14695368707180023 0.08362932503223419 -0.12233058363199234 0.14094482362270355 -0.029583752155303955 0.11525677144527435 0.10684554278850555 0.12465505301952362 -0.06935063004493713 -0.12507513165473938 0.0847996324300766 0.03718867897987366 0.14146704971790314 -0.0513840913772583 0.03396229445934296 0.18420054018497467 -0.12343771755695343 0.10613824427127838 -0.08152143657207489 -0.08163373917341232 0.03180047869682312 -0.13029593229293823 -0.01187184453010559 0.1527671366930008 -0.0019115358591079712 -0.007423222064971924 0.02245040237903595 -0.11863484233617783 -0.09935683757066727 -0.030429601669311523 -0.027473583817481995 -0.013129517436027527 0.09932427108287811 -0.11627302318811417 0.05965779721736908 -0.17120137810707092 -0.0655808299779892 -0.16373644769191742 0.07050321996212006 -0.1453954428434372 -0.029332131147384644 -0.11184446513652802 -0.13468122482299805 -0.01939772069454193 0.009376198053359985 -0.14579910039901733 0.15708689391613007 0.0994427353143692 0.1840449720621109 -0.14928662776947021 0.11270986497402191 0.03277765214443207 0.18725891411304474 -0.10776770114898682 -0.1456567943096161 0.02216719090938568 0.13694916665554047 0.11175467073917389 0.04305742681026459 -0.1322297751903534 -0.08977010846138 -0.15829093754291534 0.1597900241613388 0.13060744106769562 0.0375058650970459 0.12516625225543976 -0.18071983754634857 -0.0016333609819412231 0.0627480000257492 0.13110803067684174 -0.08276020735502243 -0.1376732587814331 -0.11198741942644119 0.05013270676136017 0.025441840291023254 -0.03610098361968994 -0.045520663261413574 -0.07491503655910492 -0.030791640281677246 0.016761794686317444 -0.1704872101545334 0.13242052495479584 -0.11824037879705429 -0.11178629100322723 -0.13041642308235168 -0.03162892162799835 0.12086780369281769 0.07341764867305756 -0.1138634905219078 -0.12317939102649689 -0.029594898223876953 0.10440318286418915 -0.1483391523361206 0.09120829403400421 -0.07147229462862015 -0.1481170803308487 -0.06138421595096588 0.17949290573596954 0.14684610068798065 -0.1177559345960617 0.037288516759872437 0.15398921072483063 -0.10749455541372299 0.08965282142162323 0.007538497447967529 0.09295029938220978 -0.010534524917602539 -0.12623322010040283 -0.12641815841197968 -0.06588621437549591 -0.07414045184850693 -0.1883879452943802 0.021946892142295837 0.12103305757045746 -0.12330756336450577 -0.05171820521354675 0.1801110953092575 0.16031600534915924 0.1729034036397934 -0.11279242485761642 0.05858181416988373 -0.024023637175559998 0.12343911826610565 0.0039031654596328735 -0.10632936656475067 -0.009540632367134094 0.0060049742460250854 -0.15273517370224 0.19016601145267487 0.052305668592453 0.16505275666713715 -0.037086695432662964 -0.07709907740354538 -0.1864868402481079 0.08639736473560333 0.14117346704006195 -0.0741066113114357 -0.08779238164424896 0.06607110798358917 -0.05371221899986267 0.07794491946697235 0.16284556686878204 -0.02250678837299347 0.12081150710582733 -0.14790679514408112 0.19207482039928436 -0.06525038182735443 -0.15709036588668823 -0.026752278208732605 -0.18362048268318176 -0.03535635769367218 -0.1323995739221573 0.03565141558647156 0.10722048580646515 0.16946960985660553 -0.1116432473063469 0.15203209221363068 0.18861152231693268 0.15259943902492523 -0.0053775012493133545 -0.10948724299669266 0.035262659192085266 0.1079297810792923 0.15464018285274506 0.08358348906040192 0.027598202228546143 0.16973929107189178 0.05903874337673187 -0.04432572424411774 -0.11574650555849075 -0.12205898016691208 0.0394841730594635 0.006886228919029236 0.10765708982944489 0.1548522263765335 -0.040205225348472595 0.1352279931306839 -0.08295562118291855 -0.07570662349462509 0.05948059260845184 -0.025416299700737 -0.1492535024881363 0.1637849658727646 -0.03557141125202179 -0.0390191525220871 -0.026000767946243286 -0.17896166443824768 -0.08089884370565414 0.14233575761318207 -0.18884487450122833 -0.06292751431465149 -0.14002475142478943 0.014233902096748352 0.13292016088962555 0.02190941572189331 0.011462777853012085 0.19014756381511688 -0.16954277455806732 -0.03090396523475647 -0.11452889442443848 0.07419393956661224 -0.11952913552522659 -0.06314188241958618 0.15876556932926178 -0.01006123423576355 -0.10603383183479309 -0.1764688491821289 -0.10542004555463791 0.13166214525699615 0.18918772041797638 0.11902235448360443 -0.13211679458618164 0.03071579337120056 0.1716141253709793 0.11435537040233612 0.1077035516500473 -0.12229110300540924 0.08463691174983978 -0.12663015723228455 0.08096082508563995 0.0821489542722702 -0.11961700022220612 0.0716799944639206 0.143638476729393 0.1637112945318222 -0.16710259020328522 -0.1047595664858818 -0.13562428951263428 -0.07331227511167526 0.09585778415203094 -0.08501602709293365 0.14596714079380035 0.017568379640579224 -0.12632079422473907 0.013484954833984375 -0.14927999675273895 0.10478927195072174 -0.14226649701595306 0.05595479905605316 0.12777163088321686 0.029503151774406433 -0.004978656768798828 -0.14756332337856293 0.14431454241275787 0.12218482792377472 -0.023625895380973816 0.10987474024295807 -0.05140545964241028 0.1486668735742569 0.18163518607616425 0.14826028048992157 -0.11515524983406067 -0.11846935749053955 -0.15328198671340942 0.1683603674173355 0.07635952532291412 0.05202667415142059 -0.18263672292232513 -0.13415119051933289 0.13916848599910736 -0.12074369937181473 -0.01246170699596405 -0.05523449182510376 -0.05860425531864166 0.1586119383573532 -0.13983015716075897 -0.03365775942802429 -0.14585033059120178 -0.0724005401134491 -0.011516019701957703 -0.06484466791152954 0.14845715463161469 0.08610935509204865 0.07488657534122467 0.09413425624370575 0.12784497439861298 0.02371428906917572 -0.028477057814598083 -0.13678410649299622 0.12682987749576569 0.11381779611110687 -0.09892825782299042 -0.0620013028383255 0.17758013308048248 0.16400082409381866 0.17051376402378082 0.14328695833683014 -0.08077406138181686 -0.1847551017999649 -0.06104204058647156 0.14038629829883575 0.10097362101078033 0.07836683094501495 -0.09590243548154831 0.18062318861484528 0.16549931466579437 0.13619528710842133 0.01205568015575409 -0.03329631686210632 0.04882948100566864 0.16772045195102692 0.05662824213504791 0.06759719550609589 -0.06890090554952621 0.04620151221752167 -0.15427157282829285 0.1879892200231552 -0.14534088969230652 0.06355680525302887 -0.04225879907608032 -0.1142844706773758 0.05539761483669281 0.09322451055049896 -0.1437869369983673 0.1688523143529892 0.16649384796619415 0.06593556702136993 0.1079072505235672 -0.013928771018981934 -0.07363125681877136 0.13483785092830658 -0.10920213907957077 -0.11237279325723648 -0.10754431784152985 0.00790676474571228 0.011149480938911438 -0.1268327236175537 0.16714434325695038 0.03950001299381256 0.011581197381019592 0.03894345462322235 -0.04172156751155853 0.03433851897716522 0.0646572858095169 -0.1769985556602478 0.036867305636405945 -0.18837970495224 -0.10778236389160156 -0.02497081458568573 0.1920790821313858 0.005396813154220581 -0.003897354006767273 0.13251416385173798 -0.04685162007808685 0.07945998013019562 0.04915878176689148 -0.18956327438354492 0.06982593238353729 0.08628542721271515 -0.06757837533950806 0.1904629021883011 -0.055798083543777466 0.14960433542728424 -0.01706959307193756 0.06889159977436066 0.08521251380443573 -0.11588039994239807 -0.08925426006317139 0.14979903399944305 0.13203750550746918 0.029718995094299316 -0.17706529796123505 0.1782056838274002 -0.004310086369514465 -0.013504937291145325 -0.08089668303728104 0.0006116926670074463 0.1353224664926529 -0.19009818136692047 -0.1522175669670105 -0.097022645175457 0.08117558062076569 -0.17710347473621368 0.12615419924259186 0.14111186563968658 0.1285380870103836 0.1318080574274063 0.12206239998340607 -0.08066359907388687 0.13778232038021088 -0.08310385048389435 -0.06110793352127075 -0.18100741505622864 -0.16999658942222595 0.05147424340248108 0.18796022236347198 -0.18056917190551758 -0.09588121622800827 0.011445090174674988 -0.04811018705368042 0.08101020753383636 0.028803274035453796 0.18994538486003876 -0.11888056993484497 0.16603167355060577 -0.09844863414764404 0.019095703959465027 0.0045344531536102295 0.03784015774726868 -0.13821041584014893 0.10576792061328888 -0.11333419382572174 0.07329796254634857 0.0755033940076828 0.040870338678359985 -0.07592301070690155 0.00179329514503479 -0.10522441565990448 0.06231750547885895 0.043429628014564514 0.17960552871227264 -0.03949354588985443 0.08438517153263092 0.0591474324464798 -0.05129542946815491 0.13940556347370148 0.06712810695171356 0.072779580950737 0.025205880403518677 0.10803984105587006 -0.09147348999977112 -0.1052437350153923 -0.18412835896015167 0.14070604741573334 -0.15242400765419006 0.06314526498317719 0.14008428156375885 0.1641892045736313 0.11294068396091461 0.0753587931394577 -0.11854821443557739 -0.06213577091693878 -0.1847325712442398 -0.05110466480255127 -0.16441288590431213 -0.03073824942111969 -0.1845482736825943 -0.1417582929134369 0.04742752015590668 -0.08737991005182266 0.1044570654630661 0.020410805940628052 0.07134024798870087 0.027694761753082275 0.018368035554885864 0.13737578690052032 -0.0881851464509964 0.03195400536060333 -0.07720623910427094 0.03161054849624634 -0.12605218589305878 0.004333168268203735 0.053695231676101685 -0.14474788308143616 -0.010255396366119385 0.05468955636024475 0.005157560110092163 -0.025164008140563965 0.17867062985897064 0.18484677374362946 -0.17570024728775024 0.031589046120643616 0.07003773748874664 0.09121324121952057 0.05345292389392853 0.14730100333690643 -0.12243629992008209 -0.15447279810905457 0.1741291731595993 0.06924231350421906 0.02927975356578827 0.039134711027145386 0.07923547923564911 -0.09763114899396896 -0.15926840901374817 -0.04332013428211212 -0.10029823333024979 0.04281328618526459 0.0815468579530716 -0.1519184708595276 0.0605783611536026 -0.12497749924659729 -0.0006839632987976074 -0.08204304426908493 0.0481773316860199 -0.019802838563919067 0.1288619488477707 0.14204968512058258 0.009981811046600342 0.09655578434467316 -0.18126370012760162 -0.1855524480342865 0.05179046094417572 0.018088027834892273 0.0021176040172576904 -0.11536914110183716 -0.030720174312591553 0.09133876860141754 -0.0476934015750885 0.17750383913516998 -0.03555099666118622 0.03760182857513428 0.14606313407421112 -0.06767246127128601 -0.004614844918251038 -0.05928577482700348 0.029819071292877197 0.054846569895744324 0.1863332837820053 -0.04628506302833557 0.06787393987178802 -0.07652752846479416 -0.15288260579109192 0.13692648708820343 -0.08011101931333542 -0.08553382754325867 0.170564666390419 -0.1693906933069229 -0.049921631813049316 -0.09633275866508484 0.17305515706539154 0.09944616258144379 -0.04800143837928772 -0.17729152739048004 0.1350625902414322 -0.0754563957452774 0.1410493701696396 0.13846956193447113 0.030379563570022583 0.06595002114772797 -0.05766008794307709 0.03626886010169983 -0.04727548360824585 0.05104921758174896 0.16568370163440704 0.15561573207378387 0.1519165188074112 0.13337256014347076 0.020266801118850708 0.09801356494426727 0.1150534600019455 -0.047975555062294006 0.0977378636598587 -0.12107408791780472 -0.041211411356925964 0.004812166094779968 0.05615928769111633 -0.03024160861968994 -0.18299800157546997 -0.06287692487239838 0.0010010600090026855 0.03389166295528412 0.17918308079242706 -0.11379684507846832 -0.06560546159744263 0.06264631450176239 -0.13658854365348816 -0.13742665946483612 0.006709545850753784 -0.06071610748767853 0.11210305988788605 -0.05983734130859375 -0.13712337613105774 0.13255222141742706 0.06780500710010529 0.052133843302726746 0.11931167542934418 -0.15514999628067017 0.10525508224964142 -0.11503588408231735 -0.0987490862607956 -0.13988682627677917 0.12177978456020355 -0.08723324537277222 -0.14770524203777313 -0.15482696890830994 -0.0021139830350875854 -0.11751305311918259 0.02074834704399109 -0.1282673180103302 0.08106957376003265 0.008417129516601562 -0.028502464294433594 0.08092506229877472 -0.08358636498451233 -0.1829456090927124 -0.08554830402135849 -0.09677214175462723 0.17318405210971832 0.033416807651519775 0.02098192274570465 0.004134848713874817 0.0440872460603714 -0.1323832869529724 -0.12130898982286453 -0.1764291226863861 0.08120836317539215 -0.1885313093662262 -0.02331186830997467 -0.14218614995479584 -0.14377425611019135 -0.1023620069026947 -0.17931421101093292 -0.16101543605327606 -0.1010773628950119 0.18416224420070648 -0.070963054895401 0.1464415043592453 -0.026533618569374084 -0.13733379542827606 -0.18964894115924835 -0.1663358062505722 0.016809925436973572 -0.12375064194202423 0.17054851353168488 -0.1584940403699875 0.08034606277942657 -0.13658422231674194 -0.14341704547405243 0.053603604435920715 -0.13849937915802002 -0.1832583099603653 -0.07614664733409882 0.12931017577648163 0.17332427203655243 -0.17205747961997986 -0.03367127478122711 0.03625987470149994 0.018335074186325073 0.08251266181468964 -0.052954450249671936 0.14676083624362946 0.08561961352825165 -0.1105547696352005 -0.009192287921905518 -0.09021719545125961 -0.08349040150642395 0.0775948315858841 0.0921250432729721 -0.08553916960954666 -0.05847585201263428 0.009754300117492676 -0.12832769751548767 -0.1409919410943985 0.054361552000045776 0.09838198125362396 0.058460310101509094 -0.03602604568004608 -0.09162362664937973 -0.07000656425952911 0.09144853055477142 -0.1333530843257904 0.12804298102855682 0.04631537199020386 0.13206596672534943 -0.0960649773478508 -0.06565161049365997 -0.03984624147415161 0.09792812168598175 0.1763858050107956 0.18241171538829803 -0.13280794024467468 0.01095367968082428 0.12485747039318085 -0.1634405255317688 -0.10299495607614517 0.07358147203922272 -0.03106790781021118 0.09564857184886932 0.05379612743854523 0.0357186496257782 0.07883022725582123 0.1782689243555069 0.18768174946308136 0.14294083416461945 -0.05924874544143677 0.11127792298793793 0.13330434262752533 -0.08180651068687439 0.16265638172626495 -0.11608035862445831 0.1778092235326767 0.17487044632434845 0.03128767013549805 0.0795888751745224 -0.08592523634433746 -0.1868436336517334 0.053777143359184265 0.06716479361057281 -0.13107141852378845 -0.008765578269958496 -0.05503109097480774 0.0770244151353836 -0.04625551402568817 -0.009333044290542603 0.06223176419734955 0.16400308907032013 -0.15652915835380554 -0.11830780655145645 -0.04102705419063568 -0.1362544745206833 0.08625753223896027 -0.04195544123649597 -0.05082422494888306 0.16017983853816986 -0.11962411552667618 0.06054745614528656 -0.16975907981395721 -0.10712400078773499 0.05166284739971161 -0.11307468265295029 0.165906623005867 0.0556274950504303 0.17119960486888885 0.07047756016254425 -0.08914808183908463 -0.12668699026107788 0.09772761166095734 0.10051803290843964 -0.06739389896392822 -0.01401163637638092 0.08818517625331879 -0.18000943958759308 -0.1450667679309845 -0.01685713231563568 0.1763051301240921 -0.12090107798576355 -0.15119004249572754 -0.07731711864471436 -0.13469408452510834 -0.10226844996213913 0.058911725878715515 0.14994104206562042 0.03193715214729309 -0.09047040343284607 -0.01112009584903717 -0.12307174503803253 0.08779303729534149 -0.0040921419858932495 -0.11595167964696884 0.12125168740749359 -0.1413908302783966 0.18786723911762238 -0.12476712465286255 -0.010249674320220947 0.06656073033809662 0.15361516177654266 0.07104180753231049 -0.042185425758361816 0.013651013374328613 0.1496499627828598 -0.03540715575218201 0.04282252490520477 0.13662774860858917 -0.14283299446105957 0.13786281645298004 0.053565725684165955 -0.18951864540576935 0.12593860924243927 0.028286144137382507 -0.051031693816185 0.13141225278377533 0.18010787665843964 0.048935726284980774 -0.1256960928440094 0.1307763308286667 -0.05882762372493744 -0.044737204909324646 0.03393329679965973 -0.18026521801948547 0.08801253139972687 0.02534547448158264 0.035090476274490356 0.08440347015857697 -0.19081895053386688 -0.1771368533372879 -0.07805896550416946 -0.17167554795742035 0.08337496221065521 0.05444222688674927 0.18354515731334686 -0.025913402438163757 -0.10403279215097427 0.06354458630084991 0.028930947184562683 -0.03576520085334778 -0.04075250029563904 0.19022761285305023 0.08299453556537628 0.07916827499866486 0.18592272698879242 0.06235302984714508 -0.18107596039772034 -0.04274870455265045 0.1379796415567398 0.018399149179458618 -0.15821829438209534 0.060332342982292175 -0.01179233193397522 -0.016093477606773376 -0.005983233451843262 0.02409510314464569 -0.03628788888454437 0.09864594042301178 0.013420969247817993 0.1647517830133438 -0.03097391128540039 0.14669181406497955 -0.15113651752471924 0.09620364010334015 -0.14437544345855713 0.1891552358865738 0.14653177559375763 0.1659284383058548 0.05767376720905304 0.026887789368629456 -0.19176633656024933 0.10758112370967865 0.1830167919397354 0.08364792168140411 0.0729370266199112 0.035895735025405884 0.17491944134235382 -0.1024499461054802 0.12090708315372467 -0.03130999207496643 -0.0914725512266159 0.04678042232990265 0.08149029314517975 -0.15213735401630402 0.1533472090959549 -0.15584829449653625 -0.13150882720947266 -0.0325595885515213 0.03064894676208496 -0.005822703242301941 -0.00989958643913269 0.05076649785041809 -0.1612071990966797
1x1 kernel: 0.1815522313117981 0.4018040895462036 -0.4020257890224457 -0.3745023310184479 -0.029105544090270996 -0.33675870299339294 -0.2213112711906433 -0.41595587134361267 -0.48555195331573486 -0.18320849537849426 -0.06093829870223999 -0.43341875076293945 -0.20056462287902832 -0.3434096574783325 -0.3705527186393738 0.4707648754119873 -0.36819493770599365 -0.38644939661026 -0.09681940078735352 0.4282572269439697 -0.33118343353271484 0.36250239610671997 -0.5020840167999268 0.11067938804626465 -0.2891383171081543 -0.028354227542877197 0.32505595684051514 0.3048217296600342 0.042630136013031006 -0.4363078474998474 0.0031537413597106934 -0.2726699709892273 -0.151678204536438 -0.5770962238311768 0.5602535009384155 0.5484079122543335 -0.5125343203544617 0.41666626930236816 0.26233869791030884 -0.4406611919403076 -0.44798025488853455 -0.006785690784454346 -0.18636056780815125 0.34194254875183105 -0.2724864184856415 0.19726115465164185 0.5416164398193359 0.42433762550354004 -0.2643826901912689 -0.11229151487350464 -0.3579598665237427 0.2922245264053345 0.3725953698158264 -0.3055523931980133 -0.4821219742298126 -0.23591473698616028 -0.20663753151893616 0.0034465789794921875 -0.494998037815094 -0.09585309028625488 -0.3967188596725464 -0.5335738062858582 0.2898936867713928 -0.268680214881897 0.5153394937515259 -0.08920881152153015 0.18560808897018433 -0.053428471088409424 -0.48596566915512085 0.17454516887664795 0.02660393714904785 0.09826016426086426 0.3747689127922058 -0.07476925849914551 0.1260548233985901 0.2562621235847473 -0.3386385440826416 0.0029976367950439453 -0.035649776458740234 0.004246711730957031 0.28369706869125366 -0.3685155510902405 0.18177711963653564 0.19960647821426392 -0.40993714332580566 0.0578160285949707 0.1213216781616211 0.306884229183197 0.5633163452148438 -0.34987664222717285 0.3405436873435974 -0.2621888816356659 0.4507216215133667 -0.5254286527633667 0.22953641414642334 0.26347851753234863 -0.2256765067577362 0.5507669448852539 0.031068921089172363 -0.5728022456169128 0.27714282274246216 0.5639740228652954 0.2777215242385864 0.5183695554733276 0.207993745803833 0.43537330627441406 -0.48058784008026123 -0.39927229285240173 0.33762192726135254 0.5081850290298462 0.2829171419143677 -0.03330564498901367 0.5732525587081909 -0.03691518306732178 -0.2875393033027649 0.43029987812042236 -0.1796334981918335 -0.33320295810699463 -0.34454306960105896 -0.41572633385658264 -0.47577688097953796 0.329376220703125 -0.06589335203170776 0.5118321180343628 0.13839560747146606 0.5350925922393799 0.4602091312408447 0.4020206332206726 0.07842892408370972 0.5632416009902954 -0.02679532766342163 0.36422449350357056 0.0010622739791870117 0.15297836065292358 -0.4798537492752075 -0.09908631443977356 0.016096770763397217 -0.5294544696807861 0.3409811854362488 0.26982855796813965 0.44966018199920654 0.087474524974823 -0.03423190116882324 0.04192107915878296
bn3x3_weights: 1.0 1.0 1.0 1.0 1.0 1.0 1.0 1.0 1.0 1.0 1.0 1.0 1.0 1.0 1.0 1.0 1.0 1.0 1.0 1.0 1.0 1.0 1.0 1.0 1.0 1.0 1.0 1.0 1.0 1.0 1.0 1.0 1.0 1.0 1.0 1.0 1.0 1.0 1.0 1.0 1.0 1.0 1.0 1.0 1.0 1.0 1.0 1.0
bn3x3_bias: 0.0 0.0 0.0 0.0 0.0 0.0 0.0 0.0 0.0 0.0 0.0 0.0 0.0 0.0 0.0 0.0 0.0 0.0 0.0 0.0 0.0 0.0 0.0 0.0 0.0 0.0 0.0 0.0 0.0 0.0 0.0 0.0 0.0 0.0 0.0 0.0 0.0 0.0 0.0 0.0 0.0 0.0 0.0 0.0 0.0 0.0 0.0 0.0
bn3x3_running_mean: 0.0 0.0 0.0 0.0 0.0 0.0 0.0 0.0 0.0 0.0 0.0 0.0 0.0 0.0 0.0 0.0 0.0 0.0 0.0 0.0 0.0 0.0 0.0 0.0 0.0 0.0 0.0 0.0 0.0 0.0 0.0 0.0 0.0 0.0 0.0 0.0 0.0 0.0 0.0 0.0 0.0 0.0 0.0 0.0 0.0 0.0 0.0 0.0
bn3x3_running_var: 1.0 1.0 1.0 1.0 1.0 1.0 1.0 1.0 1.0 1.0 1.0 1.0 1.0 1.0 1.0 1.0 1.0 1.0 1.0 1.0 1.0 1.0 1.0 1.0 1.0 1.0 1.0 1.0 1.0 1.0 1.0 1.0 1.0 1.0 1.0 1.0 1.0 1.0 1.0 1.0 1.0 1.0 1.0 1.0 1.0 1.0 1.0 1.0
num_batches_tracked: 0
bn_weights: 1.0 1.0 1.0 1.0 1.0 1.0 1.0 1.0 1.0 1.0 1.0 1.0 1.0 1.0 1.0 1.0 1.0 1.0 1.0 1.0 1.0 1.0 1.0 1.0 1.0 1.0 1.0 1.0 1.0 1.0 1.0 1.0 1.0 1.0 1.0 1.0 1.0 1.0 1.0 1.0 1.0 1.0 1.0 1.0 1.0 1.0 1.0 1.0
bn_bias: 0.0 0.0 0.0 0.0 0.0 0.0 0.0 0.0 0.0 0.0 0.0 0.0 0.0 0.0 0.0 0.0 0.0 0.0 0.0 0.0 0.0 0.0 0.0 0.0 0.0 0.0 0.0 0.0 0.0 0.0 0.0 0.0 0.0 0.0 0.0 0.0 0.0 0.0 0.0 0.0 0.0 0.0 0.0 0.0 0.0 0.0 0.0 0.0
bn_running_mean: 0.0 0.0 0.0 0.0 0.0 0.0 0.0 0.0 0.0 0.0 0.0 0.0 0.0 0.0 0.0 0.0 0.0 0.0 0.0 0.0 0.0 0.0 0.0 0.0 0.0 0.0 0.0 0.0 0.0 0.0 0.0 0.0 0.0 0.0 0.0 0.0 0.0 0.0 0.0 0.0 0.0 0.0 0.0 0.0 0.0 0.0 0.0 0.0
bn_running_var: 1.0 1.0 1.0 1.0 1.0 1.0 1.0 1.0 1.0 1.0 1.0 1.0 1.0 1.0 1.0 1.0 1.0 1.0 1.0 1.0 1.0 1.0 1.0 1.0 1.0 1.0 1.0 1.0 1.0 1.0 1.0 1.0 1.0 1.0 1.0 1.0 1.0 1.0 1.0 1.0 1.0 1.0 1.0 1.0 1.0 1.0 1.0 1.0
num_batches_tracked: 0
