3x3 kernel: -0.13450804352760315 -0.06414496898651123 -0.17023865878582 -0.1766190081834793 -0.11783428490161896 0.17214328050613403 -0.1566854864358902 -0.02757953107357025 0.09937289357185364 -0.00021936986013315618 0.1700199991464615 0.011274170130491257 -0.06292152404785156 0.11264651268720627 0.06442978978157043 0.04974359646439552 0.16996289789676666 -0.14291241765022278 0.11683470755815506 0.016931993886828423 0.08579963445663452 0.10028061270713806 0.05864415690302849 0.15873238444328308 0.14513303339481354 0.1465429663658142 -0.09228258579969406 -0.005999015644192696 0.012552718631923199 0.002710142405703664 0.013764231465756893 -0.10513684898614883 -0.010948465205729008 0.10927479714155197 -0.054326847195625305 0.12456221133470535 -0.12966394424438477 -0.08495055139064789 -0.05256454646587372 -0.07069867104291916 -0.02113906852900982 0.07240719348192215 0.17321078479290009 0.09583693742752075 -0.12167096138000488 -0.018244842067360878 0.18726883828639984 -0.0001918167108669877 -0.016110746189951897 0.13413627445697784 0.04285721108317375 0.12225797772407532 0.15150152146816254 -0.07204228639602661 -0.10122659802436829 0.09253381937742233 0.17163634300231934 -0.167408287525177 0.12879040837287903 -0.09223931282758713 0.04857571795582771 -0.12411022931337357 -0.06678268313407898 0.10366754233837128 0.1445600390434265 -0.12733860313892365 -0.019205553457140923 0.00790483970195055 0.0641443058848381 -0.05190102383494377 0.006971795577555895 -0.006232930347323418 -0.13233746588230133 0.07679314911365509 -0.076217882335186 0.1316634863615036 -0.1499217003583908 0.08996878564357758 -0.04080456122756004 -0.01653152145445347 0.056084033101797104 -0.05792419612407684 0.017271991819143295 0.11721405386924744 0.07543104141950607 -0.010159334167838097 0.12237273156642914 0.0017854026518762112 0.02798323892056942 -0.11059792339801788 -0.007760467007756233 -0.12567420303821564 0.008830451406538486 -0.13651196658611298 -0.1618744432926178 -0.0930076390504837 -0.06435518711805344 -0.01223352923989296 0.09842337667942047 -0.05034540593624115 -0.18559052050113678 0.13905370235443115 0.1772204041481018 -0.16166365146636963 0.07534017413854599 0.04148157313466072 0.018279552459716797 -0.050356462597846985 -0.060921937227249146 0.14790871739387512 0.015377776697278023 -0.17397964000701904 0.1452866494655609 0.09879205375909805 0.11641927808523178 -0.10568942874670029 0.03652026504278183 0.09064643830060959 -0.022973475977778435 -0.12813343107700348 0.12060941755771637 -0.04322871193289757 -0.14796407520771027 0.0007509093265980482 -0.17980025708675385 -0.037116844207048416 -0.01152118481695652 -0.06964185833930969 0.016628336161375046 -0.16149072349071503 -0.15401200950145721 -0.11162112653255463 -0.015368737280368805 -0.056111447513103485 0.05610520765185356 0.14606481790542603 -0.17602674663066864 0.11229602992534637 -0.12358167767524719 -0.06190953776240349 -0.0434875413775444 -0.044260334223508835 0.062425337731838226 0.05506477132439613 0.1829620599746704 0.09343820810317993 0.05185927078127861 -0.054247789084911346 -0.16869859397411346 -0.05614420771598816 0.16749992966651917 0.1251422017812729 0.010303615592420101 0.04445837065577507 -0.18653275072574615 -0.054352909326553345 0.07583672553300858 -0.1550067812204361 -0.10836084187030792 0.009874396957457066 0.08990571647882462 -0.09173514693975449 -0.022678673267364502 0.16068622469902039 0.11309298872947693 0.025167357176542282 -0.11848727613687515 0.18655933439731598 0.04784311726689339 0.12236782163381577 -0.0006767153972759843 -0.14883871376514435 0.17470110952854156 -0.15369561314582825 -0.04050278291106224 -0.131062850356102 0.060214318335056305 -0.08215038478374481 -0.1368655562400818 0.10884374380111694 0.043487608432769775 -0.13233855366706848 -0.09329229593276978 -0.08634791523218155 -0.024938879534602165 0.1900135576725006 0.04685714468359947 -0.12372774630784988 0.05771368369460106 -0.029987208545207977 0.08404240012168884 -0.09159533679485321 -0.1809428483247757 0.04480258747935295 -0.10299830138683319 -0.10408031195402145 -0.12995585799217224 0.057514339685440063 -0.017140328884124756 0.04109546169638634 0.15618757903575897 0.08486200124025345 -0.03148769587278366 0.08843858540058136 -0.07714895159006119 0.11372886598110199 -0.013642272911965847 0.16349728405475616 -0.16272777318954468 -0.0046642133966088295 0.12605822086334229 -0.1101551204919815 -0.13825461268424988 0.1567256599664688 -0.17887598276138306 0.08669314533472061 0.14218150079250336 0.15840518474578857 0.08819223940372467 -0.09112415462732315 0.18298335373401642 -0.13560466468334198 -0.04193364456295967 -0.11630014330148697 0.16360484063625336 0.06358126550912857 0.11245309561491013 -0.09443799406290054 -0.16813620924949646 0.041079334914684296 0.12562225759029388 -0.04611648991703987 0.1120135709643364 0.18610967695713043 0.07263998687267303 0.14815768599510193 -0.06447874754667282 0.15554484724998474 -0.009405098855495453 -0.05078864097595215 -0.05666129291057587 -0.009698868729174137 -0.03854742646217346 -0.11540215462446213 -0.003622722811996937 -0.06615478545427322 -0.10895418375730515 0.10651671141386032 0.13881643116474152 -0.18362148106098175 0.005100819747895002 -0.07628276199102402 -0.1906103640794754 -0.08810696005821228 0.10055006295442581 0.16857296228408813 0.043284572660923004 -0.1534779667854309 -0.10836708545684814 0.035150542855262756 -0.16265924274921417 -0.11074782907962799 0.06548625975847244 -0.13151974976062775 -0.0592096745967865 -0.12482055276632309 0.12951594591140747 0.16393780708312988 0.09370362013578415 -0.15483827888965607 -0.05480637773871422 0.0436820425093174 -0.15819044411182404 -0.158274844288826 -0.07906250655651093 -0.15394599735736847 0.03275539353489876 0.01678537391126156 -0.07288443297147751 0.16269002854824066 0.16536977887153625 0.09889315813779831 -0.13551485538482666 -0.09913939237594604 0.12442370504140854 -0.18836823105812073 -0.18098773062229156 -0.18204455077648163 0.09027576446533203 -0.09832241386175156 0.11955675482749939 0.0008621084270998836 0.10989058017730713 -0.10702310502529144 0.041327863931655884 -0.06446214020252228 -0.1525285840034485 -0.0011135280365124345 -0.1809457689523697 -0.15942822396755219 0.14647136628627777 -0.16147764027118683 -0.04726055637001991 -0.07390087097883224 -0.08181199431419373 -0.01850222609937191 0.16630373895168304 0.00552437175065279 -0.09347166121006012 -0.14048193395137787 0.14138011634349823 0.11488752067089081 0.0408269502222538 -0.1673942357301712 -0.03955530747771263 0.058354973793029785 -0.021806973963975906 -0.14663751423358917 0.15382693707942963 -0.11634368449449539 0.07861950248479843 0.12822602689266205 0.12153349816799164 -0.1368628889322281 -0.0381118543446064 -0.08441339433193207 -0.10785570740699768 -0.005612881388515234 -0.045029737055301666 -0.06144767254590988 0.06928900629281998 -0.04805195704102516 -0.05415675789117813 -0.02426537685096264 -0.1505848616361618 -0.17377696931362152 0.17990083992481232 0.11375623196363449 -0.16421525180339813 -0.03821178898215294 0.08687911182641983 -0.05874907225370407 -0.038654450327157974 0.16766434907913208 -0.034835003316402435 -0.1534622758626938 0.07634252309799194 -0.10413163155317307 0.05080224573612213 -0.15326938033103943 -0.16948635876178741 0.0019473491702228785 -0.18585163354873657 0.03962785005569458 0.027412032708525658 -0.024526501074433327 0.16781553626060486 0.008771559223532677 -0.018243877217173576 0.18430843949317932 -0.08892399072647095 -0.08827193826436996 -0.04283947870135307 0.15413974225521088 0.05586954951286316 0.08558633923530579 -0.022661466151475906 0.048437125980854034 0.18048809468746185 -0.06811422854661942 -0.007472248747944832 0.05096426233649254 -0.08751251548528671 -0.05162482708692551 0.09053053706884384 0.15368926525115967 0.09571945667266846 0.034206971526145935 0.029951075091958046 -0.017530180513858795 -0.0528201200067997 -0.034882720559835434 -0.17240074276924133 0.1535048931837082 0.1072501614689827 0.021644247695803642 0.018770737573504448 0.16698423027992249 0.060454610735177994 -0.04838747903704643 0.17435134947299957 -0.03386380523443222 0.036057136952877045 0.017783572897315025 0.14795508980751038 -0.05040700361132622 0.15898822247982025 -0.08418858796358109 -0.09721478074789047 -0.09522149711847305 -0.11218056827783585 -0.0035841576755046844 -0.0436503104865551 0.13055367767810822 -0.1579388678073883 0.14433130621910095 0.10303686559200287 -0.047368016093969345 -0.14210905134677887 -0.17438596487045288 -0.029197711497545242 0.1650668978691101 -0.17534126341342926 0.13443796336650848 0.09569309651851654 0.008677039295434952 0.061164893209934235 0.013315076008439064 0.11297687888145447 0.04347489774227142 0.04465872049331665 0.15012586116790771 0.022738413885235786 0.12125649303197861 0.14938995242118835 -0.013246480375528336 -0.0358939990401268 -0.0317298024892807 0.05980031192302704 0.1547452062368393 -0.09410303831100464 -0.010097712278366089 -0.151320680975914 0.03551467880606651 -0.08038703352212906 -0.11998996883630753 0.06907033175230026 0.177634134888649 0.082521952688694 -0.040017519146203995 -0.004315268248319626 0.15535001456737518 0.18120257556438446 -0.11255699396133423 -0.03271247074007988 0.1303204894065857 -0.07429466396570206 0.012306873686611652 -0.007714147213846445 -0.00613253703340888 0.08343513309955597 -0.08557950705289841 -0.009275844320654869 0.11480429023504257 0.031833063811063766 0.075849249958992 0.11062731593847275 0.11185729503631592 0.047045428305864334 0.010060753673315048 0.09499366581439972 -0.0842951312661171 -0.12615227699279785 0.07150822132825851 0.011416317895054817 0.017228564247488976 0.09835636615753174 0.15893733501434326 0.06700672954320908 -0.1041993796825409 -0.1744556874036789 -4.808609446627088e-05 0.05438661202788353 -0.10372989624738693 -0.15039880573749542 -0.17938102781772614 -0.07594620436429977 0.007357447873800993 0.02116478607058525 -0.03402173891663551 -0.10274938493967056 -0.03080747090280056 0.01593310758471489 0.07423827797174454 -0.1881156712770462 -0.1400281935930252 -0.1436205506324768 -0.056316591799259186 0.018847109749913216 -0.11091252416372299 -0.09519550949335098 0.13555605709552765 -0.07865648716688156 0.036243610084056854 -0.14625193178653717 -0.06463617831468582 -0.06017759069800377 -0.09502117335796356 -0.16823790967464447 0.16820886731147766 0.05733463540673256 0.0887313261628151 -0.07053434103727341 -0.1319807767868042 0.05590251460671425 -0.0840708464384079 0.033620163798332214 -0.06315725296735764 -0.06746134907007217 -0.14978432655334473 0.14262373745441437 -0.051759473979473114 0.012735129334032536 0.034921422600746155 0.021593982353806496 -0.1485947072505951 -0.1529056578874588 0.08009319007396698 -0.1851426064968109 0.1364954560995102 0.18753191828727722 0.07888147234916687 -0.06665902584791183 0.08868658542633057 -0.059550680220127106 0.05570602044463158 0.0629737377166748 -0.08117446303367615 0.007247280795127153 -0.017459403723478317 -0.05954600125551224 -0.08058688044548035 -0.03441927209496498 -0.07359016686677933 0.09021224081516266 0.06651423871517181 -0.036015499383211136 -0.02838490530848503 0.03011288307607174 0.05609846115112305 0.10750439763069153 -0.12271587550640106 -0.07998532056808472 0.026499934494495392 -0.15771260857582092 0.08450626581907272 0.14826826751232147 -0.12130279093980789 -0.1259564459323883 -0.09625670313835144 -0.020436590537428856 0.024272510781884193 0.12210690230131149 0.16671335697174072 -0.1494114249944687 -0.1633368581533432 0.02477564848959446 0.11401655524969101 0.049133457243442535 0.10194610059261322 0.14160239696502686 -0.16383332014083862 0.02997296117246151 0.06487488746643066 -0.07928905636072159 0.16456159949302673 0.00614210357889533 -0.05929978936910629 -0.17438215017318726 -0.13177326321601868 -0.03621426597237587 -0.15203237533569336 -0.011741862632334232 -0.09850963950157166 0.016750318929553032 -0.04336943477392197 0.0976143330335617 0.009814518503844738 0.18035142123699188 -0.10173679888248444 0.0034912889823317528 0.06511685252189636 0.11395128816366196 0.04879073053598404 -0.1458771675825119 0.0269992183893919 -0.18161310255527496 0.06985555589199066 0.031116727739572525 0.15189875662326813 0.1247825175523758 -0.11311395466327667 -0.184599831700325 -0.09420453757047653 0.04730726405978203 0.13281172513961792 -0.12372598052024841 0.1890472173690796 -0.18091782927513123 0.16802246868610382 -0.022338101640343666 0.12166332453489304 0.050125714391469955 0.009111236780881882 0.04100855812430382 0.00824169535189867 0.15392425656318665 0.061697255820035934 -0.11140453815460205 0.0723150372505188 0.06251196563243866 -0.07057437300682068 0.17819887399673462 -0.044081687927246094 -0.018792714923620224 -0.023230286315083504 0.05704836919903755 -0.07557374238967896 -0.11167013645172119 -0.15809227526187897 0.11913524568080902 0.10060599446296692 -0.013287637382745743 0.030741536989808083 0.08130619674921036 0.0873752310872078 -0.17299874126911163 0.159652441740036 -0.1345938742160797 0.1342633217573166 -0.00022652771440334618 0.06016283854842186 -0.06950255483388901 -0.0648254007101059 0.07859305292367935 0.16410228610038757 0.10418058931827545 0.1457633525133133 -0.12504161894321442 -0.09438004344701767 -0.062056366354227066 0.07304410636425018 -0.12262660264968872 0.09066478908061981 0.12000997364521027 0.10600022226572037 -0.12342578172683716 -0.06372416764497757 -0.08867601305246353 0.10981117933988571 -0.09636547416448593 -0.19062864780426025 0.10260622948408127 -0.18145257234573364 -0.11440202593803406 -0.057613953948020935 -0.11616058647632599 -0.08310550451278687 0.1742820292711258 -0.08656667172908783 0.13021405041217804 0.12642760574817657 -0.18567772209644318 -0.12177465856075287 -0.13932128250598907 -0.05308952555060387 -0.1710404008626938 -0.013320238329470158 0.01881512999534607 -0.06767675280570984 -0.10717573761940002 -0.04008299484848976 0.18586868047714233 -0.06039895489811897 -0.06609538942575455 -0.022254088893532753 0.08889471739530563 -0.15184074640274048 -0.0920022577047348 -0.10546340048313141 -0.12595592439174652 0.06996998935937881 -0.15091869235038757 0.11536126583814621 -0.0006334470817819238 -0.13402803242206573 -0.10811883211135864 -0.07402140647172928 0.0974225401878357 0.09757799655199051 -0.043189480900764465 0.08586705476045609 -0.05794133245944977 -0.004292073659598827 0.0029371976852416992 -0.07005473971366882 0.09949129819869995 -0.13643185794353485 -0.1320922076702118 -0.07846519351005554 -0.07550985366106033 -0.06197453290224075 0.08264368027448654 -0.008772935718297958 0.15011058747768402 -0.1754644513130188 0.029085226356983185 0.10626542568206787 -0.038538433611392975 0.055076953023672104 0.08938200026750565 -0.12460533529520035 -0.1498488187789917 -0.02895551361143589 -0.18083645403385162 0.005392662715166807 -0.025279680266976357 0.05726418271660805 0.04643689841032028 -0.14859430491924286 -0.03647683560848236 -0.1703004390001297 -0.14590002596378326 -0.10904760658740997 -0.08266327530145645 0.1288924515247345 -0.11721093207597733 -0.026251129806041718 -0.008131138049066067 -0.12781596183776855 0.05844772979617119 0.07178827375173569 0.021409599110484123 -0.041466135531663895 0.162772074341774 0.021939922124147415 -0.024037357419729233 -0.015902455896139145 -0.016760848462581635 -0.08096392452716827 -0.1665116846561432 -0.1625908464193344 0.0685458779335022 -0.14434199035167694 -0.06293994933366776 0.0685427114367485 0.11022172123193741 0.1490219682455063 -0.13421952724456787 0.04358045384287834 -0.13375937938690186 -0.053072962909936905 -0.1348796784877777 0.05355347692966461 0.16731023788452148 -0.18669724464416504 -0.029931873083114624 0.009741105139255524 0.06808871775865555 0.06701042503118515 -0.12207785993814468 0.057316284626722336 -0.1831749975681305 -0.06789667159318924 0.028645936399698257 -0.004200191702693701 0.0600106418132782 0.06734147667884827 -0.020129742100834846 0.14082877337932587 -0.006511031650006771 0.16001112759113312 0.0039561595767736435 -0.012031388469040394 0.011068450286984444 0.02404770441353321 0.014353951439261436 -0.09047839045524597 -0.1799481362104416 0.05284315347671509 0.0025193579494953156 -0.0691625103354454 0.036670900881290436 -0.003470595460385084 0.11446066200733185 -0.05542943254113197 -0.05413271486759186 -0.04201265424489975 -0.17050133645534515 0.1669185310602188 -0.08018982410430908 -0.06868212670087814 0.06291767209768295 0.059653390198946 0.1270987093448639 -0.09315723925828934 -0.06902559101581573 -0.022810542955994606 -0.05030963942408562 -0.1739339381456375 0.17442868649959564 0.19000868499279022 -0.12904353439807892 -0.15423445403575897 0.14313171803951263 0.06780979037284851 -0.17556779086589813 -0.08431832492351532 -0.010404514148831367 -0.040438294410705566 -0.12014464288949966 0.12539805471897125 -0.16430887579917908 -0.01743774674832821 0.15407711267471313 -0.002535945037379861 0.11763205379247665 0.04121460020542145 0.14346124231815338 0.12776167690753937 0.10531577467918396 0.14222370088100433 0.1884683221578598 -0.05329033359885216 -0.16870331764221191 -0.11447541415691376 -0.07234557718038559 0.1907581239938736 0.12256690859794617 0.11592143774032593 0.1812020093202591 -0.05515637993812561 -0.11292794346809387 0.15571799874305725 0.061666011810302734 -0.014898315072059631 -0.08078167587518692 0.058491501957178116 0.09614991396665573 -0.09302222728729248 0.07176399976015091 0.04082878679037094 -0.04516780003905296 0.17548306286334991 0.0625617504119873 -0.12025433033704758 -0.12578198313713074 0.048094674944877625 -0.16563697159290314 -0.06731203943490982 -0.07514432072639465 0.048311635851860046 -0.03167405351996422 -0.09113480150699615 0.18631136417388916 0.12933211028575897 0.05912499502301216 -0.04700906574726105 -0.017046771943569183 -0.09150689840316772 0.07814625650644302 0.06431274116039276 -0.15150240063667297 0.0061248973943293095 0.04725266247987747 0.02122478000819683 0.03382393345236778 -0.06821684539318085 0.07392112910747528 0.08077651262283325 0.038746148347854614 0.003107494907453656 -0.10831894725561142 -0.02655249461531639 -0.07790488749742508 0.049054354429244995 0.0038953865878283978 0.10958210378885269 -0.05785007029771805 -0.057425692677497864 0.17824748158454895 -0.06414467096328735 0.1750873625278473 -0.08117279410362244 -0.10456281900405884 0.04430479556322098 0.046648167073726654 0.07026548683643341 -0.10932889580726624 -0.03271040320396423 -0.12379191070795059 -0.06311903148889542 0.15516060590744019 0.1305723935365677 -0.18450358510017395 0.11186454445123672 -0.14682799577713013 0.12804174423217773 -0.02361002005636692 0.12554015219211578 -0.0637049674987793 0.14592193067073822 0.11364638805389404 -0.048833929002285004 -0.11983692646026611 0.11359298229217529 0.12329095602035522 -0.09035826474428177 -0.047852523624897 0.11190225929021835 -0.18328654766082764 -0.06424547731876373 -0.0972478836774826 0.1348220258951187 0.1274787187576294 0.10373055934906006 0.09011251479387283 0.05656528100371361 0.08281175792217255 0.16538287699222565 0.11023706942796707 -0.11407285183668137 -0.089606873691082 0.08825544267892838 -0.07524973899126053 -0.16000044345855713 0.015325675718486309 -0.0430019311606884 0.13930034637451172 0.08050795644521713 -0.07050162553787231 0.10098586976528168 -0.17625845968723297 0.052158430218696594 -0.05338682979345322 0.10047172009944916 0.13799948990345 -0.14267118275165558 -0.07897523790597916 0.13215957581996918 -0.15019331872463226 0.043230727314949036 0.11183334141969681 -0.1443149894475937 -0.10897575318813324 0.15128940343856812 0.14648687839508057 0.04056098684668541 0.07522085309028625 0.09740079194307327 -0.14551737904548645 0.008220450952649117 0.186886265873909 -0.061090994626283646 0.18563437461853027 -0.0977058932185173 -0.0005844892002642155 -0.16535130143165588 -0.0399416945874691 -0.06682666391134262 -0.1282951831817627 0.024441225454211235 0.09743903577327728 0.16244934499263763 0.0032197951804846525 0.03716742992401123 -0.10213731974363327 0.051909785717725754 0.14923863112926483 -0.14643990993499756 -0.043736208230257034 0.04954652488231659 0.13072071969509125 -0.09506841003894806 0.14787854254245758 -0.11333190649747849 0.1477951854467392 0.14563637971878052 0.1026868000626564 0.036135781556367874 -0.15465983748435974 0.17369864881038666 -0.03776118904352188 0.0637473613023758 0.0797443836927414 -0.1412387639284134 -0.19027955830097198 -0.07358298450708389 -0.09508740901947021 0.03377504274249077 -0.1536170095205307 0.09636056423187256 0.10237754136323929 0.17865166068077087 0.07363513112068176 -0.14608889818191528 -0.15645313262939453 0.13036713004112244 -0.07140792161226273 -0.09390002489089966 -0.05563817918300629 0.08970288932323456 -0.021507032215595245 -0.11564838886260986 -0.023330267518758774 -0.07937680929899216 0.025376679375767708 0.11653079837560654 -0.0008316875318996608 0.0010095556499436498 -0.11348513513803482 0.1576041877269745 0.15209120512008667 -0.0807839035987854 0.03501199930906296 0.13382983207702637 -0.09677528589963913 0.15877977013587952 -0.018050799146294594 -0.12183532118797302 -0.1359715759754181 -0.06300631910562515 0.09129034727811813 -0.17378273606300354 -0.1388522833585739 0.143339142203331 0.13393835723400116 -0.008031112141907215 0.012622577138245106 0.1343281865119934 -0.1862669289112091 -0.17085210978984833 0.17495425045490265 0.11452905088663101 0.09749448299407959 0.009119059890508652 0.038067758083343506 -0.13191641867160797 0.18687467277050018 0.06038019061088562 0.15594886243343353 -0.12002170085906982 0.14976370334625244 -0.10388610512018204 0.011950266547501087 0.10825374722480774 0.09857539087533951 0.14675617218017578 -0.1757812798023224 -0.007587485481053591 0.1749809831380844 0.16927209496498108 -0.006569579243659973 0.03659893199801445 -0.16664277017116547 0.07331385463476181 -0.0009294197661802173 -0.01138337329030037 0.030284350737929344 -0.046443160623311996 -0.08092088997364044 -0.17685621976852417 0.11341892182826996 -0.17083360254764557 0.09766652435064316 -0.010227127932012081 0.05985911190509796 -0.01662679947912693 0.17545892298221588 0.03205537050962448 -0.1647595912218094 -0.06975913047790527 0.1328243911266327 0.05825086683034897 0.10434909164905548 0.12399403005838394 0.09716616570949554 -0.07173013687133789 -0.16514728963375092 -0.044146060943603516 0.01537309680134058 0.06683175265789032 0.041690435260534286 0.15464848279953003 0.06283535808324814 0.07559973746538162 0.09259950369596481 0.18810132145881653 0.1774115115404129 0.11506853252649307 -0.054796259850263596 -0.04386511817574501 0.005715729668736458 0.17589399218559265 0.03845343366265297 -0.15640954673290253 -0.17846688628196716 -0.0857454165816307 -0.04064220190048218 -0.03284553065896034 0.08591117709875107 0.15304042398929596 0.12458627671003342 0.05838335305452347 -0.09874589741230011 -0.04790753871202469 0.1093679890036583 0.0717412605881691 -0.13939329981803894 -0.14607277512550354 0.07327428460121155 -0.14851465821266174 -0.022395296022295952 0.06332846730947495 0.1512201726436615 0.03753853589296341 -0.044928472489118576 0.11613979935646057 0.031776946038007736 0.04643866419792175 0.07429026067256927 -0.12806065380573273 -0.11056911200284958 0.07928983867168427 -0.033058203756809235 0.09607544541358948 0.18074564635753632 0.1848875880241394 -0.02646155282855034 -0.14548608660697937 -0.11245786398649216 -0.08108296990394592 0.08533412218093872 0.1745993196964264 0.1529431939125061 0.13903513550758362 0.06866416335105896 0.025946415960788727 -0.053827472031116486 -0.13938696682453156 0.028607692569494247 0.08530385792255402 -0.15071573853492737 -0.11292275786399841 -0.041446954011917114 -0.05037552863359451 0.0839901864528656 -0.12845349311828613 0.15617002546787262 -0.1643153876066208 -0.0147691760212183 0.1747933179140091 0.1464473009109497 -0.04965788498520851 -0.16635127365589142 0.0009184535592794418 -0.009786805137991905 -0.14590910077095032 0.02083580009639263 0.058196332305669785 -0.04187961667776108 -0.057016320526599884 0.12140132486820221 -0.04209967330098152 -0.07161528617143631 -0.1016639843583107 -0.1609460562467575 0.1786591112613678 -0.10427556931972504 -0.16299517452716827 0.026389170438051224 -0.06168824061751366 -0.14817503094673157 0.1819707453250885 -0.12011906504631042 -0.13650894165039062 -0.10995495319366455 -0.19134466350078583 0.09655068069696426 0.04504501447081566 0.18808642029762268 -0.18979232013225555 0.1318524330854416 0.008981339633464813 -0.04724210873246193 -0.19076859951019287 -0.1368398815393448 0.08346376568078995 0.1233343854546547 0.05442432686686516 0.014663414098322392 0.033249493688344955 0.0503600649535656 0.15096516907215118 0.07073383778333664 -0.02507421374320984 -0.15777508914470673 -0.07340738922357559 0.009923583827912807 -0.16274277865886688 0.011362197808921337 -0.12694306671619415 -0.1044795885682106 -0.12653303146362305 -0.07084254175424576 0.10732191801071167 -0.11480733752250671 0.08207140117883682 0.14041541516780853 0.17330966889858246 0.17920714616775513 -0.1052987277507782 -0.039494581520557404 0.16020338237285614 -0.11565175652503967 0.18198953568935394 -0.06586416065692902 -0.14982298016548157 0.059918828308582306 0.036035869270563126 0.05550374090671539 -0.08835746347904205 0.08696720749139786 -0.18250122666358948 0.03637222200632095 -0.16835902631282806 0.09160664677619934 0.16702044010162354 -0.1701459437608719 0.07533985376358032 -0.008950689807534218 0.13619980216026306 0.12711316347122192 -0.050657324492931366 0.07776237279176712 0.09739968925714493 0.12556682527065277 0.16733098030090332 -0.1892915517091751 0.02011778950691223 0.1449694037437439 0.09012579917907715 -0.07579588890075684 0.04079347848892212 0.16483041644096375 0.18623363971710205 0.17733727395534515 -0.1458606719970703 0.01559694018214941 -0.1593397706747055 -0.12780331075191498 0.04954608902335167 -0.16823989152908325 0.1311812549829483 0.09247338771820068 -0.12262098491191864 0.043312057852745056 0.10310998558998108 0.1704898178577423 0.11323614418506622 0.07431955635547638 0.03709479793906212 0.014378637075424194 0.08264393359422684 -0.17303450405597687 -0.16842342913150787 0.06944946199655533 -0.04379468411207199 0.1864752322435379 -0.19039477407932281 0.022375451400876045 -0.01959308795630932 0.06623297184705734 0.15997523069381714 0.010466938838362694 0.06132298335433006 -0.06869812309741974 0.13531696796417236 0.10168848186731339 0.10198551416397095 0.19101351499557495 0.0630749836564064 0.13194255530834198 0.05235639587044716 0.02963651902973652 0.07059387117624283 0.12844128906726837 0.18739724159240723 -0.06586714088916779 -0.11737317591905594 -0.033036455512046814 -0.18476319313049316 0.13035669922828674 -0.08114952594041824 -0.14094173908233643 -0.1607668399810791
1x1 kernel: -0.3318417966365814 0.4502362012863159 -0.043380722403526306 0.4092886745929718 -0.5623878240585327 -0.4524464011192322 0.22251281142234802 -0.3980722427368164 0.2018803060054779 -0.447274774312973 0.38318783044815063 0.143827423453331 0.07562437653541565 0.05279804766178131 -0.5422208309173584 0.3970353305339813 0.5492933988571167 0.34774062037467957 -0.15516148507595062 0.07007655501365662 0.07332786917686462 0.11023197323083878 -0.38554897904396057 0.3829585909843445 0.4332941174507141 -0.42240455746650696 0.4604088366031647 -0.23369868099689484 -0.48444366455078125 0.5684696435928345 -0.1563144475221634 -0.456609308719635 -0.32966849207878113 0.27980345487594604 -0.3630947172641754 -0.13240039348602295 0.04977908730506897 -0.25929373502731323 -0.5050879716873169 0.5062647461891174 0.12988406419754028 -0.4065924286842346 -0.47083842754364014 0.3835533857345581 -0.5557488203048706 -0.5251427888870239 -0.26957494020462036 0.016333533450961113 -0.2937891483306885 -0.5556954741477966 0.39962103962898254 -0.32490888237953186 -0.5549558401107788 -0.02948533184826374 -0.00968553964048624 -0.1465374380350113 0.5486672520637512 -0.15215958654880524 0.22575071454048157 0.1922738403081894 -0.4747775197029114 -0.43613338470458984 0.5304657220840454 -0.28002822399139404 -0.29160964488983154 -0.5542820692062378 -0.36494502425193787 -0.3576928675174713 0.45046257972717285 0.19547224044799805 -0.16664935648441315 0.4602116346359253 0.16287991404533386 -0.06364460289478302 -0.21305330097675323 0.2883927524089813 0.5638267993927002 0.5750927329063416 -0.17790019512176514 -0.27878689765930176 0.3413112163543701 -0.13897578418254852 -0.027341622859239578 -0.35117363929748535 0.05011577904224396 0.4408881366252899 0.19716273248195648 -0.40421491861343384 0.2420559674501419 -0.10860776156187057 -0.3032514750957489 -0.36345192790031433 -0.03587399050593376 -0.49377337098121643 -0.23193104565143585 0.4314756691455841 0.5198028087615967 0.14918170869350433 0.4999578893184662 -0.20312164723873138 -0.5124595165252686 -0.5235162377357483 0.03755760192871094 -0.5210831761360168 -0.41268274188041687 -0.05675847455859184 -0.5021877288818359 -0.498166561126709 -0.30598393082618713 0.05917191132903099 0.018487082794308662 -0.29011213779449463 -0.2808828353881836 -0.4457091987133026 0.07787469029426575 0.12367380410432816 0.13434851169586182 -0.32003897428512573 0.2427135854959488 0.2354728728532791 -0.13810576498508453 0.358987957239151 0.13144393265247345 -0.5381017923355103 0.5374563932418823 -0.20257124304771423 -0.5028110146522522 -0.3795647919178009 -0.2720593512058258 0.36956465244293213 0.2667224705219269 -0.2298533320426941 0.333096981048584 0.1488153487443924 0.07186051458120346 0.20548202097415924 0.2578097879886627 0.32870158553123474 -0.06499062478542328 -0.18236786127090454 -0.2024700790643692 0.40963494777679443 -0.5399667620658875 0.4272252917289734
bn3x3_weights: 1.0 1.0 1.0 1.0 1.0 1.0 1.0 1.0 1.0 1.0 1.0 1.0 1.0 1.0 1.0 1.0 1.0 1.0 1.0 1.0 1.0 1.0 1.0 1.0 1.0 1.0 1.0 1.0 1.0 1.0 1.0 1.0 1.0 1.0 1.0 1.0 1.0 1.0 1.0 1.0 1.0 1.0 1.0 1.0 1.0 1.0 1.0 1.0
bn3x3_bias: 0.0 0.0 0.0 0.0 0.0 0.0 0.0 0.0 0.0 0.0 0.0 0.0 0.0 0.0 0.0 0.0 0.0 0.0 0.0 0.0 0.0 0.0 0.0 0.0 0.0 0.0 0.0 0.0 0.0 0.0 0.0 0.0 0.0 0.0 0.0 0.0 0.0 0.0 0.0 0.0 0.0 0.0 0.0 0.0 0.0 0.0 0.0 0.0
bn3x3_running_mean: 0.0 0.0 0.0 0.0 0.0 0.0 0.0 0.0 0.0 0.0 0.0 0.0 0.0 0.0 0.0 0.0 0.0 0.0 0.0 0.0 0.0 0.0 0.0 0.0 0.0 0.0 0.0 0.0 0.0 0.0 0.0 0.0 0.0 0.0 0.0 0.0 0.0 0.0 0.0 0.0 0.0 0.0 0.0 0.0 0.0 0.0 0.0 0.0
bn3x3_running_var: 1.0 1.0 1.0 1.0 1.0 1.0 1.0 1.0 1.0 1.0 1.0 1.0 1.0 1.0 1.0 1.0 1.0 1.0 1.0 1.0 1.0 1.0 1.0 1.0 1.0 1.0 1.0 1.0 1.0 1.0 1.0 1.0 1.0 1.0 1.0 1.0 1.0 1.0 1.0 1.0 1.0 1.0 1.0 1.0 1.0 1.0 1.0 1.0
num_batches_tracked: 0
bn_weights: 1.0 1.0 1.0 1.0 1.0 1.0 1.0 1.0 1.0 1.0 1.0 1.0 1.0 1.0 1.0 1.0 1.0 1.0 1.0 1.0 1.0 1.0 1.0 1.0 1.0 1.0 1.0 1.0 1.0 1.0 1.0 1.0 1.0 1.0 1.0 1.0 1.0 1.0 1.0 1.0 1.0 1.0 1.0 1.0 1.0 1.0 1.0 1.0
bn_bias: 0.0 0.0 0.0 0.0 0.0 0.0 0.0 0.0 0.0 0.0 0.0 0.0 0.0 0.0 0.0 0.0 0.0 0.0 0.0 0.0 0.0 0.0 0.0 0.0 0.0 0.0 0.0 0.0 0.0 0.0 0.0 0.0 0.0 0.0 0.0 0.0 0.0 0.0 0.0 0.0 0.0 0.0 0.0 0.0 0.0 0.0 0.0 0.0
bn_running_mean: 0.0 0.0 0.0 0.0 0.0 0.0 0.0 0.0 0.0 0.0 0.0 0.0 0.0 0.0 0.0 0.0 0.0 0.0 0.0 0.0 0.0 0.0 0.0 0.0 0.0 0.0 0.0 0.0 0.0 0.0 0.0 0.0 0.0 0.0 0.0 0.0 0.0 0.0 0.0 0.0 0.0 0.0 0.0 0.0 0.0 0.0 0.0 0.0
bn_running_var: 1.0 1.0 1.0 1.0 1.0 1.0 1.0 1.0 1.0 1.0 1.0 1.0 1.0 1.0 1.0 1.0 1.0 1.0 1.0 1.0 1.0 1.0 1.0 1.0 1.0 1.0 1.0 1.0 1.0 1.0 1.0 1.0 1.0 1.0 1.0 1.0 1.0 1.0 1.0 1.0 1.0 1.0 1.0 1.0 1.0 1.0 1.0 1.0
num_batches_tracked: 0
