3x3 kernel: 0.001920904265716672 0.15435414016246796 -0.13999268412590027 0.03754626214504242 0.14235718548297882 -0.04394134134054184 -0.1324145495891571 0.16595007479190826 -0.07435604929924011 0.08374600112438202 0.06869857013225555 -0.17150937020778656 -0.015334244817495346 0.29336026310920715 -0.0698094367980957 -0.02914787083864212 -0.1311231106519699 -0.1059747040271759 0.05536925792694092 0.06855721771717072 -0.17877134680747986 -0.11914536356925964 -0.3614266812801361 0.18213702738285065 -0.13491667807102203 0.10698004066944122 0.024789098650217056 -0.1315021514892578 0.18818773329257965 -0.07594812661409378 -0.05735177546739578 -0.27555957436561584 -0.17305025458335876 0.11843328177928925 -0.10320097208023071 0.0864654928445816 0.12662623822689056 0.09962606430053711 -0.18116483092308044 -0.1166069507598877 -0.06856031715869904 -0.17338654398918152 0.03692840039730072 0.14008916914463043 -0.18928420543670654 -0.13959509134292603 -0.05695793777704239 0.09134772419929504 -0.06661036610603333 -0.3581877052783966 0.07225605845451355 -0.1211991012096405 -0.10433091223239899 0.10611698031425476 -0.1763078272342682 -0.0392356738448143 -0.15977485477924347 -0.08902862668037415 -0.11783341318368912 -0.043843455612659454 0.00745818018913269 0.16043175756931305 0.1392117291688919 -0.0683559700846672 0.1820882111787796 -0.11093561351299286 -0.01876179128885269 -0.5871277451515198 0.04567607492208481 -0.0771750882267952 0.11755287647247314 -0.04567911475896835 0.15739722549915314 0.010447844862937927 -0.18064914643764496 -0.1521667242050171 -0.6401848793029785 0.16144199669361115 -0.09044114500284195 0.010849978774785995 0.03573189675807953 -0.0911644995212555 0.1799546331167221 0.09482885897159576 0.18278507888317108 -0.2257612645626068 0.05655720829963684 -0.022163882851600647 0.15420101583003998 -0.08759454637765884 -0.0852244570851326 -0.08206158876419067 -0.16242916882038116 -0.16126519441604614 -0.03237975388765335 0.14478154480457306 -0.18067894876003265 -0.021183621138334274 -0.04907035827636719 0.053738489747047424 0.015622727572917938 0.0740777999162674 -0.07073964178562164 -0.26468589901924133 0.11923231184482574 0.18201027810573578 -0.13458199799060822 -0.12424010783433914 0.18761120736598969 -0.0975838229060173 0.17120693624019623 -0.1738836020231247 -0.0889260545372963 -0.18813900649547577 -0.1792145073413849 -0.01759142056107521 -0.005726860836148262 0.06373879313468933 0.14671222865581512 -0.056036077439785004 -0.08158033341169357 -0.21901793777942657 -0.13408112525939941 0.03779595345258713 0.03612469881772995 0.0611724853515625 0.15685375034809113 -0.08168543130159378 0.13271133601665497 0.08148953318595886 -0.4013463258743286 -0.11825358867645264 0.058732353150844574 0.07263821363449097 0.1130744069814682 -0.05817590653896332 0.15535353124141693 -0.1799767017364502 -0.09946992993354797 0.4519693851470947 0.023610282689332962 -0.052073925733566284 -0.10483434796333313 -0.04178661108016968 -0.0370534211397171 -0.06897055357694626 -0.07540885359048843 -0.1137254387140274 -0.29206979274749756 0.17392347753047943 -0.060694023966789246 0.056257545948028564 0.1285969763994217 -0.11562499403953552 0.11198651790618896 0.13307718932628632 0.003295671660453081 -0.4535745680332184 0.012921890243887901 -0.12743908166885376 0.06639689207077026 0.14589862525463104 -0.10805724561214447 -0.007088545709848404 0.14557741582393646 -0.045466192066669464 -0.2754248082637787 0.13257528841495514 -0.16375014185905457 -0.14896878600120544 -0.16857998073101044 -0.11754053086042404 -0.12482767552137375 -0.19014330208301544 -0.07149296253919601 0.3623170852661133 -0.1646743267774582 -0.029598191380500793 0.12851764261722565 -0.0609927624464035 0.14659343659877777 0.146701380610466 0.1549789160490036 0.17877916991710663 -0.3919011056423187 0.03798676282167435 0.08594845235347748 0.04670732468366623 -0.17493152618408203 0.16424547135829926 -0.02346384897828102 -0.08069107681512833 0.14903764426708221 0.42632636427879333 0.0043638357892632484 0.14409811794757843 0.020233578979969025 0.03202212601900101 0.08922304213047028 0.15614445507526398 -0.016161490231752396 -0.019681837409734726 -0.5547186136245728 0.10507890582084656 0.13167954981327057 0.08487489819526672 -0.06844392418861389 0.1487901359796524 0.11103862524032593 0.10797861218452454 0.03161649405956268 0.0314629003405571 0.16103748977184296 -0.11683954298496246 -0.17389972507953644 -0.04303479194641113 -0.08455925434827805 0.12163762748241425 -0.09438905864953995 -0.17512331902980804 -0.2141788899898529 -0.0532863587141037 -0.02751939743757248 0.17693163454532623 -0.14964774250984192 0.094431072473526 0.17579613626003265 0.1049451231956482 0.06273601949214935 -0.06069285795092583 -0.10982310771942139 0.15322311222553253 0.14002670347690582 -0.08114751428365707 0.03521954268217087 0.00030339951626956463 -0.06739442050457001 -0.13114815950393677 0.3938013017177582 0.023318979889154434 0.08952240645885468 0.027567826211452484 0.04678338021039963 0.05778506398200989 -0.011820361018180847 -0.1903570592403412 0.11840517818927765 0.2682061493396759 0.13754095137119293 -0.18714937567710876 -0.045875877141952515 -0.1515960395336151 -0.0945529192686081 -0.09253078699111938 -0.09551957249641418 -0.07874317467212677 -0.11388277262449265 -0.18854118883609772 0.17222033441066742 -0.008838281035423279 -0.12627898156642914 -0.010219665244221687 0.06213371455669403 -0.08434523642063141 -0.1252375841140747 -0.340891033411026 -0.12271139025688171 -0.1672835350036621 0.015611119568347931 -0.051848724484443665 0.0076425205916166306 0.043810345232486725 0.14884422719478607 0.01864110678434372 0.10824654996395111 -0.14537574350833893 -0.002920628059655428 -0.12056334316730499 -0.11525192856788635 -0.18226388096809387 0.09758378565311432 0.09408485889434814 -0.19162140786647797 -0.2823764383792877 -0.010566605255007744 0.1531675010919571 0.08842387795448303 -0.15201252698898315 0.18151114881038666 0.1115669310092926 -0.16898885369300842 -0.1864587366580963 -0.3129357397556305 0.015608809888362885 -0.14216214418411255 -0.1921198070049286 -0.08345216512680054 0.08937104046344757 0.04203177988529205 -0.043821342289447784 -0.01683659479022026 -0.5033487677574158 0.06800960004329681 -0.052703507244586945 -0.1452523171901703 0.12806935608386993 -0.18345442414283752 -0.005296117626130581 -0.15999361872673035 0.19146324694156647 0.4431298077106476 -0.026052646338939667 0.044417813420295715 0.14846356213092804 0.1446426659822464 0.020790651440620422 0.15959911048412323 -0.06877853721380234 -0.120611771941185 0.4988691806793213 0.16481144726276398 -0.07623063027858734 0.00878736563026905 -0.14474718272686005 -0.1511351615190506 -0.08790091425180435 0.023891329765319824 0.03283219039440155 -0.36963021755218506 0.06072494387626648 -0.15083983540534973 0.0814080536365509 0.03145648539066315 0.1893254667520523 -0.0182514451444149 0.13936634361743927 -0.08772604912519455 0.5572499632835388 -0.19051070511341095 -0.1190245971083641 -0.09370587021112442 -0.048407234251499176 -0.11753823608160019 -0.001033891923725605 -0.05097631365060806 -0.1873343586921692 0.313633531332016 0.09866799414157867 -0.07772548496723175 0.15817667543888092 -0.14934788644313812 -0.08186988532543182 0.15160463750362396 -0.08055774122476578 -0.03529100865125656 -0.5692834258079529 0.15680883824825287 0.1780959814786911 -0.13564512133598328 -0.07032500207424164 -0.07168576121330261 0.03784998506307602 0.019294440746307373 -0.019519254565238953 -0.4603953957557678 0.09123235940933228 0.16576243937015533 -0.170759916305542 0.13961277902126312 -0.17349453270435333 -0.056707099080085754 -0.17331311106681824 0.04999377578496933 0.06449698656797409 0.15795104205608368 0.10570314526557922 0.041305989027023315 0.06849007308483124 -0.00018952597747556865 0.16699258983135223 0.0473150908946991 -0.028888560831546783 -0.12763941287994385 0.030175741761922836 0.06564576923847198 0.08161163330078125 -0.15939034521579742 0.004550768993794918 -0.1255064159631729 0.04293230175971985 -0.09564091265201569 0.21249991655349731 0.06247325241565704 0.08574174344539642 0.1469326764345169 0.0974961370229721 0.15048544108867645 -0.1207832619547844 0.04727843403816223 -0.1679544746875763 -0.27808383107185364 0.08950529992580414 -0.1331605315208435 -0.012960303574800491 0.07294788956642151 0.16700558364391327 -0.08340522646903992 0.1715652197599411 -0.09411226212978363 0.334190309047699 0.0046711694449186325 -0.0929407998919487 -0.15059402585029602 -0.15139387547969818 0.18154270946979523 0.052845604717731476 0.0768955796957016 -0.1900569051504135 0.6120322346687317 -0.1338445097208023 -0.021825823932886124 -0.04706443101167679 -0.17800486087799072 -0.02063535526394844 0.08110839128494263 -0.13253729045391083 0.1527806669473648 0.48615625500679016 -0.09321461617946625 0.11582963168621063 0.13947708904743195 -0.17641423642635345 0.17730598151683807 -0.1391194760799408 -0.012316551059484482 0.0513419434428215 -0.1468348354101181 0.16754548251628876 -0.033801160752773285 0.18669654428958893 0.14804096519947052 0.0665864646434784 -0.06900715082883835 -0.027239512652158737 0.054704517126083374 0.03707651048898697 -0.00792456604540348 0.01684042438864708 0.16914360225200653 0.09651455283164978 -0.01034216582775116 0.18339292705059052 0.17091672122478485 -0.17391520738601685 -0.26254647970199585 0.12190641462802887 0.06222052872180939 0.14695222675800323 0.08362849056720734 -0.12232936173677444 0.14094342291355133 -0.029583454132080078 0.11525562405586243 0.39906755089759827 0.12465380132198334 -0.06934992969036102 -0.1250738799571991 0.08479878306388855 0.03718830645084381 0.14146561920642853 -0.05138357728719711 0.0339619517326355 0.5567921996116638 -0.12343648076057434 0.10613718628883362 -0.08152061700820923 -0.08163291960954666 0.03180015832185745 -0.13029462099075317 -0.01187172532081604 0.15276561677455902 -0.3074623644351959 -0.007423147559165955 0.022450178861618042 -0.11863365024328232 -0.09935583919286728 -0.03042929619550705 -0.02747330814599991 -0.013129385188221931 0.09932327270507812 -0.5983914136886597 0.059657201170921326 -0.17119964957237244 -0.06558017432689667 -0.1637348085641861 0.07050251960754395 -0.1453939825296402 -0.029331836849451065 -0.11184334754943848 -0.37059342861175537 -0.01939752697944641 0.009376104921102524 -0.14579764008522034 0.15708531439304352 0.09944173693656921 0.18404312431812286 -0.14928513765335083 0.11270873248577118 -0.17385917901992798 0.18725703656673431 -0.10776662826538086 -0.1456553339958191 0.022166967391967773 0.13694779574871063 0.11175355315208435 0.043056994676589966 -0.13222846388816833 -0.08632265031337738 -0.1582893580198288 0.15978841483592987 0.13060612976551056 0.03750549256801605 0.12516500055789948 -0.18071801960468292 -0.0016333446837961674 0.06274737417697906 -0.36388882994651794 -0.08275937288999557 -0.13767188787460327 -0.11198630183935165 0.050132207572460175 0.02544158697128296 -0.03610061854124069 -0.04552020877599716 -0.07491429150104523 -0.12664394080638885 0.016761627048254013 -0.1704855114221573 0.13241921365261078 -0.11823920160531998 -0.1117851734161377 -0.13041511178016663 -0.031628601253032684 0.12086659669876099 -0.32329997420310974 -0.11386234313249588 -0.1231781542301178 -0.029594600200653076 0.10440213978290558 -0.14833766222000122 0.09120738506317139 -0.07147157937288284 -0.1481155902147293 -0.5949547290802002 0.17949111759662628 0.14684464037418365 -0.11775475740432739 0.03728814423084259 0.15398766100406647 -0.10749348253011703 0.0896519273519516 0.0075384220108389854 0.3828416168689728 -0.010534418746829033 -0.12623196840286255 -0.1264169067144394 -0.06588555872440338 -0.07413970679044724 -0.18838606774806976 0.021946672350168228 0.12103185057640076 -0.3919851779937744 -0.05171768367290497 0.18010927736759186 0.1603143960237503 0.1729016751050949 -0.11279129236936569 0.05858122557401657 -0.024023395031690598 0.12343788146972656 0.5192400217056274 -0.10632830858230591 -0.009540537372231483 0.0060049137100577354 -0.15273365378379822 0.19016410410404205 0.05230514705181122 0.16505111753940582 -0.03708632290363312 -0.16630667448043823 -0.18648496270179749 0.08639650046825409 0.14117206633090973 -0.07410586625337601 -0.08779150247573853 0.06607045233249664 -0.05371168255805969 0.07794414460659027 0.34845107793807983 -0.02250656485557556 0.12081030011177063 -0.14790530502796173 0.19207288324832916 -0.0652497261762619 -0.15708878636360168 -0.026752009987831116 -0.18361863493919373 -0.08878420293331146 -0.13239826261997223 0.035651057958602905 0.10721941292285919 0.16946791112422943 -0.11164212971925735 0.1520305722951889 0.18860964477062225 0.15259791910648346 -0.49134066700935364 -0.10948614031076431 0.03526230901479721 0.10792869329452515 0.1546386331319809 0.08358265459537506 0.027597926557064056 0.16973759233951569 0.059038154780864716 0.1302190124988556 -0.11574534326791763 -0.12205775827169418 0.039483778178691864 0.006886160001158714 0.10765601694583893 0.15485067665576935 -0.04020482301712036 0.13522665202617645 -0.056350983679294586 -0.0757058635354042 0.05947999656200409 -0.025416046380996704 -0.1492520123720169 0.16378332674503326 -0.03557105362415314 -0.03901876509189606 -0.026000507175922394 -0.08070020377635956 -0.08089803904294968 0.14233432710170746 -0.1888429969549179 -0.06292688846588135 -0.1400233507156372 0.014233758673071861 0.1329188197851181 0.0219091959297657 0.3862296938896179 0.19014565646648407 -0.16954107582569122 -0.030903656035661697 -0.11452774703502655 0.07419319450855255 -0.11952794343233109 -0.06314125657081604 0.15876398980617523 -0.08483001589775085 -0.10603277385234833 -0.17646709084510803 -0.10541898757219315 0.1316608339548111 0.18918581306934357 0.11902116239070892 -0.13211548328399658 0.03071548417210579 0.29766660928726196 0.1143542230129242 0.10770247876644135 -0.12228988111019135 0.08463606238365173 -0.12662887573242188 0.08096002042293549 0.08214813470840454 -0.11961580812931061 0.3279401361942291 0.1436370462179184 0.16370965540409088 -0.1671009212732315 -0.10475852340459824 -0.13562291860580444 -0.07331154495477676 0.09585683047771454 -0.0850151777267456 -0.19267116487026215 0.017568204551935196 -0.1263195425271988 0.01348482072353363 -0.14927850663661957 0.10478822886943817 -0.14226506650447845 0.05595424026250839 0.1277703493833542 0.03250047564506531 -0.004978606477379799 -0.14756183326244354 0.14431311190128326 0.12218360602855682 -0.023625656962394714 0.10987363755702972 -0.05140494555234909 0.1486653834581375 0.1459837704896927 0.14825879037380219 -0.11515410244464874 -0.11846816539764404 -0.15328043699264526 0.1683586686849594 0.07635876536369324 0.05202615261077881 -0.18263490498065948 -0.1299031525850296 0.13916708528995514 -0.12074249237775803 -0.012461582198739052 -0.05523394048213959 -0.058603666722774506 0.15861035883426666 -0.13982875645160675 -0.03365742415189743 0.13784678280353546 -0.0723998099565506 -0.01151590421795845 -0.06484401226043701 0.1484556645154953 0.0861084908246994 0.07488583028316498 0.09413331747055054 0.1278436928987503 -0.34479963779449463 -0.028476770967245102 -0.13678273558616638 0.12682859599590302 0.11381666362285614 -0.09892727434635162 -0.062000684440135956 0.17757834494113922 0.16399918496608734 0.35228827595710754 0.14328552782535553 -0.0807732567191124 -0.18475325405597687 -0.06104142963886261 0.14038489758968353 0.10097260773181915 0.07836604118347168 -0.0959014818072319 0.38022685050964355 0.16549764573574066 0.1361939162015915 0.01205555908381939 -0.03329598158597946 0.04882898926734924 0.1677187830209732 0.056627675890922546 0.06759652495384216 -0.4788353145122528 0.04620105028152466 -0.1542700231075287 0.1879873424768448 -0.14533942937850952 0.06355616450309753 -0.0422583743929863 -0.11428332328796387 0.05539706349372864 0.15103931725025177 -0.1437855064868927 0.1688506156206131 0.16649217903614044 0.0659349113702774 0.10790616273880005 -0.013928631320595741 -0.07363052666187286 0.13483650982379913 0.012120022438466549 -0.11237166076898575 -0.10754324495792389 0.007906684651970863 0.011149369180202484 -0.12683144211769104 0.16714267432689667 0.039499618113040924 0.01158108189702034 0.34582576155662537 -0.041721150279045105 0.034338176250457764 0.06465664505958557 -0.17699679732322693 0.0368669331073761 -0.18837782740592957 -0.1077812910079956 -0.024970564991235733 0.7553907036781311 0.005396759137511253 -0.003897314891219139 0.13251282274723053 -0.04685115069150925 0.07945919036865234 0.04915829002857208 -0.1895613670349121 0.06982523202896118 -0.26359033584594727 -0.06757770478725433 0.19046099483966827 -0.0557975247502327 0.14960284531116486 -0.017069421708583832 0.06889091432094574 0.08521166443824768 -0.11587923765182495 0.25128862261772156 0.14979754388332367 0.13203619420528412 0.02971869707107544 -0.17706353962421417 0.17820389568805695 -0.004310043528676033 -0.01350480131804943 -0.08089587837457657 -0.2615758776664734 0.13532112538814545 -0.19009627401828766 -0.15221604704856873 -0.0970216765999794 0.08117476105690002 -0.17710168659687042 0.12615294754505157 0.14111046493053436 0.5792561173439026 0.13180674612522125 0.12206117808818817 -0.0806627944111824 0.13778094947338104 -0.08310301601886749 -0.061107322573661804 -0.181005597114563 -0.16999489068984985 -0.4739522933959961 0.18795834481716156 -0.18056735396385193 -0.09588026255369186 0.011444974690675735 -0.04810970276594162 0.0810094028711319 0.028802987188100815 0.18994347751140594 0.11065588891506195 0.16603000462055206 -0.09844765067100525 0.019095513969659805 0.004534407518804073 0.037839777767658234 -0.1382090449333191 0.10576686263084412 -0.11333306133747101 0.33677440881729126 0.07550263404846191 0.040869928896427155 -0.07592225074768066 0.0017932772170752287 -0.10522335767745972 0.062316879630088806 0.04342919588088989 0.17960374057292938 -0.26516851782798767 0.08438432216644287 0.05914684385061264 -0.05129491537809372 0.13940416276454926 0.06712743639945984 0.0727788507938385 0.02520562708377838 0.1080387532711029 0.45929160714149475 -0.10524267703294754 -0.18412651121616364 0.14070464670658112 -0.1524224877357483 0.06314463913440704 0.14008288085460663 0.16418756544589996 0.11293955147266388 0.10642679780721664 -0.11854702234268188 -0.06213514506816864 -0.18473072350025177 -0.05110415071249008 -0.1644112467765808 -0.030737940222024918 -0.18454642593860626 -0.14175686240196228 -0.525372326374054 -0.08737903088331223 0.10445602238178253 0.020410601049661636 0.07133953273296356 0.02769448608160019 0.01836785301566124 0.1373744159936905 -0.08818426728248596 0.3090951144695282 -0.07720546424388885 0.03161023557186127 -0.1260509341955185 0.004333124496042728 0.053694695234298706 -0.14474642276763916 -0.010255293920636177 0.05468900501728058 0.569128692150116 -0.02516375482082367 0.17866884171962738 0.18484492599964142 -0.17569848895072937 0.031588733196258545 0.07003703713417053 0.09121233224868774 0.05345238745212555 0.42501968145370483 -0.1224350780248642 -0.1544712483882904 0.17412741482257843 0.06924161314964294 0.02927945926785469 0.03913431614637375 0.07923468947410583 -0.09763016551733017 0.3591001629829407 -0.0433197021484375 -0.1002972349524498 0.042812854051589966 0.08154603838920593 -0.15191695094108582 0.06057775765657425 -0.124976247549057 -0.0006839564302936196 0.12595048546791077 0.0481768473982811 -0.01980264112353325 0.12886066734790802 0.14204825460910797 0.009981710463762283 0.09655481576919556 -0.18126188218593597 -0.18555060029029846 0.4871610701084137 0.01808784529566765 0.0021175825968384743 -0.11536797881126404 -0.03071986511349678 0.09133785963058472 -0.0476929247379303 0.17750205099582672 -0.035550639033317566 -0.4429839849472046 0.14606167376041412 -0.06767179071903229 -0.004614798352122307 -0.059285178780555725 0.02981877326965332 0.05484601855278015 0.18633140623569489 -0.04628460109233856 -0.33139702677726746 -0.07652676850557327 -0.15288108587265015 0.1369251161813736 -0.08011021465063095 -0.08553297817707062 0.1705629676580429 -0.16938899457454681 -0.04992113262414932 0.2412884384393692 0.17305342853069305 0.0994451642036438 -0.04800095409154892 -0.17728973925113678 0.13506124913692474 -0.07545563578605652 0.14104796946048737 0.1384681612253189 0.5385617613792419 0.06594936549663544 -0.057659514248371124 0.03626849502325058 -0.047275006771087646 0.051048703491687775 0.16568203270435333 0.15561418235301971 0.15191499888896942 0.4162869453430176 0.02026659995317459 0.09801258146762848 0.11505231261253357 -0.0479750782251358 0.09773688018321991 -0.12107288092374802 -0.041211001574993134 0.004812117666006088 0.022853249683976173 -0.030241306871175766 -0.18299618363380432 -0.06287629902362823 0.0010010499972850084 0.03389132022857666 0.1791812926530838 -0.11379571259021759 -0.0656048059463501 0.6358954310417175 -0.13658717274665833 -0.1374252885580063 0.006709478795528412 -0.06071549654006958 0.11210194230079651 -0.059836745262145996 -0.1371220052242279 0.13255088031291962 0.030889326706528664 0.05213332176208496 0.11931048333644867 -0.155148446559906 0.10525402426719666 -0.11503473669290543 -0.0987481027841568 -0.13988542556762695 0.12177856266498566 -0.37477022409439087 -0.14770375192165375 -0.15482541918754578 -0.0021139620803296566 -0.11751187592744827 0.020748138427734375 -0.12826603651046753 0.08106876909732819 0.008417045697569847 0.40179553627967834 0.08092425763607025 -0.08358553051948547 -0.18294379115104675 -0.08554745465517044 -0.09677117317914963 0.17318232357501984 0.033416472375392914 0.020981714129447937 -0.17549778521060944 0.04408680647611618 -0.13238197565078735 -0.12130776792764664 -0.17642736434936523 0.08120754361152649 -0.18852943181991577 -0.023311633616685867 -0.14218471944332123 -0.47697412967681885 -0.10236097872257233 -0.17931242287158966 -0.16101382672786713 -0.10107634961605072 0.18416039645671844 -0.0709623396396637 0.1464400440454483 -0.026533354073762894 -0.4818737804889679 -0.18964703381061554 -0.1663341373205185 0.01680975779891014 -0.12374940514564514 0.17054681479930878 -0.15849246084690094 0.0803452581167221 -0.1365828514099121 -0.5591398477554321 0.05360306799411774 -0.1384979784488678 -0.18325646221637726 -0.07614588737487793 0.12930889427661896 0.17332254350185394 -0.17205575108528137 -0.03367093950510025 -0.43951499462127686 0.01833489164710045 0.08251184225082397 -0.052953921258449554 0.14675937592983246 0.0856187492609024 -0.11055366694927216 -0.009192196652293205 -0.09021628648042679 0.2458849996328354 0.07759405672550201 0.09212411940097809 -0.08553832024335861 -0.05847526341676712 0.009754203259944916 -0.128326416015625 -0.14099054038524628 0.0543610081076622 0.03248797357082367 0.05845972150564194 -0.03602568805217743 -0.09162270277738571 -0.070005863904953 0.0914476215839386 -0.13335174322128296 0.12804169952869415 0.04631491005420685 0.6438941955566406 -0.0960640087723732 -0.06565095484256744 -0.03984583914279938 0.09792713820934296 0.17638404667377472 0.18240989744663239 -0.13280659914016724 0.010953569784760475 0.2632511258125305 -0.16343888640403748 -0.1029939278960228 0.07358074188232422 -0.03106759488582611 0.09564761817455292 0.05379559099674225 0.035718291997909546 0.07882943749427795 0.7133570313453674 0.18767987191677094 0.14293940365314484 -0.059248149394989014 0.11127680540084839 0.13330300152301788 -0.08180569112300873 0.16265474259853363 -0.11607919633388519 0.6380142569541931 0.17486868798732758 0.031287357211112976 0.07958808541297913 -0.08592437207698822 -0.18684175610542297 0.05377660691738129 0.06716412305831909 -0.1310701072216034 0.3932531177997589 -0.05503053963184357 0.07702364027500153 -0.04625505208969116 -0.009332951158285141 0.06223113834857941 0.1640014499425888 -0.156527578830719 -0.11830661445856094 0.03740188851952553 -0.13625310361385345 0.08625666797161102 -0.041955024003982544 -0.050823718309402466 0.16017822921276093 -0.11962292343378067 0.06054685264825821 -0.16975738108158112 0.45611584186553955 0.05166233330965042 -0.11307355016469955 0.1659049540758133 0.05562693625688553 0.17119787633419037 0.07047685980796814 -0.089147187769413 -0.1266857087612152 0.07093143463134766 0.10051701962947845 -0.0673932284116745 -0.014011496677994728 0.08818429708480835 -0.18000765144824982 -0.1450653076171875 -0.01685696467757225 0.17630337178707123 0.24332278966903687 -0.15118852257728577 -0.07731634378433228 -0.1346927434206009 -0.10226742178201675 0.05891113728284836 0.14993955194950104 0.03193683177232742 -0.09046949446201324 -0.010057715699076653 -0.12307050824165344 0.08779215812683105 -0.004092101007699966 -0.11595051735639572 0.12125048041343689 -0.141389399766922 0.18786536157131195 -0.12476587295532227 0.1427280157804489 0.0665600597858429 0.1536136120557785 0.07104109227657318 -0.04218500107526779 0.01365087740123272 0.14964847266674042 -0.035406798124313354 0.04282209277153015 -0.3432249426841736 -0.14283156394958496 0.1378614455461502 0.053565189242362976 -0.18951673805713654 0.125937357544899 0.028285861015319824 -0.05103117972612381 0.13141094148159027 0.08102025091648102 0.04893523454666138 -0.12569484114646912 0.13077501952648163 -0.05882703512907028 -0.04473675787448883 0.03393295407295227 -0.18026340007781982 0.08801165223121643 0.041441909968853 0.0350901260972023 0.08440262079238892 -0.19081704318523407 -0.17713506519794464 -0.07805819064378738 -0.17167381942272186 0.08337412774562836 0.05444168299436569 -0.345908522605896 -0.025913141667842865 -0.1040317490696907 0.06354394555091858 0.028930656611919403 -0.035764843225479126 -0.04075209051370621 0.19022570550441742 0.08299370110034943 0.4201469421386719 0.18592087924480438 0.06235240399837494 -0.1810741424560547 -0.04274827986955643 0.13797827064990997 0.018398966640233994 -0.1582167148590088 0.060331739485263824 0.25803500413894653 -0.016093317419290543 -0.005983173847198486 0.02409486100077629 -0.03628752380609512 0.09864495694637299 0.013420835137367249 0.1647501438856125 -0.03097360208630562 0.5963482856750488 -0.15113499760627747 0.09620267152786255 -0.14437398314476013 0.18915332853794098 0.14653031527996063 0.1659267693758011 0.05767318606376648 0.026887521147727966 -0.10429033637046814 0.10758005082607269 0.18301497399806976 0.08364708721637726 0.0729362964630127 0.03589537739753723 0.17491768300533295 -0.10244891792535782 0.12090587615966797 -0.06554140895605087 -0.09147164225578308 0.04677995294332504 0.08148947358131409 -0.15213583409786224 0.15334565937519073 -0.1558467447757721 -0.1315075159072876 -0.03255926072597504 0.07256951183080673 -0.00582264456897974 -0.009899487718939781 0.0507659912109375 -0.16120558977127075
1x1 kernel: 0.0 0.0 0.0 0.0 0.0 0.0 0.0 0.0 0.0 0.0 0.0 0.0 0.0 0.0 0.0 0.0 0.0 0.0 0.0 0.0 0.0 0.0 0.0 0.0 0.0 0.0 0.0 0.0 0.0 0.0 0.0 0.0 0.0 0.0 0.0 0.0 0.0 0.0 0.0 0.0 0.0 0.0 0.0 0.0 0.0 0.0 0.0 0.0
