3x3 kernel: 0.030955012887716293 -0.006321418564766645 -0.10875687003135681 -0.022274944931268692 -0.022630097344517708 0.028682641685009003 0.13924498856067657 0.1767032891511917 0.12479844689369202 -0.06359020620584488 -0.18284744024276733 -0.13446864485740662 -0.21685220301151276 -0.13012142479419708 -0.12651143968105316 0.0867621898651123 0.11081348359584808 0.16083954274654388 -0.18722228705883026 -0.1289626657962799 0.0018370163161307573 0.05489656701683998 -0.006546384654939175 0.18657168745994568 0.1314196139574051 0.2661423683166504 0.30824118852615356 -0.10812681168317795 -0.13743972778320312 -0.10643509030342102 -0.1106453686952591 0.043641094118356705 -0.1920625865459442 -0.1294645518064499 -0.20307298004627228 -0.2314799427986145 -0.04246063530445099 0.08446915447711945 0.039425380527973175 0.04205911606550217 0.01674981601536274 -0.01849506050348282 0.005584616679698229 -0.05035136640071869 -0.05235189571976662 0.040475085377693176 0.19242583215236664 0.19275826215744019 0.09411641210317612 0.12281010299921036 0.2821236848831177 0.21219231188297272 0.2558971345424652 0.2479936182498932 0.1818314492702484 -0.02428250014781952 -0.06870074570178986 0.06535252928733826 -0.13040480017662048 -0.28673744201660156 0.19584625959396362 0.0029546963050961494 -0.22851713001728058 0.2172359973192215 0.18190526962280273 -0.08719882369041443 0.34945106506347656 0.0761781632900238 0.12457561492919922 0.3554023802280426 0.10054802894592285 -0.08698752522468567 0.05330321937799454 0.08058115094900131 -0.014211088418960571 0.16791106760501862 0.030062654986977577 -0.2566356360912323 0.06936804950237274 -0.1505550593137741 -0.3111542761325836 0.011130510829389095 -0.1045650988817215 -0.21909144520759583 -0.07033435255289078 -0.1461346447467804 -0.23059062659740448 -0.13972444832324982 -0.1949014514684677 -0.2761193811893463 0.04324695095419884 -0.016886644065380096 0.008091912604868412 0.024613259360194206 -0.13560383021831512 -0.12413614243268967 0.003217231947928667 -0.08120279759168625 -0.14781071245670319 0.07399953156709671 0.11934565752744675 0.10311166942119598 0.040898047387599945 -0.006554082036018372 -0.03432735428214073 0.07237529009580612 -0.010969039052724838 -0.03498949110507965 -0.06246056780219078 0.08934752643108368 0.05499553680419922 0.1309787631034851 0.07061087340116501 0.311082661151886 0.09158766269683838 0.1564507931470871 0.18985208868980408 -0.06259919703006744 -0.048835985362529755 -0.016809260472655296 -0.010254894383251667 -0.0079118050634861 -0.049709539860486984 0.011287784203886986 -0.08736050873994827 -0.03938795253634453 -0.07138169556856155 -0.1643211543560028 -0.10399936884641647 -0.14364789426326752 -0.06626515835523605 -0.12671279907226562 -0.17811843752861023 -0.1678287535905838 -0.08793415129184723 0.12195876985788345 -0.0556446872651577 0.19171933829784393 -0.007043813355267048 -0.512132465839386 0.09993138164281845 0.18710942566394806 0.07133187353610992 0.12824009358882904 0.19079892337322235 -0.009339788928627968 0.3197779655456543 0.07537798583507538 -0.7859179973602295 -0.03380239009857178 0.2808414697647095 -0.047613125294446945 0.2945372760295868 0.1806866079568863 0.02586980164051056 0.062129516154527664 0.0697542279958725 -0.434179425239563 0.05092660337686539 0.032221805304288864 0.042622167617082596 0.16883106529712677 -0.09692926704883575 -0.08665937185287476 0.0449676588177681 -0.08314574509859085 -0.16267238557338715 0.03737085685133934 -0.07529996335506439 0.02690238133072853 0.16343222558498383 -0.008312040008604527 0.22392496466636658 0.1813131719827652 0.002686914289370179 0.2373610883951187 0.27963605523109436 0.07050340622663498 0.3558658957481384 0.23744049668312073 -0.06336499005556107 -0.0614188015460968 0.04374228045344353 -0.038829587399959564 0.01843792013823986 0.053419481962919235 -0.02515537105500698 0.019005127251148224 -0.00602274015545845 0.2331928163766861 0.15415918827056885 0.16216355562210083 0.10226895660161972 0.02120550163090229 -0.08066108077764511 -0.055319081991910934 -0.2955242991447449 -0.12986625730991364 0.18298184871673584 0.04729599878191948 0.07344988733530045 0.1628638654947281 -0.12250375747680664 -0.1695709377527237 -0.035942766815423965 -0.21615667641162872 -0.27094656229019165 0.2637763023376465 0.15796738862991333 0.11549767106771469 0.1150423064827919 -0.014835983514785767 0.049616340547800064 0.0508827343583107 -0.06474056094884872 -0.09190788120031357 -0.0759057030081749 -0.07216095179319382 0.03629957512021065 -0.12254646420478821 -0.03456362709403038 0.024666080251336098 -0.01572534628212452 -0.07113568484783173 -0.11275390535593033 0.08238361030817032 0.023631613701581955 0.036335308104753494 0.020316891372203827 0.045761823654174805 0.10109981894493103 0.14337755739688873 0.11500370502471924 0.1653762310743332 0.06965542584657669 -0.00481888372451067 0.11278553307056427 0.0128591638058424 0.07543378323316574 0.13226433098316193 0.13078638911247253 0.22441543638706207 0.16232632100582123 -0.05673297494649887 0.027351247146725655 -0.13997626304626465 0.08365832269191742 0.048847150057554245 0.029504893347620964 -0.004865937400609255 -0.0048663681373000145 0.045119017362594604 -0.05083516985177994 -0.14842669665813446 -0.195978045463562 -0.14872075617313385 -0.11891385912895203 -0.08752407878637314 -0.1450105458498001 -0.14224494993686676 -0.16616737842559814 -0.044044628739356995 0.03229164704680443 -0.01205562986433506 0.011172030121088028 -0.026709487661719322 -0.01403731293976307 -0.061119165271520615 0.10201942920684814 0.012562936171889305 -0.02815534919500351 -0.11335756629705429 -0.2052416205406189 -0.044749438762664795 -0.08173780888319016 -0.2504015862941742 0.03953810781240463 -0.124501071870327 -0.13600870966911316 -0.047459676861763 -0.08325064927339554 -0.2334682047367096 -0.12066134810447693 0.009866667911410332 -0.1674221307039261 0.024571090936660767 -0.04316228628158569 -0.09633852541446686 -0.05850517004728317 0.048782046884298325 -0.11857672035694122 0.09070087224245071 0.25692495703697205 0.05537078529596329 0.06578551232814789 0.1524619162082672 0.15834376215934753 0.016406584531068802 0.07536691427230835 -0.000868003407958895 0.011074775829911232 -0.014818448573350906 -0.043397050350904465 0.06080647185444832 0.026086367666721344 -0.01741446740925312 0.03820258378982544 0.019223252311348915 0.007506212219595909 -0.013303481042385101 -0.11169061809778214 -0.0734674409031868 0.025296680629253387 -0.07523510605096817 -0.007445156574249268 -0.015857921913266182 -0.15004214644432068 -0.10200592875480652 -0.10120648145675659 -0.1314673125743866 -0.18684281408786774 -0.10775528103113174 -0.24953357875347137 -0.1883314549922943 -0.01681196503341198 -0.008503527380526066 -0.03417111933231354 -0.08558910340070724 -0.06256693601608276 -0.13451308012008667 -0.1466008424758911 -0.13996340334415436 -0.007616847287863493 0.023001620545983315 -0.029151441529393196 0.019184736534953117 0.07730399817228317 0.09725431352853775 0.10832509398460388 0.08891992270946503 0.08205582946538925 0.0034783126320689917 0.014686191454529762 0.11586908251047134 -0.006009944248944521 0.14504174888134003 0.2617321014404297 0.2170971781015396 0.04856989532709122 0.24816671013832092 0.1425296813249588 -0.18750856816768646 0.014677670784294605 -0.14184804260730743 -0.05986263230443001 0.4995327591896057 -0.02002147026360035 -0.1310529112815857 0.019650114700198174 -0.2008650302886963 -0.37685781717300415 -0.04561943933367729 -0.27056774497032166 0.01994636282324791 0.773712694644928 0.0594615712761879 -0.2229345738887787 -0.0265872310847044 -0.3557016849517822 -0.027886414900422096 0.020279411226511 -0.016390744596719742 -0.03474568948149681 0.2603982090950012 -0.11376283317804337 -0.1183050349354744 -0.006197317503392696 -0.06570445746183395 0.03412790596485138 0.08905396610498428 0.10271235555410385 0.00880412943661213 0.1056540310382843 0.13751763105392456 0.0586467944085598 0.1576370745897293 0.13683809340000153 0.0009002322913147509 -0.007592302747070789 0.003363322466611862 0.0034339833073318005 -0.013780669309198856 -0.019535906612873077 -0.011162967421114445 0.015000619925558567 0.08748059719800949 0.049668390303850174 0.03344641253352165 -0.027207596227526665 0.12404196709394455 0.20889227092266083 0.09913226217031479 0.02858191542327404 0.2192666083574295 0.16625913977622986 0.019515186548233032 0.21381230652332306 0.1812557429075241 0.050734858959913254 0.10118404030799866 0.12152820825576782 0.049461714923381805 0.19435405731201172 0.1513119339942932 -0.04347169026732445 -0.03853528946638107 -0.005232525058090687 -0.05063797906041145 -0.029147570952773094 0.023462556302547455 -0.026894841343164444 -0.10678346455097198 -0.030216511338949203 -0.00997013971209526 -0.08405493199825287 -0.16903771460056305 -0.13957272469997406 -0.1844593733549118 -0.22003567218780518 -0.11957856267690659 -0.2944094240665436 -0.20357072353363037 0.12725920975208282 0.11558197438716888 -0.05658675730228424 0.0694502741098404 0.2552920877933502 -0.2387946993112564 0.11183561384677887 -0.13384312391281128 -0.37538161873817444 0.05449625849723816 0.17674922943115234 0.05966430529952049 0.023135531693696976 0.17167231440544128 -0.27610862255096436 0.07047473639249802 -0.022959886118769646 -0.46616387367248535 -0.048507798463106155 0.12248683720827103 -0.14341236650943756 0.09079627692699432 0.180275559425354 0.03048030287027359 -0.04387412220239639 0.07306157797574997 -0.34419116377830505 0.01121445745229721 -0.09150310605764389 -0.03009885735809803 0.009625003673136234 -0.09365158528089523 -0.02250257506966591 0.03319520130753517 -0.053478363901376724 -0.08897139877080917 0.06223444268107414 0.11117915064096451 0.14190420508384705 0.2166353166103363 0.20491300523281097 0.10402272641658783 0.10228972882032394 -0.003957018721848726 -0.00897477101534605 0.06425829976797104 -0.01881435327231884 0.0667097270488739 -0.03224881365895271 -0.03164782002568245 -0.04540755972266197 0.04751554876565933 -0.009317232295870781 0.05951319634914398 -0.015232282690703869 0.029022349044680595 0.025059156119823456 -0.04244961962103844 0.03509627282619476 0.045902643352746964 0.023701297119259834 -0.016157394275069237 0.12879377603530884 0.0258512981235981 0.0628405436873436 0.06400098651647568 0.1457422822713852 0.16610784828662872 0.13193504512310028 0.15626883506774902 0.22691486775875092 0.23570877313613892 0.01888001710176468 -0.044987570494413376 0.03127305954694748 0.01135957520455122 0.035579387098550797 0.03311040252447128 -0.03959304466843605 0.09816835820674896 0.06322922557592392 -0.06427451968193054 -0.05239851027727127 -0.0507652573287487 -0.10618393868207932 -0.12075496464967728 -0.07394114136695862 -0.05758409947156906 -0.06907647848129272 -0.09328941255807877 0.0371941514313221 -0.03829679638147354 -0.04249046742916107 -0.03538306802511215 0.05855695903301239 -0.038239944726228714 -0.00474249292165041 -0.05610176548361778 0.0470011942088604 0.008106650784611702 -0.12559863924980164 -0.1394769698381424 -0.17022086679935455 -0.13010114431381226 -0.16835734248161316 -0.175786554813385 -0.18436217308044434 -0.16630254685878754 0.008117346093058586 0.014940288849174976 -0.1014983206987381 -0.0009272826719097793 0.09738364815711975 -0.0452398918569088 -0.013289337046444416 -0.0006847856566309929 -0.11813844740390778 0.049258939921855927 -0.23410800099372864 -0.23361127078533173 -0.05210012197494507 -0.34054291248321533 -0.24054956436157227 -0.09556585550308228 -0.18731945753097534 -0.179258331656456 0.060147725045681 0.0037987215910106897 -0.13156574964523315 -0.018313370645046234 0.06343024969100952 0.013272998854517937 -4.6607397962361574e-05 0.12261534482240677 -0.05350611358880997 -0.03191978111863136 0.1239769235253334 0.16749417781829834 0.1366857886314392 0.10073824971914291 0.1397581398487091 -0.08454166352748871 0.07179299741983414 0.25448301434516907 -0.09852808713912964 -0.18003299832344055 0.016479261219501495 -0.06366081535816193 -0.31219279766082764 -0.19097676873207092 -0.1928519904613495 -0.1018078625202179 -0.04427965730428696 -0.060283295810222626 0.13137675821781158 0.1709020882844925 0.1789313554763794 0.1997930407524109 0.25365006923675537 -0.04363926872611046 0.06992272287607193 0.2909073233604431 0.1370384842157364 0.0815599113702774 -0.16069738566875458 0.29611802101135254 0.14370769262313843 0.03987204283475876 -0.006846040952950716 -0.040742430835962296 -0.2001979649066925 0.256868451833725 0.07575817406177521 -0.14273254573345184 0.3037448227405548 0.04369445890188217 -0.14604735374450684 0.10974768549203873 -0.016855668276548386 -0.26206257939338684 0.21150246262550354 -0.010659413412213326 -0.09190954267978668 0.2595296800136566 0.06008680909872055 -0.1703907698392868 0.09966649115085602 -0.12220581620931625 -0.29377713799476624 0.18349823355674744 0.0747210830450058 -0.12759506702423096 0.09784229844808578 0.049397703260183334 0.04867350310087204 -0.021433550864458084 -0.16227708756923676 -0.1383175253868103 0.13624373078346252 0.0020097875967621803 -0.07887176424264908 -0.03523172065615654 -0.029189065098762512 -0.3006216883659363 -0.19995896518230438 -0.43768587708473206 -0.45713138580322266 0.10400901734828949 -0.0012053204700350761 -0.00603142473846674 0.09108663350343704 0.04848625510931015 -0.06416632235050201 0.11024700850248337 -0.08643599599599838 -0.015712549909949303 -0.08625385165214539 -0.12172946333885193 0.04283979535102844 -0.1556466966867447 0.020033402368426323 -0.205778568983078 -0.17739224433898926 -0.2611613869667053 -0.11771745979785919 0.12581893801689148 0.027354801073670387 0.15432293713092804 0.03478074446320534 -0.05443045496940613 0.18126893043518066 0.015426243655383587 0.06452607363462448 0.16877932846546173 -0.002465821336954832 0.12207653373479843 0.07532597333192825 0.09795278310775757 -0.05551494285464287 0.1281968057155609 0.04874879866838455 0.11517103761434555 0.17455646395683289 0.0090739531442523 -0.08141980320215225 -0.04846683889627457 -0.028984304517507553 -0.1283695250749588 -0.009375625289976597 -0.12650816142559052 -0.09513741731643677 -0.056956153362989426 0.07326222956180573 0.13098077476024628 0.04194485768675804 0.024704057723283768 0.11297594755887985 0.14365451037883759 0.12444659322500229 0.1057947501540184 0.19644339382648468 0.05508742853999138 0.041136592626571655 -0.05543667823076248 0.10687766969203949 0.009600170888006687 0.1183532252907753 0.07688772678375244 0.0878913551568985 0.15713633596897125 -0.1285935342311859 0.05635449290275574 0.00043802845175378025 0.05299099534749985 0.12130767107009888 0.21437305212020874 0.05489348620176315 0.23308391869068146 0.18606679141521454 -0.10191763937473297 -0.04819666966795921 -0.07195740938186646 0.08306082338094711 0.02636951021850109 0.09728359431028366 0.09485599398612976 0.21529611945152283 0.19679293036460876 0.0011612557573243976 -0.043309133499860764 -0.012072226963937283 -0.051119156181812286 0.054616447538137436 0.10318934917449951 0.08150657266378403 0.06906542927026749 0.19737069308757782 0.019959349185228348 0.08876032382249832 0.12575507164001465 0.030585089698433876 0.05648385360836983 0.015998316928744316 0.11332948505878448 0.08722572773694992 0.039018914103507996 0.015573602169752121 -0.06658996641635895 -0.10163496434688568 -0.015469864942133427 0.013937272131443024 -0.09662546962499619 0.013617189601063728 0.032886337488889694 0.030360374599695206 -0.12047982215881348 -0.12702980637550354 -0.15060508251190186 -0.19271741807460785 -0.14489299058914185 -0.15265420079231262 -0.05532243475317955 -0.17474104464054108 -0.1815645694732666 -0.16574718058109283 0.0643196702003479 0.11984856426715851 -0.20427867770195007 0.01111669186502695 0.2788960933685303 -0.3844488561153412 -0.07896526157855988 0.13582390546798706 -0.17201176285743713 0.022299744188785553 0.22932618856430054 -0.2781146764755249 -0.04058683663606644 0.2985105812549591 -0.3855108916759491 -0.04167352616786957 0.12708914279937744 0.00235934229567647 0.012028622440993786 0.18530704081058502 -0.16192960739135742 0.10199549049139023 0.06312960386276245 -0.28108707070350647 -0.12010670453310013 0.0008696374716237187 0.002914185868576169 -0.01247344445437193 0.005886728875339031 -0.0014659834560006857 0.005695409141480923 0.06767597794532776 0.048962969332933426 0.07689434289932251 0.12632475793361664 0.057552240788936615 0.07976222783327103 0.018628263846039772 0.012243744917213917 0.031184986233711243 0.0507487915456295 0.06247532740235329 0.10945774614810944 0.1436268538236618 -0.05450664460659027 0.10599993914365768 -0.004105560015887022 0.05031251534819603 0.18493491411209106 0.19812119007110596 0.0347304604947567 0.20143559575080872 0.18868903815746307 -0.03654403239488602 0.02011888660490513 0.1253836303949356 -0.00672766612842679 0.12018514424562454 0.20749041438102722 -0.004873079713433981 0.16311828792095184 0.12165963649749756 -0.15136626362800598 -0.18254151940345764 -0.21101251244544983 -0.3172109127044678 -0.3974126875400543 -0.36541515588760376 -0.3220006227493286 -0.38784971833229065 -0.2968518137931824 0.006038225255906582 0.03719230741262436 0.09107748419046402 0.034996505826711655 0.12790372967720032 0.13979153335094452 -0.026800664141774178 0.15074090659618378 0.15706954896450043 -0.03993476554751396 0.08229960501194 0.13665634393692017 0.0872470960021019 0.18069204688072205 0.24205969274044037 0.1165948361158371 0.26545384526252747 0.2169591188430786 0.02575279399752617 0.0808178037405014 0.07640185952186584 0.03857368603348732 0.06950274109840393 0.15634647011756897 0.034586600959300995 0.04995567351579666 0.15297627449035645 -0.09491610527038574 -0.11255570501089096 -0.08845535665750504 -0.04320764169096947 -0.12786561250686646 -0.07357947528362274 -0.03392237052321434 -0.1172531470656395 -0.10640864074230194 0.08223656564950943 -0.028911590576171875 -0.002213934902101755 -0.033159758895635605 0.002024721587076783 0.0007280850550159812 -0.004410885740071535 -0.04080279543995857 -0.08451328426599503 0.020260529592633247 0.032555997371673584 0.021888716146349907 0.09386394172906876 0.1286546289920807 0.005934644490480423 0.027985144406557083 0.03220801427960396 -0.019227871671319008 -0.013441333547234535 0.1590658724308014 0.11909083276987076 0.1368878185749054 0.16825561225414276 0.07241752743721008 0.10792717337608337 0.24040764570236206 0.11948355287313461 0.050577811896800995 0.052947234362363815 0.12014733254909515 0.00477217324078083 0.12983478605747223 0.04554612562060356 0.044425684958696365 0.1344825178384781 0.15258589386940002 0.05132783204317093 0.1335810273885727 0.1370655596256256 0.06513796001672745 0.11680308729410172 0.1344877928495407 0.003716002684086561 0.10419552028179169 0.1512565314769745 -0.09314161539077759 -0.010486277751624584 0.004513851832598448 -0.04304631054401398 0.019417058676481247 0.033931609243154526 -0.025974875316023827 -0.07043430209159851 -0.014978835359215736 -0.09010984748601913 -0.12766651809215546 -0.0650506392121315 -0.23451849818229675 -0.24886508285999298 -0.15864971280097961 -0.0950845405459404 -0.33974355459213257 -0.1568528413772583 0.026115629822015762 0.2070232629776001 0.1382182538509369 0.3216911852359772 0.2106664478778839 0.1757146567106247 0.18630683422088623 0.2683967649936676 0.23841743171215057 -0.02636445127427578 -0.19995152950286865 -0.08973811566829681 -0.1702309548854828 -0.18242749571800232 -0.28461113572120667 -0.14595770835876465 -0.3062603771686554 -0.2838108539581299 -0.08240816742181778 -0.19772741198539734 -0.20716863870620728 -0.06749878823757172 -0.13734561204910278 -0.22935019433498383 -0.11788774281740189 -0.2203814834356308 -0.216133251786232 0.13673941791057587 0.10780028253793716 0.0659089908003807 0.0514213889837265 0.06768845021724701 0.059679027646780014 0.008904344402253628 0.06967109441757202 0.10522354394197464 -0.08417300134897232 -0.06362736225128174 -0.017009995877742767 0.02498508244752884 -0.07822959870100021 -0.03238220512866974 0.011519636027514935 -0.039447251707315445 -0.06929146498441696 0.09700242429971695 0.14944706857204437 0.014903446659445763 0.1045275628566742 0.16608433425426483 0.288743793964386 0.022298084571957588 0.288703590631485 0.1807575821876526 -0.19376160204410553 -0.08011424541473389 -0.14990979433059692 -0.09281598776578903 -0.11138468980789185 -0.15757276117801666 -0.029545653611421585 -0.06404466927051544 0.031206125393509865 0.020437031984329224 0.08250473439693451 0.024077242240309715 -0.00025783790624700487 0.09579774737358093 0.06014195829629898 0.08830790966749191 0.06131695210933685 0.06947065889835358 -0.06139278784394264 -0.1384243369102478 -0.19703415036201477 -0.2023441046476364 -0.23117263615131378 -0.41006529331207275 -0.12579971551895142 -0.3330482542514801 -0.37402963638305664 0.058863747864961624 0.15981972217559814 0.09523190557956696 0.15346045792102814 0.25569984316825867 0.10298014432191849 0.0635983869433403 0.27061405777931213 0.19030126929283142 -0.12776905298233032 -0.0567687526345253 -0.016314059495925903 -0.047474298626184464 -0.06252795457839966 -0.07597728073596954 -0.03393391892313957 0.032745588570833206 -0.06500519067049026 0.03158804774284363 0.12962670624256134 0.05075842887163162 0.13198326528072357 0.07881535589694977 0.11163107305765152 0.0633983239531517 0.08327237516641617 0.09702561795711517 -0.02759537473320961 -0.1462106853723526 -0.10199742019176483 -0.1624055802822113 -0.030263474211096764 -0.1755845844745636 -0.009484141133725643 -0.13092084228992462 -0.13850629329681396 -0.02859598957002163 -0.0901559591293335 -0.0568026639521122 -0.09071945399045944 -0.2075713872909546 -0.11927241086959839 -0.12197717279195786 -0.20592494308948517 -0.14293469488620758 0.021628303453326225 -0.02204776182770729 0.010379484854638577 0.02380330115556717 -0.01257215067744255 0.0739421620965004 -0.012033773586153984 0.02110075019299984 0.15575861930847168 0.11286763101816177 0.19709299504756927 0.0781617984175682 0.06644010543823242 0.006609346717596054 0.08353767544031143 0.17102201282978058 0.23780620098114014 0.18767178058624268 -0.048498980700969696 -0.03236106038093567 -0.07683221995830536 -0.03306497633457184 -0.1717625856399536 -0.22572676837444305 -0.11295805126428604 -0.118968166410923 -0.1443653702735901 0.10050875693559647 0.007347268983721733 0.09545248001813889 0.057722266763448715 0.028217434883117676 0.1165638417005539 0.08279504626989365 0.055293112993240356 0.06412922590970993 -0.09313423931598663 -0.14265917241573334 -0.03583088144659996 -0.1419839709997177 -0.06660990417003632 -0.19777588546276093 -0.13073095679283142 -0.16028524935245514 -0.21816152334213257 -0.0016016059089452028 -0.04496071860194206 -0.026305822655558586 -0.08155858516693115 -0.016461050137877464 -0.036152467131614685 -0.10756754875183105 -0.08857662975788116 -0.18672332167625427 -0.04916677996516228 -0.03570626676082611 -0.06818753480911255 -0.04364301264286041 -0.16359667479991913 -0.1380959004163742 0.03365340083837509 -0.13595789670944214 -0.14512711763381958 0.02720537781715393 -0.08255397528409958 -0.09812933206558228 -0.0515686571598053 -0.05630467087030411 -0.14164988696575165 -0.054505687206983566 -0.045745547860860825 -0.12820225954055786 -0.0066328998655080795 -0.04406331479549408 -0.0657496526837349 -0.029283445328474045 -0.10703543573617935 -0.12990938127040863 0.004995061084628105 -0.038631051778793335 -0.01426856592297554 -0.027305148541927338 -0.0778503566980362 -0.06322850286960602 -0.0428210087120533 -0.03348479047417641 -0.17971187829971313 -0.039863258600234985 -0.043297939002513885 -0.11862431466579437 -0.022026019170880318 0.0033183617051690817 -0.11540037393569946 0.0015366747975349426 -0.11461330950260162 -0.03909038007259369 -0.08763016760349274 -0.01363638136535883 -0.1306866556406021 -0.07906437665224075 -0.03960547596216202 0.0047735413536429405 -0.12322448194026947 -0.10304088890552521 -0.032944098114967346 -0.06506781280040741 -0.05401432886719704 -0.17629562318325043 -0.003760210471227765 -0.05046471208333969 0.03867555409669876 0.022455470636487007 -0.12209391593933105 -0.05334986001253128 -0.005772063974291086 -0.07254119962453842 -0.0724838376045227 -0.023074546828866005 -0.00020884237892460078 -0.11287852376699448 -0.09217145293951035 -0.1135992705821991 -0.11070246249437332 -0.01705033890902996 -0.09946373850107193 -0.10152788460254669 -0.03926045447587967 -0.05393662676215172 -0.07294768840074539 -0.0006575653678737581 -0.1529702991247177 -0.1458462029695511 -0.09537452459335327 -0.10691849887371063 -0.04776989668607712 0.08919939398765564 0.13060511648654938 0.17038902640342712 0.21460483968257904 0.23112459480762482 0.41614872217178345 0.13743343949317932 0.286628782749176 0.3568365275859833 -0.08988521993160248 -0.040055051445961 -0.06494307518005371 -0.03433845937252045 0.025956755504012108 0.02615024894475937 -0.09577466547489166 -0.08776090294122696 -0.039256561547517776 -0.027886494994163513 -0.02245577983558178 -0.05929414927959442 -0.07088690251111984 -0.03669338300824165 -0.14338304102420807 -0.03385554626584053 -0.20143204927444458 -0.2029155194759369 -0.22567784786224365 -0.04684880003333092 -0.012074541300535202 -0.1810646504163742 -0.02119048871099949 0.038027144968509674 -0.027379807084798813 0.025922276079654694 0.05715811252593994 -0.014141528867185116 0.1467723697423935 0.02632581628859043 0.12575355172157288 0.22965212166309357 0.22884179651737213 0.21318639814853668 0.43166235089302063 0.272019624710083 -0.08970504254102707 -0.015955492854118347 -0.06890445947647095 -0.03614898771047592 -0.008613785728812218 0.05005274713039398 -0.06669096648693085 -0.0469248928129673 0.09027636051177979 0.037303827702999115 0.00736680394038558 0.06301954388618469 -0.019737936556339264 0.05234985426068306 0.0824727788567543 0.11390867829322815 0.09075044095516205 0.18997609615325928 0.03965090960264206 0.10279037803411484 0.015114828944206238 0.0665278360247612 0.10923375934362411 0.21501478552818298 -0.001064520445652306 0.19111192226409912 0.2203674167394638 -0.13761547207832336 -0.020135575905442238 0.05065152421593666 -0.0997687429189682 0.05234699323773384 0.05955082178115845 -0.007923238910734653 0.13152143359184265 0.15569233894348145 0.037361472845077515 -0.10401663929224014 -0.029700174927711487 -0.11973922699689865 -0.14878571033477783 -0.1525862067937851 -0.06619550287723541 -0.06242496147751808 -0.08303958922624588 0.045856546610593796 -0.0025116675533354282 -0.1007254347205162 -0.025542154908180237 -0.06356605887413025 -0.055717501789331436 0.0006588243413716555 -0.11758878082036972 -0.10678718239068985 0.06108271703124046 -0.03558453917503357 -0.07355692982673645 0.008166481740772724 -0.0010957554914057255 -0.10556787252426147 -0.05909424275159836 -0.13076820969581604 -0.16377031803131104
1x1 kernel: -0.3568112254142761 -0.3906429708003998 -0.14237986505031586 -0.494286447763443 -0.19311153888702393 0.16527150571346283 -0.4731615483760834 -0.0861273854970932 -0.29354557394981384 -0.505730152130127 0.09254147857427597 0.31044653058052063 0.6094822287559509 0.15570393204689026 0.23760169744491577 -0.3946264386177063 -0.5066869854927063 -0.30952033400535583 -0.5070092082023621 0.31952762603759766 -0.2982042133808136 -0.3208900988101959 -0.4152362644672394 -0.3662736415863037 -0.1219465434551239 -0.12402396649122238 0.24903230369091034 0.464925080537796 0.34092095494270325 0.16603849828243256 -0.1442752480506897 0.07199880480766296 0.8647584319114685 0.25383761525154114 -0.11505318433046341 -0.35846808552742004 -0.7584600448608398 -0.25617516040802 0.5061571598052979 0.30720168352127075 0.6714683771133423 0.23946253955364227 0.09689099341630936 -0.21457025408744812 0.4350787103176117 0.49634069204330444 0.15223152935504913 -0.2661355435848236 0.43286803364753723 0.1841903030872345 0.586728572845459 0.01336175762116909 0.2520202696323395 -0.2049982249736786 -0.03309710696339607 0.30807894468307495 0.04224637895822525 -0.3372659385204315 0.28638046979904175 -0.21866846084594727 0.443991482257843 -0.6409603357315063 0.4779610335826874 -0.05257593095302582 -0.6959460973739624 0.0009808683535084128 -0.1164591982960701 0.048575930297374725 -0.14361006021499634 0.34446200728416443 -0.061949245631694794 0.19245217740535736 -0.4765219986438751 -0.3469439446926117 -0.15538695454597473 -0.6156818866729736 -0.03401290997862816 0.05936281755566597 0.16640052199363708 -0.043768737465143204 0.20295192301273346 0.3148411214351654 -0.007596269249916077 -0.2183505743741989 0.26457443833351135 0.3359187841415405 -0.0053178695961833 0.04704422131180763 0.0987890213727951 0.12609104812145233 0.6304917335510254 -0.539423942565918 0.6140641570091248 0.23623217642307281 0.03698992356657982 -0.39450883865356445 -0.03840101137757301 0.1442912518978119 0.24218496680259705 0.15974868834018707 0.2831540107727051 -0.19964872300624847 -0.06291760504245758 1.0904823541641235 -0.1151902973651886 0.016837801784276962 0.13472966849803925 -0.12558583915233612 0.008918697945773602 -0.11042656749486923 -0.1477627456188202 -0.26652246713638306 0.8433473110198975 0.3267778158187866 0.06268391758203506 0.005960418842732906 -0.2644958794116974 -0.2686038911342621 -0.24448393285274506 -0.6024671792984009 0.12899106740951538 -0.07827446609735489 -0.15566851198673248 -0.37299105525016785 0.06910303980112076 -0.1834561824798584 -0.16005298495292664 -0.2347814440727234 -0.21559368073940277 0.006919265259057283 -0.29842913150787354 -0.24067752063274384 0.49105513095855713 -0.41345545649528503 -0.5624186396598816 -0.32226473093032837 0.3016335964202881 -0.35762467980384827 0.1886807531118393 0.2088392674922943 0.0008991782669909298 -0.0965399295091629 -0.2588144838809967 0.06565076857805252
bn3x3_weights: 1.0137585401535034 1.0183465480804443 1.0698723793029785 1.0136090517044067 0.8728015422821045 1.4318995475769043 1.0031825304031372 0.8759496212005615 1.0201914310455322 0.6870812773704529 1.0861866474151611 0.9413793087005615 0.7690117955207825 1.3838783502578735 0.8739190697669983 0.9774532318115234 1.0822499990463257 0.956944465637207 1.0063982009887695 0.948939323425293 0.8176370859146118 1.076303482055664 1.0392752885818481 1.2041335105895996 0.9435558915138245 0.9460952281951904 1.0307297706604004 0.9371575713157654 1.1298476457595825 1.0760365724563599 1.1755528450012207 1.0513699054718018 0.9131252765655518 0.9638494849205017 1.1640750169754028 1.1113266944885254 1.0988736152648926 1.2392739057540894 1.0310391187667847 1.042380690574646 1.0434272289276123 0.9442363381385803 0.9539536833763123 0.9397414326667786 1.0155789852142334 1.0094516277313232 1.005822777748108 1.0171689987182617
bn3x3_bias: -4.148701191297732e-05 -0.00017227615171577781 0.0007402307237498462 0.001266726991161704 -0.0001860166812548414 -0.00013819034211337566 0.00016877280722837895 -0.00032818008912727237 0.00014747554087080061 -0.00012543918273877352 -0.000309665483655408 0.00023392900766339153 -0.0003238886420149356 2.432779729133472e-05 0.0005839162040501833 -2.6770485419547185e-05 -0.00048340021749027073 3.371863203938119e-05 0.00033004346187226474 -0.0020759033504873514 4.670338239520788e-05 2.9009863283135928e-05 0.0001849984982982278 -0.0006203604862093925 0.0009900929871946573 -0.0005257330485619605 2.3332020646193996e-05 -0.00010477086470928043 0.0004328038776293397 0.00030639462056569755 -0.0012188174296170473 0.0007721824804320931 0.00019848936062771827 -0.00023117169621400535 0.0009822971187531948 -1.0772501809697133e-05 -0.00023521667753811926 0.0007717955159023404 0.00013277986727189273 0.0003624767414294183 -0.00039277851465158165 -0.0001916152104968205 0.0005941152339801192 2.162307282560505e-05 -0.0001307961210841313 -2.1863581423531286e-05 0.00010904211376328021 0.0001328474172623828
bn3x3_running_mean: 0.05960856378078461 0.23199407756328583 0.019093403592705727 0.025459978729486465 -0.17295686900615692 0.040126096457242966 0.0761154517531395 0.06102373078465462 0.16675393283367157 -0.06346666812896729 0.05316489562392235 -0.18151874840259552 0.191708505153656 -0.03521290794014931 0.12584926187992096 -0.21680961549282074 -0.021566858515143394 0.06380757689476013 0.09247749298810959 -0.17532142996788025 -0.07166014611721039 0.10113206505775452 0.0013883274514228106 -0.04938412457704544 0.13857094943523407 0.134832501411438 0.0794079378247261 -0.1908433884382248 -0.038811035454273224 0.15490072965621948 -0.04177563637495041 -0.07793360203504562 0.1724223792552948 0.01803998462855816 -0.13600003719329834 -0.008366675116121769 0.020915551111102104 0.014989747665822506 -0.19853730499744415 -0.07411325722932816 -0.14605024456977844 -0.09130773693323135 -0.11811305582523346 -0.13388246297836304 -0.13751062750816345 0.06231522932648659 0.07516547292470932 -0.09003309160470963
bn3x3_running_var: 0.3906095027923584 1.9375512599945068 0.7014181017875671 3.006176710128784 1.1574043035507202 0.663707971572876 2.2964634895324707 0.28691422939300537 2.2214040756225586 1.7745184898376465 1.7605291604995728 2.485400676727295 2.0250723361968994 0.745173454284668 3.7860052585601807 1.855522871017456 0.28643563389778137 0.7433580756187439 3.288374662399292 4.8713698387146 3.3053503036499023 1.290321946144104 0.34006980061531067 2.033515691757202 0.9024150967597961 1.5849007368087769 3.3768205642700195 1.734453558921814 0.6389138102531433 3.9196431636810303 2.657911777496338 2.3800182342529297 2.5082058906555176 2.5723273754119873 3.082444429397583 1.8627511262893677 1.3674639463424683 2.4574453830718994 2.615172863006592 0.6639117002487183 2.1406664848327637 3.8426475524902344 3.8564717769622803 3.512465000152588 2.351029396057129 1.771910309791565 3.727792263031006 3.2173209190368652
num_batches_tracked: 35880
bn_weights: 0.8424762487411499 0.7623924612998962 0.7221001386642456 1.205549716949463 0.9401367902755737 1.517885684967041 0.9328187108039856 0.8979989886283875 0.7344411611557007 0.6753988265991211 1.0275739431381226 1.0418293476104736 1.0359991788864136 1.3225854635238647 1.147321343421936 0.7505019307136536 0.9565208554267883 0.712310791015625 1.0964409112930298 1.2044453620910645 1.0567009449005127 0.8266278505325317 0.8375707268714905 0.7774285674095154 0.9845748543739319 0.7574857473373413 1.1169006824493408 0.7807580828666687 1.0831332206726074 0.9975947737693787 1.0260834693908691 0.8358470797538757 0.8624308109283447 0.914484441280365 1.129817008972168 0.777388870716095 0.6909658312797546 1.1084903478622437 0.9039115309715271 0.7887541055679321 0.8815458416938782 1.21602201461792 1.1163475513458252 1.093774676322937 0.9451737403869629 0.9072259068489075 1.161719560623169 1.021694540977478
bn_bias: 0.04073014482855797 0.8312606811523438 0.6044229865074158 -0.16073156893253326 0.16399739682674408 -0.26829490065574646 0.28218159079551697 0.033225566148757935 0.1995883584022522 -0.10260337591171265 0.2250940352678299 -0.32138359546661377 0.38322243094444275 -0.0744515061378479 0.15156081318855286 0.5585722923278809 0.21773049235343933 -0.5534946918487549 0.10657136887311935 -0.09817200899124146 0.23097077012062073 0.2848852276802063 0.01538611575961113 0.5245048403739929 0.08089620620012283 0.2607567012310028 0.08878961205482483 0.08276128768920898 -0.05161209776997566 0.03305995464324951 0.8706071972846985 0.4427829384803772 0.15760482847690582 0.5273210406303406 0.7507151961326599 0.025568189099431038 0.09346802532672882 0.7015812993049622 0.17687873542308807 0.20154570043087006 -0.053990546613931656 -0.08238895982503891 -0.206589475274086 -0.035643015056848526 0.8939008116722107 0.004890903364866972 0.003958520479500294 -0.0123637355864048
bn_running_mean: -0.040044404566287994 0.013791040517389774 -0.043673645704984665 0.050875224173069 0.03979048505425453 -0.06949259340763092 -0.023089800029993057 -0.07294382154941559 0.028591163456439972 0.04015997797250748 0.12468699365854263 -0.05666001886129379 0.05855343118309975 0.06855933368206024 0.04958318918943405 -0.03029189445078373 0.09028520435094833 -0.015117492526769638 0.022853214293718338 -0.01636757142841816 0.031175240874290466 -0.0370694175362587 -0.017007963731884956 0.02205565571784973 -0.038077596575021744 0.007499665953218937 0.025595782324671745 -0.031808704137802124 0.016980687156319618 0.023108437657356262 0.05389364808797836 -0.05296026170253754 0.041875798255205154 -0.01332827564328909 0.04365532845258713 -0.010360891930758953 -0.02683730609714985 0.09236004948616028 -0.036636680364608765 -0.09616632014513016 -0.026659667491912842 -0.0211653970181942 -0.041705816984176636 -0.04962807893753052 -0.1021353080868721 -0.03300592675805092 0.010966252535581589 -0.0043225823901593685
bn_running_var: 0.47376731038093567 1.484934687614441 0.5508701205253601 1.6677409410476685 1.404371976852417 0.49455034732818604 0.4988859295845032 0.8703740835189819 1.2209422588348389 0.21704864501953125 1.1642029285430908 1.6769027709960938 1.0625061988830566 0.4186084568500519 1.5661271810531616 1.347412347793579 0.5588154196739197 1.0761798620224 1.876110553741455 1.5617682933807373 0.5307044386863708 0.6184280514717102 0.7699708342552185 0.6234366297721863 1.3146306276321411 0.6215184330940247 1.9121487140655518 1.1117801666259766 0.42659997940063477 1.895863652229309 1.0318939685821533 1.3301112651824951 1.746566891670227 1.611344575881958 0.8959335684776306 1.1736100912094116 0.8293845057487488 1.3897420167922974 1.669500708580017 1.4345049858093262 1.4597771167755127 2.1776483058929443 2.6345911026000977 2.378580093383789 1.8374814987182617 0.619648814201355 2.0880844593048096 1.7912867069244385
num_batches_tracked: 35880
