3x3 kernel: 0.06542889773845673 0.036343932151794434 0.08383433520793915 -0.05661332607269287 0.035317763686180115 -0.15435729920864105 0.14757324755191803 0.19065244495868683 -0.11182714998722076 -0.11002745479345322 -0.055904969573020935 0.18709783256053925 0.0660264641046524 0.10165257751941681 0.08439569175243378 -0.1170196458697319 -0.054877087473869324 0.13616909086704254 0.03371225297451019 -0.12257778644561768 -0.020296528935432434 0.18455614149570465 -0.010196566581726074 0.06135852634906769 -0.11028417199850082 -0.16733165085315704 0.052202463150024414 0.11310510337352753 0.09004203975200653 -0.1181379184126854 0.0604834109544754 -0.09579775482416153 -0.10732866823673248 0.11264152824878693 0.05905537307262421 0.10192592442035675 -0.09541109204292297 -0.06534594297409058 -0.09759660065174103 0.1227005273103714 0.18140603601932526 0.06406490504741669 0.18369455635547638 0.12083376944065094 -0.12780827283859253 0.0864623636007309 -0.0582839697599411 0.08766667544841766 0.049708977341651917 -0.04931554198265076 -0.10541648417711258 0.02634251117706299 0.06627126038074493 0.12601186335086823 0.18240706622600555 0.16848544776439667 0.05766327679157257 -0.07551737129688263 0.18926547467708588 -0.03517800569534302 -0.03779591619968414 0.011607199907302856 -0.16852790117263794 0.15969018638134003 0.0046623945236206055 -0.04313473403453827 -0.05538496375083923 -0.07822210341691971 0.053141191601753235 0.15316088497638702 -0.013786301016807556 -0.11848750710487366 -0.01605449616909027 0.18836964666843414 -0.10696978867053986 -0.0682276040315628 -0.14516609907150269 -0.11631248146295547 -0.006607875227928162 0.09739293158054352 -0.12462497502565384 -0.15280073881149292 -0.12415629625320435 -0.08423423767089844 0.13843099772930145 0.036437541246414185 0.1576710194349289 -0.166535884141922 -0.025364145636558533 -0.13115030527114868 0.14559213817119598 0.13963301479816437 -0.1413174569606781 -0.17936161160469055 -0.05491216480731964 -0.000613287091255188 0.1605304330587387 0.04557129740715027 -0.1455620676279068 -0.05085021257400513 0.04312945902347565 0.1687040776014328 0.0907340794801712 0.11815197765827179 0.05534766614437103 -0.06586576998233795 0.08453084528446198 0.12529851496219635 -0.07099684327840805 -0.12907028198242188 -0.1393645852804184 0.019415587186813354 -0.03862579166889191 0.12724347412586212 -0.18015216290950775 0.0018402636051177979 -0.14841313660144806 0.10996489226818085 0.06203804910182953 0.006545692682266235 0.0828261524438858 -0.14204762876033783 0.024609938263893127 -0.04480642080307007 0.004033103585243225 0.09530578553676605 -0.007891148328781128 0.0268823504447937 -0.17217111587524414 -0.08329357951879501 0.03636947274208069 0.12179665267467499 -0.022133350372314453 -0.14373227953910828 0.02247469127178192 -0.054538652300834656 0.022512227296829224 -0.04350334405899048 0.04064232110977173 0.05531550943851471 -0.15934336185455322 -0.06864115595817566 0.13878832757472992 -0.030388325452804565 0.0570356547832489 -0.05129063129425049 0.17219571769237518 0.18425600230693817 0.17761696875095367 -0.10481619089841843 -0.01987588405609131 0.06555409729480743 0.002942681312561035 -0.07355190068483353 0.17586137354373932 -0.11971434205770493 0.0980968326330185 -0.0061729103326797485 0.006655409932136536 0.14431197941303253 -0.04343812167644501 -0.10423571616411209 0.09550030529499054 0.13172177970409393 -0.13892856240272522 -0.11796154081821442 0.1733185201883316 -0.10588830709457397 0.08290193974971771 0.07115520536899567 -0.07624679058790207 -0.036258503794670105 0.12648127973079681 0.04524923861026764 -0.006924495100975037 -0.03835579752922058 0.10298784077167511 -0.05898982286453247 0.03302775323390961 -0.0911295935511589 -0.18604034185409546 0.06714023649692535 0.1339067667722702 -0.016872912645339966 -0.15186914801597595 -0.11860527098178864 -0.1126866415143013 -0.10633642971515656 -0.13686791062355042 -0.10505934804677963 -0.1345745325088501 0.05512990057468414 -0.17675867676734924 0.04206746816635132 -0.1660204529762268 0.07517527043819427 0.028233259916305542 -0.03369428217411041 -0.18875767290592194 0.13485078513622284 0.0043756067752838135 -0.11351986229419708 0.04104533791542053 0.021492645144462585 0.06044556200504303 -0.16916823387145996 -0.00867520272731781 0.08847023546695709 -0.12961745262145996 -0.08975556492805481 -0.15990328788757324 -0.1444687694311142 -0.18191209435462952 -0.11502858996391296 0.07161454856395721 0.08581210672855377 0.13506413996219635 0.01746724545955658 0.02058124542236328 0.03971138596534729 -0.05823533236980438 -0.05530962347984314 0.02758793532848358 0.11572112143039703 -0.03280073404312134 -0.16163679957389832 -0.10123361647129059 -0.18717041611671448 0.1761287897825241 -0.14053812623023987 0.059030041098594666 -0.06579822301864624 -0.15479125082492828 -0.0481092631816864 0.09931261837482452 0.11445434391498566 0.18548811972141266 0.11912770569324493 -0.1912364959716797 0.18042169511318207 -0.1580466628074646 -0.1883368045091629 -0.024707436561584473 -0.01684395968914032 0.013676747679710388 -0.09689342975616455 0.136941596865654 -0.023378655314445496 0.009000793099403381 -0.1403549611568451 -0.1452997773885727 -0.010992929339408875 -0.08040208369493484 -0.0754762664437294 -0.1795792132616043 -0.0513651967048645 -0.13032005727291107 -0.18581239879131317 0.03064781427383423 0.07579438388347626 -0.002987906336784363 0.1052878350019455 -0.028264328837394714 -0.07995478808879852 -0.011746525764465332 -0.13277262449264526 -0.10318924486637115 -0.022849664092063904 0.09174533188343048 -0.05082656443119049 -0.01572534441947937 -0.07380731403827667 -0.17980033159255981 -0.12930697202682495 0.15367861092090607 0.18348197638988495 -0.05552424490451813 -0.1564568728208542 -0.11038683354854584 -0.1689957082271576 0.18074627220630646 -0.12130291014909744 0.07558698952198029 -0.13409507274627686 0.03324529528617859 -0.06350851058959961 -0.14790506660938263 0.14008913934230804 -0.04667156934738159 -0.11327885836362839 -0.1881488859653473 0.18875931203365326 0.07762570679187775 -0.09173005074262619 -0.06764699518680573 0.09588567912578583 0.0860942155122757 0.10209648311138153 -0.14603105187416077 -0.02574789524078369 0.13248096406459808 -0.13100384175777435 0.020072340965270996 0.1886533945798874 -0.08517107367515564 0.1486060470342636 0.057000190019607544 -0.12568266689777374 0.01995690166950226 -0.1649983525276184 -0.010808199644088745 -0.04280194640159607 0.034978508949279785 0.18402411043643951 -0.04294721782207489 -0.005479469895362854 0.08095161616802216 0.07398705184459686 0.05598969757556915 0.07452453672885895 0.0049632638692855835 -0.1215766966342926 -0.1845337152481079 -0.1697421669960022 0.0014097243547439575 0.02149723470211029 -0.12249335646629333 -0.1293175220489502 0.15833799540996552 0.16486899554729462 0.125580832362175 -0.05088821053504944 -0.04613751173019409 -0.05401720106601715 0.1861925572156906 0.1876346617937088 -0.10786446928977966 0.1738920658826828 -0.034019604325294495 0.048237815499305725 0.16149912774562836 -0.0518966019153595 0.04248170554637909 -0.16357237100601196 -0.019992545247077942 -0.12314727157354355 0.0697467178106308 -0.08713918179273605 0.0773623138666153 -0.04621979594230652 -0.009682103991508484 0.11835317313671112 -0.09812288731336594 0.09443752467632294 -0.14105601608753204 -0.13697856664657593 0.09953586757183075 -0.1657068133354187 -0.08478417992591858 0.0013516247272491455 0.1618991643190384 -0.06360861659049988 -0.1714477837085724 0.01828750967979431 -0.121120885014534 -0.09409799426794052 0.09105624258518219 0.14854340255260468 0.11562420427799225 -0.16747038066387177 0.12436144053936005 -0.04406127333641052 -0.14482203125953674 0.09725601971149445 -0.044424399733543396 0.16815967857837677 0.09082560241222382 -0.10371752828359604 -0.1770586222410202 0.0397920161485672 -0.16611047089099884 -0.12526297569274902 0.06028561294078827 -0.03824174404144287 -0.0646539032459259 0.10048462450504303 -0.03914661705493927 0.1638817936182022 0.1371898502111435 0.03488144278526306 -0.09842553734779358 -0.07187958061695099 0.06309039890766144 -0.18404768407344818 0.09388817846775055 -0.16962876915931702 0.0675165206193924 -0.026862844824790955 0.1015276163816452 -0.1204293966293335 0.06678776443004608 0.1766044944524765 0.13753752410411835 0.11152248084545135 -0.09557290375232697 0.10542260110378265 -0.16054227948188782 -0.14935919642448425 -0.14329437911510468 0.019512876868247986 -0.13269111514091492 0.1755802184343338 -0.12881478667259216 -0.14053229987621307 -0.18606670200824738 0.11364628374576569 0.1592927724123001 0.08496128022670746 0.1513100117444992 0.038332074880599976 -0.060968026518821716 -0.07099485397338867 0.13146273791790009 -0.00824195146560669 0.17155347764492035 0.18689097464084625 0.020307540893554688 0.043771520256996155 0.17242984473705292 0.0915825217962265 -0.181549072265625 -0.11142192780971527 0.0005560219287872314 0.026355698704719543 0.00904335081577301 -0.060807958245277405 -0.17193537950515747 0.06785048544406891 -0.0037259161472320557 -0.05111834406852722 0.045048296451568604 -0.08197389543056488 -0.18292221426963806 -0.05361250042915344 0.02148193120956421 -0.022062495350837708 0.0031780600547790527 -0.08581438660621643 -0.12435286492109299 0.003951177000999451 -0.17273862659931183 0.06634809076786041 -0.02199365198612213 0.1312582641839981 -0.13313917815685272 0.07848410308361053 0.14838655292987823 -0.1361437439918518 0.004741683602333069 -0.16879113018512726 0.05258205533027649 0.12236045300960541 0.10974518954753876 0.11000968515872955 0.059117838740348816 -0.009568989276885986 0.055959552526474 0.16500122845172882 0.046651363372802734 -0.14882583916187286 0.17925523221492767 -0.1674237847328186 0.13225232064723969 -0.14019662141799927 0.12471385300159454 -0.057550638914108276 -0.14324228465557098 0.17015387117862701 0.19143612682819366 -0.1469367891550064 -0.07845503091812134 -0.08642266690731049 0.12765838205814362 0.10558478534221649 -0.18789638578891754 0.05363170802593231 0.14047859609127045 -0.15304216742515564 -0.10109709203243256 0.0805361419916153 -0.16543012857437134 0.06013871729373932 -0.06909361481666565 0.17652307450771332 0.10239480435848236 0.15650813281536102 0.0054454505443573 0.19004134833812714 -0.010446801781654358 0.14831532537937164 -0.14666005969047546 0.009007513523101807 -0.015080422163009644 -0.16863074898719788 0.06441186368465424 -0.11207108944654465 0.07073353230953217 0.033220887184143066 -0.0429181307554245 -0.09987068921327591 0.17806373536586761 -0.08465949445962906 -0.0477556437253952 -0.10284959524869919 -0.18016989529132843 0.050736501812934875 0.025379657745361328 -0.09796477109193802 -0.037559762597084045 0.031016305088996887 0.09692586958408356 -0.09819671511650085 -0.07506454735994339 -0.17623552680015564 -0.025472775101661682 -0.002592802047729492 -0.057398512959480286 -0.18266631662845612 0.09363807737827301 0.05484470725059509 -0.015328526496887207 -0.14106236398220062 0.1342812031507492 -0.176908940076828 0.055651187896728516 -0.13742318749427795 0.03838561475276947 -0.07521796226501465 -0.18470178544521332 0.09913013875484467 0.17525191605091095 0.009156614542007446 0.10269270837306976 -0.058284565806388855 -0.11023592203855515 -0.011387825012207031 -0.030824080109596252 -0.11992210894823074 0.11460094153881073 0.1429295688867569 -0.02133774757385254 0.007797122001647949 -0.06270159780979156 -0.14705239236354828 -0.05414317548274994 0.09144441783428192 -0.09902940690517426 0.040624722838401794 -0.06600126624107361 0.11481012403964996 -0.12230124324560165 -0.09773316979408264 0.1174929291009903 -0.14751645922660828 0.07090796530246735 -0.009639382362365723 -0.10162287205457687 -0.07321827858686447 0.008953899145126343 0.06387116014957428 0.10693864524364471 0.03907153010368347 0.102724090218544 -0.10752467811107635 0.000410228967666626 -0.14706146717071533 0.10648058354854584 0.10964350402355194 -0.03742906451225281 -0.024119600653648376 0.14810632169246674 -0.17574605345726013 -0.18475981056690216 -0.02410237491130829 0.1172923892736435 -0.13492028415203094 0.18451757729053497 -0.10697410255670547 -0.04056312143802643 0.05719737708568573 0.032386183738708496 -0.15152063965797424 -0.1404222697019577 0.14809881150722504 -0.11742513626813889 0.14303503930568695 -0.0621468722820282 -0.04074074327945709 -0.10546807944774628 0.1683923751115799 0.003716021776199341 -0.0022998452186584473 -0.1371747851371765 0.18656985461711884 -0.05562852323055267 0.09136520326137543 0.13563652336597443 0.09001092612743378 -0.0828833132982254 -0.0011083632707595825 0.017223015427589417 0.149656280875206 0.10364516079425812 -0.13855601847171783 -0.1728854477405548 0.06622643768787384 0.09883801639080048 -0.11118785291910172 0.005708545446395874 0.026698768138885498 -0.0941096693277359 0.1356310099363327 0.004705876111984253 -0.002236872911453247 -0.004227578639984131 -0.11697577685117722 -0.14564552903175354 -0.016453638672828674 -0.07178936898708344 -0.08040706068277359 -0.10771436244249344 0.13171158730983734 0.05259023606777191 0.007385477423667908 0.12541313469409943 0.11644406616687775 0.06692339479923248 -0.18747207522392273 0.0012321174144744873 0.008746445178985596 0.06303475797176361 0.012050837278366089 -0.10202673822641373 -0.027418062090873718 -0.04036840796470642 0.13959015905857086 0.008403688669204712 -0.03805933892726898 0.00017435848712921143 0.17367486655712128 -0.03117138147354126 0.13810251653194427 0.02639123797416687 0.043146997690200806 0.017115414142608643 -0.015761807560920715 0.03312458097934723 -0.15071138739585876 0.10135088860988617 0.19024677574634552 -0.16568143665790558 0.1754492074251175 0.13278840482234955 -0.08740677684545517 -0.1729235053062439 -0.1676030308008194 -0.18431764841079712 -0.17410267889499664 0.0519583523273468 0.0030831992626190186 -0.12919358909130096 -0.16030217707157135 0.11375941336154938 0.04726994037628174 0.18613387644290924 0.046813324093818665 0.06349967420101166 0.07724316418170929 -0.14550663530826569 -0.08262808620929718 -0.12637761235237122 0.13974682986736298 0.1495644897222519 0.1337718516588211 -0.042197227478027344 0.16809408366680145 -0.05688777565956116 0.04959070682525635 -0.1835700124502182 -0.13147366046905518 0.06490747630596161 0.13377876579761505 -0.07944522053003311 -0.13293462991714478 0.12794660031795502 -0.09845224022865295 -0.049333035945892334 0.07704080641269684 0.18054796755313873 -0.03566528856754303 -0.019832000136375427 0.06165139377117157 0.1350494772195816 -0.17476952075958252 -0.00841212272644043 -0.08634915947914124 -0.12426953762769699 -0.15900176763534546 0.18970374763011932 0.16095440089702606 -0.09000289440155029 -0.1346677839756012 0.12132693827152252 0.026483893394470215 0.08840872347354889 -0.005356580018997192 -0.13808947801589966 0.030084505677223206 -0.01516905426979065 -0.16273616254329681 0.13641546666622162 0.16060851514339447 0.04684890806674957 -0.16788527369499207 0.14340154826641083 -0.008452162146568298 -0.18104121088981628 -0.05477653443813324 -0.0410546213388443 -0.09299873560667038 0.1324893981218338 0.18406210839748383 0.028819352388381958 0.01801033318042755 0.08170388638973236 -0.05343671143054962 -0.1384076029062271 0.006271660327911377 -0.011991217732429504 0.02132520079612732 -0.08543061465024948 0.0436994731426239 -0.05222582817077637 -0.17080527544021606 0.17264018952846527 0.1605873554944992 -0.09742511063814163 0.03905767202377319 -0.07443662732839584 0.0558251291513443 0.13141410052776337 0.12886454164981842 0.12849585711956024 0.031203165650367737 0.18925921618938446 -0.11781315505504608 0.09298394620418549 -0.1330379992723465 0.09587372839450836 0.08485539257526398 0.12865619361400604 0.024756819009780884 0.039720162749290466 -0.17794229090213776 0.09752978384494781 -0.1314379721879959 0.16608823835849762 0.10840891301631927 -0.11241239309310913 -0.013317897915840149 -0.06771723926067352 -0.1262291818857193 0.038090869784355164 0.15211136639118195 0.0321810245513916 -0.05294169485569 -0.14589408040046692 -0.09244535118341446 0.017345890402793884 -0.1647844761610031 -0.057679712772369385 -0.044550418853759766 -0.18432384729385376 -0.01986841857433319 -0.18174949288368225 -0.1700717806816101 0.025886178016662598 -0.07370180636644363 -0.0429905503988266 0.041699498891830444 -0.02043280005455017 -0.10495524108409882 0.1519167572259903 -0.14450643956661224 -0.1512446403503418 0.12810714542865753 -0.020998045802116394 0.02283334732055664 -0.15171290934085846 0.0762462168931961 0.011149898171424866 0.04915215075016022 -0.04360124468803406 0.03881557285785675 -0.00020840764045715332 0.18811877071857452 -0.14737291634082794 0.13779236376285553 0.09232370555400848 0.025861188769340515 0.013422966003417969 -0.14272023737430573 -0.12180762737989426 -0.02575761079788208 -0.015761137008666992 0.03226998448371887 -0.1664891093969345 0.04625639319419861 0.15553246438503265 0.10512332618236542 -0.17952083051204681 -0.01387980580329895 -0.07847216725349426 0.1733829230070114 0.09624804556369781 0.07958631217479706 0.1603003293275833 0.1618022471666336 -0.14286606013774872 0.17983241379261017 0.06287632882595062 0.043857961893081665 0.10941658914089203 -0.18633127212524414 -0.043631523847579956 0.035546064376831055 -0.11630626767873764 0.1735406368970871 -0.0761653408408165 0.12150482833385468 -0.08771699666976929 0.08728845417499542 -0.01363302767276764 -0.051646873354911804 -0.0920262336730957 0.13080568611621857 0.07109157741069794 0.12317167222499847 -0.052860110998153687 0.19039104878902435 -0.0367240309715271 0.12847910821437836 0.03535394370555878 0.04812677204608917 0.01445440948009491 0.09509669244289398 0.02341058850288391 0.023308753967285156 -0.14994065463542938 -0.07753533869981766 0.012073323130607605 0.04640570282936096 -0.15435351431369781 -0.17565283179283142 -0.17956015467643738 -0.09150804579257965 -0.1900806427001953 0.03267744183540344 0.011079847812652588 -0.13463282585144043 -0.04892294108867645 -0.048254743218421936 -0.07321465760469437 0.010004818439483643 -0.09607259929180145 -0.12774598598480225 0.02797885239124298 -0.048594921827316284 -0.17572884261608124 -0.12755507230758667 -0.06899939477443695 0.10705120861530304 -0.009396359324455261 0.09088818728923798 -0.09476491063833237 -0.19012083113193512 -0.1371973305940628 0.04989515244960785 -0.1601957082748413 0.08552087843418121 -0.17054150998592377 0.05822257697582245 -0.12447264045476913 -0.18115606904029846 0.04385644197463989 -0.0249004065990448 -0.049295246601104736 -0.11541984230279922 -0.026413649320602417 0.15666763484477997 0.13878707587718964 -0.014194190502166748 0.1141364723443985 0.07068832218647003 -0.10479223728179932 0.020094871520996094 -0.191024512052536 0.12065695226192474 0.15217716991901398 -0.06805175542831421 0.16325150430202484 0.12649016082286835 -0.1824273020029068 -0.1124022975564003 -0.14146828651428223 -0.16086234152317047 0.18616510927677155 0.1923394352197647 -0.16121119260787964 -0.06386657059192657 0.059008195996284485 -0.15798279643058777 0.11769373714923859 -0.01394382119178772 0.10273946821689606 -0.14926859736442566 -0.05597934126853943 -0.12105841934680939 -0.0655674934387207 -0.1512463241815567 0.04227715730667114 0.04590260982513428 -0.06080874800682068 0.07398201525211334 0.08350135385990143 0.07771207392215729 0.1621636301279068 0.16673003137111664 0.08993680775165558 0.14498595893383026 -0.17631126940250397 0.06599481403827667 0.059133872389793396 -0.07073432207107544 0.14118601381778717 0.06952039897441864 -0.035096585750579834 0.03693661093711853 -0.051561832427978516 0.10393507778644562 0.12907017767429352 0.10295696556568146 -0.16889771819114685 -0.1654254049062729 0.028226837515830994 0.11177612841129303 -0.11874803155660629 0.12625496089458466 0.0385446697473526 0.09493212401866913 0.09888117015361786 0.18172623217105865 -0.1824234575033188 -0.06722784042358398 -0.12669461965560913 0.18432508409023285 0.015940487384796143 -0.12492930144071579 -0.062304750084877014 0.026511982083320618 0.14750520884990692 -0.020355701446533203 0.1694660633802414 0.13822530210018158 -0.09955558180809021 -0.11630881577730179 0.05679135024547577 -0.1753600537776947 -0.023666664958000183 0.150321826338768 -0.07620971649885178 0.06373827159404755 0.050640761852264404 -0.14846329391002655 -0.12768307328224182 0.014030203223228455 -0.1842196136713028 -0.13388381898403168 -0.08643750846385956 0.018376454710960388 -0.15875953435897827 -0.009031534194946289 -0.17357853055000305 0.14815150201320648 -0.07826124131679535 -0.15106827020645142 -0.014083325862884521 -0.041823893785476685 -0.04485251009464264 -0.07617750018835068 0.1645575612783432 0.015104562044143677 -0.10397280007600784 -0.1284216195344925 -0.18228963017463684 -0.09139129519462585 -0.13521826267242432 0.0459635853767395 -0.12271401286125183 -0.08068277686834335 -0.1838984489440918 -0.06661053001880646 0.12105561792850494 0.1528780311346054 0.055530011653900146 0.008226051926612854 0.06477917730808258 0.17846117913722992 -0.1376577764749527 -0.12969741225242615 0.1541184037923813 -0.17598992586135864 -0.17950186133384705 0.03019288182258606 0.03474804759025574 0.02311640977859497 0.006213933229446411 -0.04991251230239868 -0.05032436549663544 -0.04859110713005066 -0.1795046031475067 -0.10944715887308121 -0.04119807481765747 0.11071966588497162 0.003003135323524475 -0.1544124037027359 -0.08462274074554443 -0.03186112642288208 -0.04279930889606476 -0.07815692573785782 0.027897506952285767 -0.03690217435359955 -0.13574784994125366 0.03649847209453583 -0.08157549053430557 0.07396332919597626 0.16467849910259247 -0.06611615419387817 -0.10440301150083542 0.01146019995212555 -0.17404410243034363 -0.1632087230682373 0.06977866590023041 -0.18308979272842407 -0.17281299829483032 -0.09025900065898895 0.06417365372180939 0.04734894633293152 0.05342334508895874 -0.15446144342422485 0.008394807577133179 -0.13997380435466766 0.1675529032945633 -0.0763431191444397 -0.0184144526720047 0.026847437024116516 -0.12314782291650772 -0.06652602553367615 0.0869240015745163 -0.07346295565366745 -0.01392604410648346 0.15478046238422394 -0.04464145004749298 0.1652670055627823 0.15806539356708527 0.01963910460472107 0.055296391248703 -0.08421274274587631 -0.04567359387874603 -0.03502306342124939 0.08691315352916718 0.06638400256633759 -0.15176528692245483 -0.08402296900749207 0.024297907948493958 0.18654610216617584 -0.1577991247177124 -0.07218798995018005 -0.1477990597486496 -0.008643999695777893 -0.10795174539089203 0.1155647486448288 0.13392706215381622 0.19029955565929413 0.11017222702503204 -0.14351032674312592 -0.04072737693786621 -0.12820962071418762 0.170610710978508 0.07183928787708282 -0.1891305148601532 0.01714131236076355 -0.002059146761894226 0.15441246330738068 -0.1628091186285019 0.18510489165782928 -0.03311954438686371 -0.033021241426467896 -0.18335679173469543 0.18969692289829254 -0.022217705845832825 0.17793191969394684 -0.09037143737077713 0.16865278780460358 0.14974643290042877 0.16047213971614838 0.09061260521411896 -0.15499547123908997 -0.10143410414457321 0.0034423470497131348 -0.012953788042068481 0.13947267830371857 -0.14099250733852386 0.10783223807811737 -0.08067600429058075 -0.15390241146087646 0.04771317541599274 -0.11489293724298477 -0.17080259323120117 -0.04532440006732941 -0.09436629712581635 -0.09894014149904251 -0.06627541780471802 -0.08545814454555511 -0.07605279237031937 -0.04750773310661316 -0.008210703730583191 -0.06447067856788635 0.1801816076040268 -0.0044488608837127686 -0.06501111388206482 0.16584540903568268 0.09269912540912628 0.07083158195018768 0.13760630786418915 -0.15373502671718597 -0.17581932246685028 -0.01990988850593567 0.16356529295444489 0.1662742644548416 -0.028455525636672974 0.007209226489067078 -0.16772161424160004 0.16239912807941437 -0.10572510212659836 -0.1268671452999115 -0.11635524779558182 0.005278199911117554 -0.02192482352256775 -0.11777961254119873 0.047922179102897644 0.09229420125484467 -0.07830826938152313 0.11735554039478302 -0.05428217351436615 -0.03197754919528961 0.0870467871427536 0.12944336235523224 -0.12294398248195648 -0.02231009304523468 -0.005416154861450195 -0.06276889145374298 -0.01694178581237793 -0.020148441195487976 -0.02998751401901245 0.10368765890598297 -0.15846547484397888 -0.11442453414201736 0.16898484528064728 0.054823681712150574 -0.07017029821872711 -0.12915191054344177 -0.12241604179143906 -0.15586228668689728 -0.040418580174446106 -0.06764081865549088 -9.685754776000977e-07 -0.168925940990448 0.16726921498775482 -0.08272230625152588 0.10162393748760223 0.020581990480422974 0.005055412650108337 0.11119966208934784 0.09035633504390717 -0.007150769233703613 -0.1156899556517601 0.06634829938411713 0.07392187416553497 0.015008345246315002 -0.12861548364162445 -0.11311808228492737 0.026789918541908264 0.019020572304725647 -0.07421838492155075 0.13655661046504974 -0.07917336374521255 0.17539681494235992 -0.17452865839004517 -0.00063285231590271 -0.012531250715255737 -0.06084179878234863 -0.1258566528558731 -0.031606078147888184 -0.08553052693605423 -0.12720853090286255 0.0021209269762039185 0.04270002245903015 -0.008135929703712463 -0.18178300559520721 -0.024206101894378662 -0.031342148780822754 0.03950488567352295 -0.18627285957336426 -0.1860644817352295 0.06392677128314972 0.0027394890785217285 -0.1338638812303543 -0.07835032790899277 -0.0032795369625091553 0.08465324342250824 -0.14930830895900726 -0.1864517480134964 0.09203983843326569 0.03703588247299194 0.07688428461551666 -0.021770015358924866 -0.04686751961708069 0.06153963506221771 -0.012995973229408264 0.0903848260641098 0.06740613281726837 -0.14771896600723267 0.17329885065555573 0.07563172280788422 -0.17737580835819244 0.09392233192920685 0.15005312860012054 0.17880065739154816 0.15501753985881805 -0.048795297741889954 0.15095756947994232 0.03874695301055908 0.02687525749206543 -0.10740549862384796 -0.1234852522611618 -0.03279714286327362 0.11381842195987701 -0.10347197949886322 0.18858127295970917 -0.053375616669654846 -0.17478595674037933 -0.004945114254951477 -0.03960879147052765 -0.12638512253761292 -0.13018770515918732 0.022970154881477356 0.15308399498462677 0.08157952129840851 -0.020295605063438416 0.09810091555118561 0.008906647562980652 -0.06925307959318161 -0.02509118616580963 0.026649698615074158 -0.10712119936943054 0.07665930688381195 -0.08485592156648636 0.15709839761257172 -0.18638046085834503 -0.12369085103273392 -0.08175214380025864 -0.023484259843826294 0.09343303740024567 0.1014304906129837 0.017464160919189453 0.15531425178050995 -0.10658729821443558 -0.09178031980991364 0.1014903336763382 -0.1043521910905838 -0.01701582968235016 0.13970442116260529 -0.16522519290447235 0.019754499197006226 0.08061139285564423
1x1 kernel: -0.3780764937400818 -0.42168161273002625 -0.36433708667755127 -0.4976891875267029 0.12459009885787964 -0.29679206013679504 -0.28934362530708313 -0.19959846138954163 0.3635788559913635 0.10582393407821655 -0.001096963882446289 -0.5175544619560242 -0.4541276693344116 -0.4136132597923279 -0.09111905097961426 -0.5468646287918091 -0.3940098285675049 -0.34684306383132935 -0.4472476840019226 0.3620707392692566 0.049798011779785156 0.4991995096206665 -0.16604816913604736 0.3783220648765564 -0.01100778579711914 0.1259964108467102 -0.018629848957061768 0.19056636095046997 -0.47958746552467346 0.31160956621170044 -0.006441950798034668 0.4320179224014282 0.08297193050384521 -0.11485841870307922 0.3876161575317383 -0.3696443438529968 -0.44153109192848206 -0.4619595408439636 0.32837367057800293 -0.4578493535518646 0.09722298383712769 -0.4770472049713135 0.35869932174682617 -0.29078489542007446 -0.363085001707077 0.3080463409423828 0.3432071805000305 -0.48151740431785583 -0.03837013244628906 -0.1816624104976654 -0.4046037793159485 -0.5149747133255005 0.3469359278678894 -0.4674086570739746 -0.5078079700469971 0.3308459520339966 0.4187292456626892 -0.034272193908691406 0.15430444478988647 0.21998029947280884 0.15681856870651245 0.19465726613998413 -0.2708721160888672 -0.4952872693538666 0.09002399444580078 0.4067140817642212 -0.21472549438476562 -0.4119364619255066 0.313008189201355 -0.13459813594818115 -0.47888901829719543 -0.03233712911605835 0.3264122009277344 -0.1893860101699829 -0.2898019552230835 0.49430596828460693 -0.21694627404212952 0.19032037258148193 0.09052956104278564 -0.18576177954673767 -0.43659546971321106 0.4740210771560669 -0.4436039924621582 -0.5133035182952881 0.16838818788528442 0.1029406189918518 -0.4460209906101227 -0.2831489145755768 -0.07538563013076782 0.3923985958099365 0.27173101902008057 0.28364866971969604 0.29390090703964233 0.0603676438331604 0.5515661239624023 0.19299626350402832 0.2792665362358093 -0.4230641722679138 -0.1957850456237793 -0.3659915030002594 0.3627721667289734 0.22044140100479126 -0.43766480684280396 0.32518184185028076 -0.36682283878326416 -0.5292549729347229 0.5053043365478516 0.28591686487197876 0.061956942081451416 -0.3947128653526306 0.3075018525123596 0.3968949317932129 0.11572247743606567 0.32116615772247314 -0.1011110246181488 -0.45830681920051575 -0.40712928771972656 -0.39692017436027527 0.10404103994369507 0.44065582752227783 0.5010915994644165 0.17059248685836792 -0.5497190952301025 0.15866076946258545 -0.12565556168556213 -0.4953499436378479 -0.3962697982788086 -0.027705013751983643 -0.13425731658935547 0.2152348756790161 0.14615780115127563 -0.2344031035900116 0.29617512226104736 -0.4485275447368622 0.4797019958496094 -0.46340155601501465 -0.4293658435344696 -0.36324989795684814 -0.47223031520843506 0.3535001873970032 -0.5483051538467407 -0.5371309518814087 0.12754535675048828 -0.24793750047683716
bn3x3_weights: 1.0 1.0 1.0 1.0 1.0 1.0 1.0 1.0 1.0 1.0 1.0 1.0 1.0 1.0 1.0 1.0 1.0 1.0 1.0 1.0 1.0 1.0 1.0 1.0 1.0 1.0 1.0 1.0 1.0 1.0 1.0 1.0 1.0 1.0 1.0 1.0 1.0 1.0 1.0 1.0 1.0 1.0 1.0 1.0 1.0 1.0 1.0 1.0
bn3x3_bias: 0.0 0.0 0.0 0.0 0.0 0.0 0.0 0.0 0.0 0.0 0.0 0.0 0.0 0.0 0.0 0.0 0.0 0.0 0.0 0.0 0.0 0.0 0.0 0.0 0.0 0.0 0.0 0.0 0.0 0.0 0.0 0.0 0.0 0.0 0.0 0.0 0.0 0.0 0.0 0.0 0.0 0.0 0.0 0.0 0.0 0.0 0.0 0.0
bn3x3_running_mean: 0.0 0.0 0.0 0.0 0.0 0.0 0.0 0.0 0.0 0.0 0.0 0.0 0.0 0.0 0.0 0.0 0.0 0.0 0.0 0.0 0.0 0.0 0.0 0.0 0.0 0.0 0.0 0.0 0.0 0.0 0.0 0.0 0.0 0.0 0.0 0.0 0.0 0.0 0.0 0.0 0.0 0.0 0.0 0.0 0.0 0.0 0.0 0.0
bn3x3_running_var: 1.0 1.0 1.0 1.0 1.0 1.0 1.0 1.0 1.0 1.0 1.0 1.0 1.0 1.0 1.0 1.0 1.0 1.0 1.0 1.0 1.0 1.0 1.0 1.0 1.0 1.0 1.0 1.0 1.0 1.0 1.0 1.0 1.0 1.0 1.0 1.0 1.0 1.0 1.0 1.0 1.0 1.0 1.0 1.0 1.0 1.0 1.0 1.0
num_batches_tracked: 0
bn_weights: 1.0 1.0 1.0 1.0 1.0 1.0 1.0 1.0 1.0 1.0 1.0 1.0 1.0 1.0 1.0 1.0 1.0 1.0 1.0 1.0 1.0 1.0 1.0 1.0 1.0 1.0 1.0 1.0 1.0 1.0 1.0 1.0 1.0 1.0 1.0 1.0 1.0 1.0 1.0 1.0 1.0 1.0 1.0 1.0 1.0 1.0 1.0 1.0
bn_bias: 0.0 0.0 0.0 0.0 0.0 0.0 0.0 0.0 0.0 0.0 0.0 0.0 0.0 0.0 0.0 0.0 0.0 0.0 0.0 0.0 0.0 0.0 0.0 0.0 0.0 0.0 0.0 0.0 0.0 0.0 0.0 0.0 0.0 0.0 0.0 0.0 0.0 0.0 0.0 0.0 0.0 0.0 0.0 0.0 0.0 0.0 0.0 0.0
bn_running_mean: 0.0 0.0 0.0 0.0 0.0 0.0 0.0 0.0 0.0 0.0 0.0 0.0 0.0 0.0 0.0 0.0 0.0 0.0 0.0 0.0 0.0 0.0 0.0 0.0 0.0 0.0 0.0 0.0 0.0 0.0 0.0 0.0 0.0 0.0 0.0 0.0 0.0 0.0 0.0 0.0 0.0 0.0 0.0 0.0 0.0 0.0 0.0 0.0
bn_running_var: 1.0 1.0 1.0 1.0 1.0 1.0 1.0 1.0 1.0 1.0 1.0 1.0 1.0 1.0 1.0 1.0 1.0 1.0 1.0 1.0 1.0 1.0 1.0 1.0 1.0 1.0 1.0 1.0 1.0 1.0 1.0 1.0 1.0 1.0 1.0 1.0 1.0 1.0 1.0 1.0 1.0 1.0 1.0 1.0 1.0 1.0 1.0 1.0
num_batches_tracked: 0
