3x3 kernel: -0.006998822093009949 0.01728910207748413 -0.09328041225671768 -0.16215673089027405 0.03862549364566803 0.08831213414669037 -0.15123195946216583 -0.004372552037239075 0.1660812646150589 0.05543975532054901 -0.08001478016376495 -0.05206651985645294 0.06903831660747528 -0.02029426395893097 -0.0959143191576004 0.07187004387378693 -0.00669504702091217 -0.12104713171720505 -0.14173266291618347 -0.07411085814237595 0.05050559341907501 -0.14533962309360504 -0.06735341250896454 0.09363652765750885 0.009668722748756409 0.10094575583934784 0.15527211129665375 0.09548799693584442 0.010390892624855042 0.08644692599773407 -0.0860946848988533 -0.026582255959510803 0.04332035779953003 0.05241723358631134 0.14351649582386017 0.1003936380147934 0.1295122653245926 0.03513766825199127 0.004313021898269653 -0.08812136948108673 0.025767818093299866 0.1371634155511856 0.1864241510629654 -0.18124277889728546 -0.1153431236743927 -0.18231946229934692 -0.15343639254570007 -0.056281402707099915 -0.18660368025302887 0.09285874664783478 -0.17084741592407227 -0.08924365788698196 -0.07616373896598816 -0.09690871089696884 -0.16673293709754944 -0.0924244076013565 -0.000666394829750061 -0.022980451583862305 -0.1445285826921463 -0.03225308656692505 -0.06592436134815216 0.03741602599620819 -0.1703164428472519 0.03061358630657196 -0.025361835956573486 0.0475606769323349 -0.14031800627708435 -0.03726398944854736 0.022117167711257935 0.04379044473171234 0.11773093044757843 0.17185167968273163 -0.143337219953537 -0.06896039098501205 0.12908302247524261 0.10909588634967804 -0.06735505163669586 0.09756894409656525 0.04618999361991882 0.019981950521469116 -0.028415605425834656 -0.14330576360225677 0.1573542207479477 0.07914333045482635 0.05132600665092468 -0.08613898605108261 -0.15906944870948792 0.1477135270833969 0.1586775928735733 -0.056332096457481384 0.13592176139354706 0.054539844393730164 -0.0986299216747284 -0.05480043590068817 0.014399334788322449 0.13912050426006317 0.1236560195684433 -0.04384543001651764 0.07779495418071747 0.1457262486219406 -0.1728828102350235 0.037689030170440674 0.12937434017658234 -0.11231137812137604 -0.012379735708236694 0.007220253348350525 0.14960922300815582 -0.0644349455833435 -0.0004800856113433838 0.024246051907539368 0.15284641087055206 0.11366726458072662 -0.08592140674591064 -0.009131059050559998 -0.1227240189909935 -0.07179168611764908 0.14606763422489166 -0.04434257745742798 0.03906838595867157 0.14105604588985443 0.10416935384273529 0.011860191822052002 -0.18220734596252441 0.1081220954656601 -0.08502713590860367 0.07088159024715424 0.02928486466407776 -0.13357208669185638 -0.16240066289901733 -0.048298805952072144 0.046564459800720215 0.06321506202220917 0.07162199914455414 -0.1331726312637329 0.06241421401500702 0.15649177134037018 -0.03253313899040222 0.06683357059955597 0.10586510598659515 0.13607154786586761 0.10151071846485138 -0.04680582880973816 0.17645607888698578 0.05355525016784668 -0.14328497648239136 0.0009320974349975586 0.01177111268043518 0.15434210002422333 0.17841659486293793 -0.09447192400693893 0.03663367033004761 -0.12076257914304733 -0.04189583659172058 -0.015474453568458557 -0.015366002917289734 -0.10943350940942764 -0.18670667707920074 -0.04373304545879364 -0.18054574728012085 0.17327569425106049 -0.1886124461889267 -0.021076008677482605 -0.12313009053468704 -0.11291814595460892 0.08126278221607208 0.18494750559329987 0.10627742111682892 -0.1366119235754013 -0.07271124422550201 0.04576541483402252 -0.13949409127235413 0.021745100617408752 0.11069096624851227 -0.09020469337701797 0.18393941223621368 -0.1665351241827011 -0.07668979465961456 0.09655429422855377 0.16808359324932098 0.12397243082523346 -0.13107042014598846 -0.08681352436542511 0.1725551038980484 0.13519470393657684 -0.0591147243976593 -0.14062108099460602 0.08927552402019501 -0.16486461460590363 -0.05553533136844635 0.05022718012332916 0.07975868880748749 -0.135782852768898 0.12472616136074066 0.1678646057844162 0.022109255194664 0.1625850349664688 0.0918457955121994 -0.1399778127670288 0.06089450418949127 -0.10010173171758652 -0.011247605085372925 0.051368772983551025 0.08276472985744476 -0.11878295242786407 0.17652256786823273 -0.08514461666345596 0.14300177991390228 0.15357784926891327 -0.14462047815322876 -0.05801518261432648 -0.15571874380111694 -0.012118637561798096 0.18045611679553986 -0.18461036682128906 -0.16109247505664825 -0.04540848731994629 0.1680631786584854 0.08883164823055267 -0.04172641038894653 0.15952907502651215 -0.17185823619365692 -0.02167755365371704 -0.1686452478170395 -0.1691974401473999 0.011216789484024048 0.12567709386348724 -0.07196648418903351 -0.0862351804971695 -0.1502421796321869 0.0023327767848968506 0.05486056208610535 0.0205487459897995 0.0004794895648956299 -0.02461715042591095 -0.024891361594200134 0.15988074243068695 0.06871451437473297 0.1867208331823349 0.002429559826850891 0.16354157030582428 -0.06485502421855927 -0.05705903470516205 -0.06958950310945511 -0.19000829756259918 0.11840258538722992 0.06997121870517731 0.16923241317272186 0.0008075982332229614 0.03657020628452301 0.1764575093984604 0.05848492681980133 0.04226207733154297 -0.1877913773059845 -0.03835742175579071 0.006004929542541504 0.004517614841461182 -0.10839451849460602 -0.1191289871931076 0.017093166708946228 -0.18411923944950104 0.03628726303577423 0.11370418965816498 0.08561594784259796 -0.06769338250160217 0.09061844646930695 0.12823991477489471 -0.03877365589141846 -0.02482128143310547 0.023818492889404297 0.033768877387046814 -0.11854224652051926 -0.06577551364898682 -0.14089776575565338 0.17633827030658722 -0.16869181394577026 0.13930414617061615 0.06710352003574371 0.09821103513240814 0.04209388792514801 -0.1439051330089569 -0.03795449435710907 0.03830172121524811 -0.1355588734149933 0.1502632051706314 0.01934760808944702 -0.14548304677009583 0.13365502655506134 -0.07688860595226288 0.009109899401664734 0.12454657256603241 -0.12689612805843353 0.033072054386138916 -0.10771014541387558 0.07980678975582123 0.03975939750671387 -0.028177782893180847 -0.15058836340904236 -0.11309335380792618 -0.07188001275062561 0.12919984757900238 0.06880475580692291 0.15645183622837067 0.0678582638502121 -0.1152554601430893 -0.15446196496486664 0.18984545767307281 -0.14891472458839417 0.12817345559597015 -0.17449264228343964 -0.09812414646148682 -0.14047320187091827 -0.15509924292564392 0.12628726661205292 0.01126958429813385 0.1671426147222519 0.07107849419116974 -0.07577487081289291 -0.16256029903888702 -0.13176020979881287 -0.15027034282684326 -0.16428039968013763 0.18008197844028473 -0.1433487981557846 0.13956303894519806 0.06973247230052948 0.02325490117073059 0.1342925876379013 0.16526959836483002 0.0007376521825790405 -0.13726288080215454 -0.11272648721933365 0.06054241955280304 0.044535472989082336 0.1873798817396164 0.15956594049930573 -0.03762800991535187 -0.0690879225730896 0.18909351527690887 -0.17418061196804047 -0.052654415369033813 -0.022005677223205566 0.14028595387935638 0.11484979093074799 -0.04687848687171936 0.020939677953720093 0.1765754073858261 -0.11861605197191238 -0.006135836243629456 -0.09773833304643631 0.11174692213535309 0.10607410967350006 -0.029710829257965088 -0.07895291596651077 0.003973349928855896 0.0775298923254013 -0.18502406775951385 0.16739915311336517 0.0510164350271225 -0.00999876856803894 -0.13713525235652924 0.11665384471416473 -0.004400178790092468 -0.15595515072345734 -0.11066603660583496 -0.18207716941833496 0.11794792115688324 -0.048749133944511414 0.17940260469913483 -0.18285177648067474 0.013798072934150696 0.09696163237094879 -0.026070967316627502 -0.0634118914604187 -0.1678837388753891 0.1906135529279709 -0.15295195579528809 -0.12942585349082947 -0.054126888513565063 -0.04867051541805267 -0.18628674745559692 0.03318032622337341 0.06864459812641144 -0.11037226766347885 0.024183616042137146 0.15426190197467804 0.18422777950763702 0.10699139535427094 -0.022580593824386597 -0.0023733824491500854 -0.14276790618896484 -0.019172653555870056 -0.10071155428886414 -0.15375785529613495 0.0876854807138443 -0.01624290645122528 0.15793611109256744 -0.00778159499168396 -0.00208456814289093 0.012550488114356995 -0.11278168857097626 -0.18284717202186584 0.13526149094104767 -0.14174649119377136 0.004151731729507446 0.17268459498882294 -0.1398506760597229 -0.12313617020845413 0.15987806022167206 -0.11429346352815628 0.08909569680690765 -0.024918213486671448 -0.06365956366062164 -0.03424042463302612 -0.12800490856170654 0.02415420114994049 -0.026890099048614502 -0.03670957684516907 0.018196314573287964 0.012485131621360779 0.05595012009143829 -0.08274820446968079 -0.020595386624336243 -0.0662652999162674 0.03909189999103546 -0.012896299362182617 -0.15742726624011993 0.033024370670318604 0.07108418643474579 0.18145330250263214 0.09754560887813568 -0.06273588538169861 -0.09816961735486984 -0.03236675262451172 0.18320916593074799 0.05001421272754669 -0.18187478184700012 -0.18837259709835052 -0.14010825753211975 0.04545427858829498 0.019748196005821228 -0.09675901383161545 -0.08934471756219864 -0.0340043306350708 0.12851525843143463 -0.06215347349643707 0.04129193723201752 0.11914129555225372 -0.11328225582838058 -0.12649843096733093 0.042344823479652405 0.1738961786031723 0.02972714602947235 -0.17138466238975525 0.010512039065361023 -0.13956895470619202 5.097687244415283e-05 0.09666232764720917 0.11994044482707977 -0.1477842777967453 -0.05767059326171875 -0.08795788884162903 0.15465514361858368 -0.034148648381233215 0.06298570334911346 -0.09978947043418884 0.1156671792268753 0.03675775229930878 -0.10974238067865372 -0.1533365249633789 0.03601476550102234 -0.1837192326784134 0.007587075233459473 0.018673479557037354 -0.13820700347423553 -0.11490529775619507 -0.13036677241325378 -0.0885368213057518 0.015221953392028809 0.1621309369802475 -0.13625100255012512 -0.17026779055595398 0.1258612424135208 -0.0532495379447937 0.1723657101392746 0.16499324142932892 -0.07976755499839783 0.15784718096256256 -0.10313907265663147 -0.16550813615322113 -0.10838665068149567 -0.1590743362903595 0.12403322756290436 0.06437699496746063 -0.10490045696496964 -0.09610006213188171 -0.19025981426239014 0.1752646118402481 -0.06994234770536423 -0.160085529088974 0.10172916948795319 0.00321921706199646 0.10232250392436981 0.15836574137210846 0.024533331394195557 -0.18218302726745605 0.17001400887966156 0.10314427316188812 0.07859914004802704 -0.17725594341754913 -0.14701104164123535 0.15498821437358856 0.18951021134853363 0.1646280139684677 -0.1632879674434662 0.08551253378391266 0.1501302272081375 -0.1804540753364563 -0.09061998873949051 -0.1016964241862297 -0.04371421039104462 -0.1864256113767624 0.1560341864824295 0.10607816278934479 -0.08640699088573456 0.10595057904720306 0.18794842064380646 0.18209637701511383 -0.10741784423589706 -0.08698088675737381 0.18325017392635345 0.08288179337978363 -0.118150994181633 -0.1386062651872635 0.1433028131723404 -0.013527914881706238 0.1783720701932907 -0.10570161044597626 0.016645610332489014 0.025201380252838135 -0.023402884602546692 -0.08169478923082352 0.1253596693277359 0.09231133759021759 0.028513014316558838 0.12875784933567047 0.1523677259683609 -0.04537247121334076 0.09492610394954681 -0.11085083335638046 -0.14364169538021088 0.1705639511346817 0.10077311098575592 -0.05115218460559845 0.12166424095630646 -0.1331329643726349 -0.09394586831331253 -0.18959330022335052 0.0697505921125412 0.007414981722831726 -0.020841926336288452 0.10835544764995575 -0.16534146666526794 -0.13847291469573975 -0.14411920309066772 -0.1529550999403 0.15371529757976532 0.012159571051597595 0.17119120061397552 0.12561334669589996 -0.17505007982254028 -0.060495540499687195 -0.12705853581428528 0.16879157721996307 -0.09763552993535995 -0.19018295407295227 0.1790335327386856 -0.18801607191562653 0.008686497807502747 0.11580152809619904 0.034888505935668945 0.0882740169763565 0.008702576160430908 0.1282319277524948 -0.02249327301979065 -0.08237691223621368 -0.11556646227836609 0.1572539359331131 0.11396454274654388 0.11207209527492523 -0.03920845687389374 -0.008347049355506897 0.16064055263996124 0.0821741372346878 -0.1921130120754242 0.1657433956861496 -0.00041954219341278076 -0.11504744738340378 0.15601088106632233 -0.16942639648914337 -0.01734301447868347 0.12006513774394989 -0.18786245584487915 0.18792007863521576 -0.1803736686706543 0.02079102396965027 0.04502613842487335 -0.0863092839717865 0.10339818894863129 -0.14852064847946167 0.13180463016033173 0.12835560739040375 -0.15864068269729614 -0.1784650981426239 -0.029568955302238464 0.11541904509067535 0.039492055773735046 -0.01610693335533142 -0.15767547488212585 0.11225791275501251 0.1855945736169815 0.1693134754896164 -0.16853708028793335 -0.06377533078193665 0.0318855345249176 0.09565813839435577 -0.1462225615978241 0.18659289181232452 -0.04171876609325409 0.18684811890125275 0.14373095333576202 0.038822516798973083 0.05547967553138733 0.00887240469455719 0.13259334862232208 -0.0747162476181984 0.056759536266326904 0.005384653806686401 0.09847615659236908 -0.19231407344341278 0.039950668811798096 0.022394999861717224 0.010630354285240173 -0.14481598138809204 0.13533072173595428 -0.1910937875509262 0.14498935639858246 -0.04293552041053772 0.08021529018878937 0.023709863424301147 0.05620811879634857 -0.14586377143859863 0.16791178286075592 -0.07720029354095459 -0.008685991168022156 -0.09382149577140808 -0.08593239635229111 0.08588184416294098 0.01964709162712097 -0.11631404608488083 0.1651676744222641 -0.02710781991481781 -0.16065531969070435 -0.018611475825309753 -0.09247102588415146 -0.14663934707641602 0.16961677372455597 0.1109420508146286 0.07730244100093842 0.08738960325717926 0.012723982334136963 -0.02630724012851715 -0.00017946958541870117 0.01862207055091858 -0.15226392447948456 -0.12101025879383087 0.0701846033334732 -0.046168938279151917 -0.025669410824775696 -0.17841175198554993 0.14216004312038422 0.04688602685928345 -0.11759043484926224 0.12146662175655365 -0.033972084522247314 0.18021319806575775 -0.005619809031486511 -0.10931652784347534 0.006433606147766113 0.03932097554206848 -0.17516058683395386 0.10951380431652069 -0.05962854623794556 -0.18337267637252808 -0.11289669573307037 0.03389698266983032 -0.17930740118026733 0.09389947354793549 0.05507062375545502 -0.0967472717165947 0.1079905778169632 0.05400800704956055 -0.16882137954235077 0.13418446481227875 0.16425324976444244 0.1066962331533432 0.15696324408054352 0.018373847007751465 0.006921648979187012 0.17411641776561737 0.14778222143650055 -0.15088006854057312 -0.08965321630239487 0.004557549953460693 -0.09101229161024094 -0.04530221223831177 -0.1465623676776886 0.11761383712291718 0.03533557057380676 -0.042157530784606934 -0.14317238330841064 -0.11419114470481873 0.08100105822086334 0.06735669076442719 -0.11313260346651077 -0.0011204332113265991 -0.1128617525100708 0.15419431030750275 0.13978169858455658 0.07474358379840851 -0.05438096821308136 0.19012971222400665 0.03896969556808472 0.0023202896118164062 0.06897430121898651 0.002962827682495117 -0.15509621798992157 -0.16336174309253693 0.17956073582172394 -0.009641647338867188 0.14803726971149445 0.1043480783700943 0.07203938066959381 0.13739393651485443 -0.07430074363946915 -0.1084621325135231 0.18481792509555817 0.10229788720607758 -0.16702261567115784 -0.003883063793182373 0.1617710441350937 -0.14882753789424896 0.188557967543602 -0.09646079689264297 0.059296563267707825 0.0692417174577713 -0.09702649712562561 0.0016824454069137573 0.0017247498035430908 0.15341617166996002 0.07119111716747284 -0.15079382061958313 -0.048758357763290405 -0.059383004903793335 0.0720137506723404 0.02348911762237549 0.09952239692211151 -0.0965481847524643 0.10877572000026703 -0.13775691390037537 0.10217489302158356 0.04529471695423126 0.07604445517063141 0.18286241590976715 0.023468956351280212 0.04204115271568298 0.08368782699108124 0.019776463508605957 0.04108038544654846 0.020247459411621094 -0.16546835005283356 0.09453119337558746 0.08069859445095062 0.02237384021282196 0.04270529747009277 -0.14061477780342102 -0.1681620180606842 -0.05393803119659424 -0.11180131882429123 0.13782911002635956 0.16982795298099518 -0.14968958497047424 -0.1414068639278412 0.10689602792263031 -0.17976444959640503 -0.05087508261203766 0.040568768978118896 0.1827048808336258 -0.04780280590057373 -0.09429272264242172 0.01876869797706604 0.0565648227930069 0.05796940624713898 0.13355298340320587 -0.13831235468387604 -0.0068604350090026855 -0.0326308012008667 -0.1682635247707367 0.05229952931404114 0.0632292777299881 0.1077118068933487 -0.094016894698143 -0.07882391661405563 0.08003844320774078 -0.17640800774097443 -0.13005104660987854 -0.15767207741737366 0.09745536744594574 0.1922629326581955 0.11700080335140228 0.1638919562101364 0.12107612192630768 -0.13898155093193054 0.0859893411397934 0.09126515686511993 0.13172124326229095 -0.06533244252204895 0.07268460094928741 0.11542282998561859 -0.013873666524887085 0.044045642018318176 0.08257763087749481 -0.07869986444711685 0.0010669529438018799 -0.16250550746917725 0.024985745549201965 -0.12397806346416473 0.004554316401481628 0.0439428836107254 0.08514885604381561 0.14934085309505463 0.16194061934947968 0.10602129995822906 -0.042244136333465576 0.014531835913658142 0.07808135449886322 0.08598245680332184 0.09588213264942169 0.10934363305568695 -0.09721927344799042 -0.18507921695709229 0.15390558540821075 -0.15728752315044403 -0.16012196242809296 -0.12058303505182266 -0.08016006648540497 -0.12468327581882477 0.05745822191238403 0.01684245467185974 -0.13193970918655396 0.008250758051872253 -0.16588573157787323 0.0930996686220169 0.18582771718502045 0.02469688653945923 0.1452675610780716 0.14126668870449066 -0.020490050315856934 0.07993422448635101 -0.17921383678913116 0.14568503201007843 0.09624253213405609 -0.17427992820739746 -0.11216526478528976 -0.16726066172122955 -0.14538168907165527 0.1119556576013565 -0.041843488812446594 -0.12726059556007385 0.09436316788196564 0.013006851077079773 -0.09038157761096954 0.1587507575750351 -0.04768259823322296 0.09877990186214447 -0.055576711893081665 0.12471108138561249 -0.09543175995349884 -0.03209477663040161 0.17821843922138214 0.0471317321062088 0.12491627037525177 -0.19122625887393951 -0.047683924436569214 0.0903431624174118 -0.14446401596069336 0.0641082376241684 -0.1104365736246109 0.1782435029745102 -0.0954580307006836 -0.16126534342765808 0.05608898401260376 0.01985415816307068 0.061952993273735046 0.10639818012714386 -0.19022950530052185 0.1893359273672104 0.18457187712192535 -0.11146000772714615 -0.16902029514312744 0.1064252108335495 -0.053715407848358154 0.10206307470798492 0.040535956621170044 0.09307445585727692 0.12632502615451813 0.06037349998950958 0.16055820882320404 -0.030706092715263367 0.011807665228843689 -0.05005812644958496 0.08398498594760895 -0.0896182581782341 0.011225581169128418 -0.02427755296230316 0.18235592544078827 0.14441870152950287 -0.07587120682001114 0.18186016380786896 0.06212376058101654 0.04264041781425476 -0.09338803589344025 -0.03206615149974823 -0.1880689412355423 0.10116399824619293 -0.13852715492248535 -0.02090144157409668 0.07571838796138763 -0.015997737646102905 0.18560363352298737 0.1351703256368637 -0.17136909067630768 -0.12528178095817566 -0.11504850536584854 0.09001694619655609 -0.009225144982337952 -0.10900169610977173 -0.13652008771896362 0.0006921738386154175 0.10077638924121857 -0.010861724615097046 -0.1482497900724411 0.08612163364887238 -0.041881218552589417 0.06899653375148773 -0.040292128920555115 -0.05174800753593445 0.10802526772022247 0.03861322999000549 0.03914916515350342 -0.09012414515018463 0.04307524859905243 -0.10565324872732162 -0.12988409399986267 0.14504466950893402 0.14132390916347504 0.1532181054353714 -0.1633932888507843 -0.04477342963218689 0.01728399097919464 -0.17610566318035126 0.008107095956802368 -0.16994181275367737 -0.15840250253677368 -0.040140897035598755 -0.18354402482509613 0.1373569816350937 -0.1361323595046997 0.05077636241912842 -0.05595991015434265 0.0641174465417862 -0.04254506528377533 -0.060862794518470764 0.15175731480121613 -0.1849735975265503 0.05631949007511139 0.1197371631860733 0.18159233033657074 0.014607980847358704 -0.1724047064781189 -0.018492862582206726 -0.08341037482023239 0.06233157217502594 -0.002502158284187317 -0.17114567756652832 -0.005889952182769775 -0.1402062028646469 -0.1253328025341034 -0.16717490553855896 0.13917066156864166 0.10121126472949982 -0.14630654454231262 0.09363140165805817 0.11986272037029266 0.1555810421705246 0.15367256104946136 0.02930106222629547 0.04554124176502228 -0.15369325876235962 -0.0959545150399208 -0.0018481314182281494 0.11842690408229828 0.14954157173633575 0.1885969489812851 -0.0418323278427124 -0.08709362149238586 0.05405689775943756 -0.04263359308242798 0.06479065120220184 -0.14427924156188965 0.03850546479225159 0.12685634195804596 -0.08161336928606033 0.02354639768600464 -0.09399780631065369 0.10904015600681305 -0.0587085485458374 -0.05633315443992615 -0.03771264851093292 0.06552238762378693 0.0271548330783844 0.15713442862033844 0.1538044661283493 -0.10935408622026443 0.125308558344841 0.017032131552696228 0.15459804236888885 -0.13839927315711975 -0.1422165036201477 0.08388759195804596 0.029490754008293152 0.18665646016597748 0.045596376061439514 -0.06415046751499176 0.140141561627388 0.0950935035943985 0.17734836041927338 -0.030123665928840637 0.07628501951694489 0.09414653480052948 0.002222806215286255 0.07458142936229706 -0.16931618750095367 0.1754077821969986 0.14631618559360504 -0.039057910442352295 0.17941324412822723 -0.05596606433391571 -0.03218451142311096 -0.16856156289577484 0.04004834592342377 0.0570877343416214 -0.05008253455162048 0.15770487487316132 0.1522422581911087 -0.09365397691726685 -0.1167043074965477 0.1401377171278 0.1772325485944748 0.173280730843544 -0.00988006591796875 -0.023641318082809448 -0.059129923582077026 0.09645961225032806 0.018102392554283142 -0.13525009155273438 0.06332503259181976 -0.0733456090092659 0.10559196770191193 0.005776941776275635 -0.0820770412683487 -0.0740741714835167 -0.04949970543384552 -0.18445026874542236 -0.1309359073638916 0.0556049644947052 0.10605622828006744 0.1266656368970871 -0.039091721177101135 -0.11211754381656647 -0.15334774553775787 0.013582423329353333 0.08362163603305817 -0.17799203097820282 0.1477164775133133 -0.09481652826070786 -0.11381214112043381 0.015492945909500122 -0.08485352993011475 0.05757738649845123 0.13109131157398224 0.154258593916893 0.15423692762851715 0.1091994196176529 -0.13182532787322998 -0.03723008930683136 -0.09481244534254074 0.16990046203136444 -0.07887156307697296 -0.12981507182121277 -0.012638092041015625 0.06613095104694366 -0.09993889182806015 0.026120156049728394 -0.14716306328773499 0.05485868453979492 0.16884838044643402 -0.07493584603071213 -0.047174885869026184 -0.022062107920646667 -0.02764691412448883 -0.06506027281284332 0.16601206362247467 -0.05783054232597351 0.09947527945041656 -0.09136098623275757 0.06844641268253326 0.009159892797470093 -0.07642800360918045 0.18114732205867767 -0.18035712838172913 0.020881012082099915 0.07553105056285858 -0.01830926537513733 -0.05940745770931244 -0.001693636178970337 -0.06647294759750366 -0.03778211772441864 0.08575503528118134 0.04690435528755188 -0.19069790840148926 -0.17256805300712585 -0.05709996819496155 0.08968435227870941 0.03028203547000885 -0.016493260860443115 0.03733159601688385 -0.14129389822483063 -0.016600489616394043 0.012002483010292053 0.019882723689079285 -0.0773356556892395 0.08383949100971222 -0.16728629171848297 0.059393808245658875 0.1671912521123886 0.18245767056941986 -0.19119428098201752 0.0921383947134018 0.0766410082578659 0.02890603244304657 0.1623038500547409 0.046549975872039795 -0.00790560245513916 -0.010700881481170654 -0.04005105793476105 -0.00710548460483551 -0.043150484561920166 0.034616097807884216 -0.10337448120117188 -0.051764681935310364 -0.16470035910606384 0.10121335089206696 0.07067756354808807 -0.028142735362052917 -0.1687590479850769 0.12185485661029816 0.09394343197345734 -0.12775768339633942 0.1108206957578659 0.02919366955757141 -0.07088211178779602 -0.17247708141803741 -0.08817686140537262 -0.15671052038669586 0.044642508029937744 -0.035211265087127686 -0.1916549801826477 -0.12378523498773575 0.10919477045536041 0.06378777325153351 -0.11336847394704819 0.022149890661239624 -0.10506437718868256 -0.04186369478702545 -0.0743924230337143 0.10886518657207489 0.019252270460128784 0.06477893888950348 -0.06946784257888794 0.03901462256908417 0.10115982592105865 -0.15281003713607788 -0.1389904022216797 0.1766025871038437 0.15620039403438568 0.01571662724018097 0.059246525168418884 -0.06694315373897552 0.1674102395772934 -0.08645526319742203 -0.04805906116962433 -0.1462896168231964 -0.14353042840957642 -0.11471155285835266 -0.015642821788787842 0.023574665188789368 -0.07324613630771637 -0.1701786369085312 0.1447492092847824 -0.013776689767837524 -0.11526782810688019 -0.16913367807865143 0.0017111152410507202 -0.04347078502178192 0.03825581073760986 -0.13402347266674042 -0.1730300784111023 0.093062624335289 0.08218272030353546 -0.003336206078529358 0.14314745366573334 0.09881271421909332 -0.05791909992694855 0.018787354230880737 -0.14577023684978485 0.00394730269908905 0.17410071194171906 0.06963981688022614 0.0806996077299118 -0.10947122424840927 0.15004359185695648 -0.013196602463722229 -0.06119714677333832 0.12955980002880096 0.14184676110744476 -0.012765944004058838 -0.16557301580905914 -0.17053402960300446 0.07914234697818756 -0.10235822200775146 0.006398484110832214 0.05039089918136597 0.09207822382450104 0.06846557557582855 0.12214459478855133 0.06356362998485565 0.16597102582454681 0.005285590887069702 0.11139954626560211 -0.0065337419509887695 0.1441585272550583 -0.17356526851654053 -0.0421215295791626 0.06014986336231232 0.12125353515148163 0.0825221985578537 0.008003219962120056 -0.17655426263809204 0.021201565861701965 0.02561803162097931 -0.039839863777160645 -0.11492856591939926 0.10402174293994904 -0.02103477716445923 0.07216928899288177 0.13184060156345367 0.09315173327922821 -0.056487441062927246 -0.0994701012969017 -0.12180744111537933 0.04504552483558655 0.0015164762735366821 0.0987502783536911 0.10805262625217438 -0.15387114882469177 0.16757483780384064 0.07831932604312897 0.10357527434825897 -0.0837535634636879 -0.0008269548416137695 0.021769419312477112 0.160738006234169 -0.03982345759868622 0.18347226083278656 0.03419813513755798 -0.036771759390830994
1x1 kernel: -0.13937529921531677 -0.07747173309326172 -0.2585221827030182 -0.4371188282966614 0.0719912052154541 0.4046206474304199 -0.3552702069282532 0.41586506366729736 0.36492466926574707 0.3991897702217102 -0.42693856358528137 -0.4528941810131073 -0.15094420313835144 0.12369030714035034 -0.061953067779541016 -0.3312912583351135 0.24140948057174683 0.34261685609817505 -0.49002885818481445 -0.36182916164398193 0.060810625553131104 0.5184751749038696 -0.37810444831848145 0.13717591762542725 0.5233023166656494 -0.23250600695610046 0.09567826986312866 -0.5084413290023804 0.389021098613739 -0.25807255506515503 -0.06069004535675049 -0.2884158492088318 -0.2098989486694336 0.13602250814437866 0.5209822654724121 0.44946181774139404 0.35372239351272583 0.42686891555786133 0.42304694652557373 0.38453543186187744 0.020166397094726562 -0.3613452911376953 -0.5400143265724182 -0.101869136095047 0.28997212648391724 -0.23519274592399597 -0.3987511396408081 -0.32407209277153015 -0.34907281398773193 0.09562140703201294 -0.18651369214057922 -0.48774707317352295 -0.5602597594261169 0.003686666488647461 0.2025456428527832 -0.15068817138671875 0.019572019577026367 -0.4096187651157379 -0.4565102159976959 -0.5187612771987915 -0.23738256096839905 0.3245244026184082 -0.10481959581375122 -0.4806213080883026 0.5460268259048462 -0.4755476117134094 0.03530228137969971 0.07093149423599243 5.3942203521728516e-05 -0.35315459966659546 0.0824439525604248 0.5607941150665283 0.5130480527877808 -0.4498180150985718 0.418123722076416 -0.3873552083969116 -0.31554538011550903 -0.11307832598686218 -0.21142083406448364 -0.20522716641426086 -0.4376315772533417 0.06727218627929688 -0.23854875564575195 0.36640340089797974 -0.253361314535141 -0.27073803544044495 0.43583500385284424 0.2946206331253052 -0.010299742221832275 -0.3401537239551544 0.4613395929336548 -0.14675608277320862 -0.4348222017288208 0.2769068479537964 0.19900792837142944 0.13287240266799927 0.10381466150283813 0.5752612352371216 -0.4093555212020874 0.3471822142601013 0.08613133430480957 -0.17202553153038025 -0.1207442581653595 -0.3561689853668213 -0.3734302520751953 -0.32168328762054443 0.16961967945098877 -0.08694905042648315 0.3824213743209839 0.4822429418563843 -0.4249119162559509 0.0886492133140564 0.4970588684082031 0.22870361804962158 -0.4805409014225006 0.08667612075805664 -0.231115460395813 -0.3148776888847351 0.17693758010864258 0.323050320148468 -0.49355533719062805 0.3149498701095581 -0.4737069606781006 0.10324275493621826 -0.17291158437728882 0.0425601601600647 0.3247864842414856 0.3377896547317505 0.15167129039764404 -0.206423819065094 0.42532360553741455 0.10207319259643555 0.4583209753036499 -0.4559316039085388 -0.35852712392807007 -0.4285309314727783 -0.1568700671195984 -0.5715862512588501 -0.08480328321456909 0.5439740419387817 0.3303191661834717 0.11063998937606812 -0.06979525089263916 0.13261646032333374
bn3x3_weights: 1.0 1.0 1.0 1.0 1.0 1.0 1.0 1.0 1.0 1.0 1.0 1.0 1.0 1.0 1.0 1.0 1.0 1.0 1.0 1.0 1.0 1.0 1.0 1.0 1.0 1.0 1.0 1.0 1.0 1.0 1.0 1.0 1.0 1.0 1.0 1.0 1.0 1.0 1.0 1.0 1.0 1.0 1.0 1.0 1.0 1.0 1.0 1.0
bn3x3_bias: 0.0 0.0 0.0 0.0 0.0 0.0 0.0 0.0 0.0 0.0 0.0 0.0 0.0 0.0 0.0 0.0 0.0 0.0 0.0 0.0 0.0 0.0 0.0 0.0 0.0 0.0 0.0 0.0 0.0 0.0 0.0 0.0 0.0 0.0 0.0 0.0 0.0 0.0 0.0 0.0 0.0 0.0 0.0 0.0 0.0 0.0 0.0 0.0
bn3x3_running_mean: 0.0 0.0 0.0 0.0 0.0 0.0 0.0 0.0 0.0 0.0 0.0 0.0 0.0 0.0 0.0 0.0 0.0 0.0 0.0 0.0 0.0 0.0 0.0 0.0 0.0 0.0 0.0 0.0 0.0 0.0 0.0 0.0 0.0 0.0 0.0 0.0 0.0 0.0 0.0 0.0 0.0 0.0 0.0 0.0 0.0 0.0 0.0 0.0
bn3x3_running_var: 1.0 1.0 1.0 1.0 1.0 1.0 1.0 1.0 1.0 1.0 1.0 1.0 1.0 1.0 1.0 1.0 1.0 1.0 1.0 1.0 1.0 1.0 1.0 1.0 1.0 1.0 1.0 1.0 1.0 1.0 1.0 1.0 1.0 1.0 1.0 1.0 1.0 1.0 1.0 1.0 1.0 1.0 1.0 1.0 1.0 1.0 1.0 1.0
num_batches_tracked: 0
bn_weights: 1.0 1.0 1.0 1.0 1.0 1.0 1.0 1.0 1.0 1.0 1.0 1.0 1.0 1.0 1.0 1.0 1.0 1.0 1.0 1.0 1.0 1.0 1.0 1.0 1.0 1.0 1.0 1.0 1.0 1.0 1.0 1.0 1.0 1.0 1.0 1.0 1.0 1.0 1.0 1.0 1.0 1.0 1.0 1.0 1.0 1.0 1.0 1.0
bn_bias: 0.0 0.0 0.0 0.0 0.0 0.0 0.0 0.0 0.0 0.0 0.0 0.0 0.0 0.0 0.0 0.0 0.0 0.0 0.0 0.0 0.0 0.0 0.0 0.0 0.0 0.0 0.0 0.0 0.0 0.0 0.0 0.0 0.0 0.0 0.0 0.0 0.0 0.0 0.0 0.0 0.0 0.0 0.0 0.0 0.0 0.0 0.0 0.0
bn_running_mean: 0.0 0.0 0.0 0.0 0.0 0.0 0.0 0.0 0.0 0.0 0.0 0.0 0.0 0.0 0.0 0.0 0.0 0.0 0.0 0.0 0.0 0.0 0.0 0.0 0.0 0.0 0.0 0.0 0.0 0.0 0.0 0.0 0.0 0.0 0.0 0.0 0.0 0.0 0.0 0.0 0.0 0.0 0.0 0.0 0.0 0.0 0.0 0.0
bn_running_var: 1.0 1.0 1.0 1.0 1.0 1.0 1.0 1.0 1.0 1.0 1.0 1.0 1.0 1.0 1.0 1.0 1.0 1.0 1.0 1.0 1.0 1.0 1.0 1.0 1.0 1.0 1.0 1.0 1.0 1.0 1.0 1.0 1.0 1.0 1.0 1.0 1.0 1.0 1.0 1.0 1.0 1.0 1.0 1.0 1.0 1.0 1.0 1.0
num_batches_tracked: 0
